497 40
statementexpression -0.668961 0.471727 1.132911 -0.253371 0.190338 0.180862 -0.187324 0.150134 0.765333 -1.024450 -0.197643 -1.692429 0.482436 0.319267 -1.923172 -0.308326 -0.215612 -1.142714 -0.442860 1.122937 0.732360 0.282768 -0.655931 -0.366631 -0.969865 0.803109 0.676108 -0.407240 0.976008 0.298537 -0.334612 0.119840 -0.004295 -0.657609 1.709489 -0.209128 -0.078918 -0.610612 0.671023 1.117455
blockstatement -0.913702 0.588747 -0.683796 -0.740247 0.269860 -0.286900 0.276315 -0.183910 -0.351718 -2.579950 -0.030537 -1.109255 1.370416 0.028464 -1.021025 -0.243335 -0.176078 -0.069375 0.730887 0.077418 1.256375 -0.090852 0.464666 -0.060952 0.080034 0.780369 -0.052419 -0.615472 -0.017858 -0.415830 -0.055302 0.333037 -0.176356 -0.832853 0.742944 0.089914 -0.653028 0.560445 0.963478 0.789789
ifstatement -0.822590 0.618923 -0.832997 -0.459232 0.527533 -0.299736 0.082735 -0.344996 -0.096245 -2.478157 0.232161 -1.228745 1.315443 0.652831 -0.869338 0.077486 0.337250 -0.289399 0.624642 0.332871 1.297754 0.063665 0.058550 -0.158615 -0.009506 0.761028 -0.168182 -1.221945 -0.308971 -0.291137 0.130140 0.074348 -0.283168 -0.740329 0.961391 -0.135916 -0.295307 0.463287 1.159425 0.182152
ReferenceType_String 0.995355 0.150810 1.352619 0.076554 -0.999702 -0.634228 0.930420 -0.991414 -0.656994 -1.461225 0.237336 -0.004574 0.996988 0.975480 -1.244616 -0.967084 0.494281 -0.036326 0.875417 1.652396 1.081479 1.399239 -0.528074 0.328561 0.405255 0.106484 0.314874 -0.236782 1.039438 -0.114992 -0.564196 0.767792 0.481440 -0.281373 0.156421 -1.192855 -0.761043 1.011543 1.874862 0.720351
returnstatement 0.334881 0.710373 -0.475061 -0.334745 -1.095263 -2.044040 0.169467 -0.422815 -0.652356 -1.012052 0.753548 -1.101086 -0.538628 1.655906 -0.609272 0.127038 -1.168833 0.292480 1.235704 -0.533979 1.821339 0.596976 -0.354444 0.944765 -0.820692 0.456911 1.095739 0.056172 0.449939 -0.630401 0.652169 0.387209 -0.471212 0.073539 0.657519 -1.022415 -0.489276 -0.565025 2.033596 0.345446
throwstatement -0.099198 0.871743 -0.049509 0.101327 0.041204 0.107072 0.214997 1.507307 0.087438 -1.666443 -0.344681 -0.250480 1.098962 -0.178272 -0.371989 -0.539243 -1.140324 0.814804 1.171377 0.798904 0.801225 0.445621 -0.683654 -0.943145 0.007368 0.497261 -1.042998 -0.595496 0.147996 -0.034410 0.802809 -0.616489 -0.535126 -0.713760 1.053595 -0.305262 -0.730231 0.833299 1.939790 0.059036
ReferenceType_File 0.042978 0.984653 0.124226 -0.015643 -1.219097 0.050545 0.218345 -0.008567 -1.448800 -0.461679 0.312100 -1.295559 0.508593 0.922010 -0.814366 0.831210 -0.172714 0.023457 -0.083586 -0.218602 0.275034 0.141919 -2.087528 -1.019557 1.326439 0.128227 1.199285 -0.206701 0.470857 1.465128 -0.142570 0.628122 1.085094 -1.039887 1.208114 -0.331165 0.237567 1.066095 1.809620 1.339807
ReferenceType_BuildException 0.207926 0.661012 -0.362491 0.475899 0.054608 -0.270162 0.442800 1.301634 -0.354997 -1.148866 -0.639754 -0.758684 0.777957 -0.004857 -0.973956 -0.991194 -0.507689 0.356157 1.409515 0.374120 0.779341 0.204004 -1.334702 -1.284670 0.431849 1.288150 -0.885478 -0.252317 0.177502 -0.227978 0.713848 -0.798059 -0.737342 -0.834708 0.901555 -0.421219 -0.087179 0.519260 1.609585 -0.269820
catchclause -0.122919 -0.066866 0.935458 0.447587 -0.642141 0.023728 -0.005950 1.704685 -0.535360 -1.141479 0.468151 -1.092667 0.766525 -0.640713 -0.881856 0.071234 -0.489871 -0.800030 1.363830 0.144155 1.029802 0.281093 -0.404225 0.417774 -0.665824 -0.018084 -0.883815 0.386522 1.271618 0.113615 0.836196 0.200179 -1.244131 -0.992955 0.672689 0.397943 0.077163 1.148795 1.696727 -1.160200
catchclauseparameter -0.163614 -0.166862 0.826100 0.095649 -0.597105 -0.095518 -0.072999 1.690688 -0.397193 -0.942405 0.511082 -1.149422 0.942010 -0.559986 -0.843646 -0.022187 -0.379238 -0.771181 1.455714 0.183538 1.129716 0.053251 -0.592817 0.240303 -0.553153 0.138091 -0.860104 0.256169 1.108651 0.202952 0.873765 0.234365 -1.270800 -1.023942 0.696755 0.091199 0.069235 1.066335 1.631713 -1.059569
trystatement -0.458912 -0.249690 0.028058 0.448268 -0.276356 0.407270 0.482432 1.133347 -1.287158 -0.527862 -0.460093 -1.999212 0.770219 -0.459069 -1.526120 -0.129036 -0.186788 -0.038222 1.626729 0.140400 0.481165 0.347795 -0.915144 1.016978 -0.177636 0.284168 0.268954 0.848897 0.759327 -0.608326 -0.107869 0.245902 -0.658926 -0.822688 0.293668 0.490313 0.858408 1.134353 1.115633 -0.151377
MethodInvocation_append 1.449342 1.851414 0.155775 0.395321 -0.132752 -0.469604 0.553839 -0.189941 0.514679 -1.555404 0.998951 -1.413120 -0.126433 -0.471180 -0.487119 -0.428849 -0.685473 -1.446583 -0.488274 0.155265 1.033095 1.071491 -0.207156 0.645581 0.582208 0.814996 -0.236025 -1.135717 -1.539748 0.306802 -0.745054 0.994744 -0.639962 -0.460398 -0.138330 -0.716278 0.499789 -0.358659 0.483152 1.291081
MethodInvocation_log -0.311725 0.106246 -0.425554 -0.032048 -0.311786 0.666756 -0.128051 0.318663 -0.180770 -1.699643 0.491088 -0.066042 -0.429378 0.872463 -1.428523 0.502533 -0.281336 -1.327167 1.299408 0.229533 -0.616428 0.875758 -0.914655 -0.441191 0.480355 1.661758 -0.211077 -0.032028 0.639798 -0.656400 -0.242571 0.140802 -0.016822 -0.389145 0.085617 0.825093 1.625921 0.867165 1.427962 0.903885
forcontrol 0.069476 0.993129 0.262647 -1.123916 -0.281590 -0.879786 -0.173117 -0.990994 -0.264106 -1.141889 0.295925 -0.449369 0.730533 -0.704618 -1.876395 -0.542403 -0.688760 -0.215479 -0.444222 -0.094706 0.372362 -0.535578 -0.616452 -0.047478 1.022890 0.862412 0.124871 0.000357 0.096355 -1.119225 -0.193170 0.658324 -1.145004 0.099547 0.441178 0.750160 -0.434560 1.086930 0.499834 1.239837
forstatement 0.273722 1.018971 0.294882 -1.090060 -0.405222 -0.990749 -0.219698 -0.884023 -0.075482 -0.859886 0.170595 -0.490956 0.848580 -0.877110 -2.077010 -0.687074 -0.700035 -0.229896 -0.580538 -0.152345 0.362314 -0.405840 -0.814496 -0.101536 1.142824 0.854957 -0.055853 -0.241130 0.103205 -1.063606 -0.206743 0.538890 -1.074944 0.251336 0.560652 0.704433 -0.435004 1.240400 0.565346 1.122471
ReferenceType_Vector -0.051369 -0.040165 0.153485 -0.594085 -0.184249 -1.317902 0.291578 0.864328 -0.040899 0.426038 -0.727764 -0.407403 1.302826 1.071272 -0.918567 -0.332088 -0.355604 0.201861 0.831746 1.323676 0.835147 -0.864284 -1.187916 0.405449 1.249374 0.449063 1.508991 0.824279 -0.186402 -0.162806 -0.642512 1.280867 -0.929657 -0.013668 0.830058 -1.052954 -0.882736 0.730696 0.074347 0.191051
MethodInvocation_equals -1.688377 0.671845 -0.836288 -0.624748 0.679661 -0.305294 0.857171 -1.353869 -0.475171 -1.552236 0.838177 -0.007918 0.188324 0.231521 -0.529724 -0.052740 -0.181528 -0.455992 0.928207 1.194533 0.736835 -0.130423 -1.251169 0.608347 -1.167114 1.063164 -0.766573 -0.453290 -0.047469 0.637296 -0.656364 -0.172443 -1.076409 0.281559 0.186446 -1.089179 -0.237296 1.375148 0.377334 0.125241
MethodInvocation_addElement -1.225620 0.936404 -0.552020 -0.000547 -1.502750 -0.822620 0.001846 -0.328387 1.433058 -1.518018 0.197481 0.179924 0.941508 0.056641 -0.648341 -0.224107 -0.610991 -0.682630 0.010446 1.090173 -0.431758 -0.371533 -0.970858 -0.357686 0.291464 0.035363 0.909783 1.620896 -0.031046 0.020200 0.669826 1.593847 -0.262309 -0.759505 1.090253 -0.566763 -0.683082 -0.311178 -0.339600 -0.362893
whilestatement -0.188337 0.985809 0.082492 0.476720 -0.371311 -0.798994 1.147582 0.137254 -0.819874 -1.616211 1.065133 -0.583417 0.860935 -0.060066 -1.529235 0.132298 -0.868755 0.092271 0.514570 0.226265 0.226942 -0.909072 1.075501 0.457025 0.320807 0.306777 0.246871 0.723952 0.358537 0.365881 -0.266982 1.227484 -0.578807 -1.138972 -0.342811 0.830252 -0.591417 0.070260 -0.506668 1.345123
ReferenceType_StringBuffer 2.095587 0.360935 0.498283 0.386254 0.599310 -0.659027 0.114949 0.223829 -0.158440 -0.377320 0.058411 -1.039061 0.109891 0.307040 -1.322526 0.607463 -0.245854 -1.688165 0.531742 -0.151128 1.367233 -0.397958 0.097841 -0.305090 1.416377 1.332014 -0.446191 -0.608036 -0.639568 0.176926 -0.394844 0.648821 -0.940952 -0.513639 -0.599309 0.158431 -0.721886 0.169826 -0.224733 0.458183
MethodInvocation_size 0.271977 0.337877 -0.175292 -1.205820 -0.269254 -0.349388 -0.556982 -0.066680 0.160798 -0.600793 1.394922 -0.890021 0.353860 0.367368 -0.468909 -0.386955 0.136322 0.095673 -0.303088 1.076571 0.442486 0.028813 -0.776456 -0.547614 0.845277 2.155529 0.919690 0.406438 -0.281760 -1.749741 0.943636 0.292625 -0.752679 -0.132574 0.631685 -0.026160 -0.301955 0.294725 0.361532 0.673742
MethodInvocation_toString 0.660013 0.131515 -0.049921 0.127028 -0.457739 -0.523319 0.500030 0.516445 0.016839 -1.350681 1.211044 -1.696979 0.394847 -0.561305 -0.186708 -0.484426 0.183499 -0.883864 0.242679 0.854403 0.528066 -0.000737 0.130324 -0.141701 0.652681 0.879402 -0.376097 -0.745412 0.163004 0.236942 -0.585778 1.033997 -0.322387 -0.858151 0.718059 -1.015459 1.468139 -0.343926 0.620302 0.171510
MethodInvocation_length 0.338018 0.290548 -1.235406 1.457261 0.018842 -0.861053 0.101011 -0.555708 0.512079 -1.448018 -0.134733 -1.469742 0.183896 -0.770410 -1.746901 -0.012379 -0.000672 -0.175994 1.156011 0.634117 1.274464 0.257504 -0.391238 -0.005241 0.058017 -0.149370 -0.460330 -0.732430 0.002303 -0.304028 -0.419945 0.833493 -0.040217 -1.152906 0.554780 -0.115057 -0.606079 -0.002673 -0.953510 0.438131
MethodInvocation_println -0.090564 0.086906 0.159578 -1.171687 0.705015 -0.491516 -0.853735 0.483267 -0.014746 -0.519788 0.517228 -1.335487 0.452667 -0.020773 -1.465934 -0.141018 -1.256856 -0.120462 -0.815299 0.811355 -0.090114 0.550883 -0.006751 0.760380 -0.585250 -1.052342 -1.108573 -0.956639 1.251841 0.329242 -0.391644 0.747516 -0.385588 -0.221129 0.009008 -0.400779 1.171342 1.156165 0.436792 0.268370
MethodInvocation_setValue -0.476208 -0.777078 -1.081235 0.197964 -0.257303 0.247060 0.589805 0.374636 -0.549117 -1.368900 0.702368 -0.330711 0.045985 -0.054985 0.134372 -0.629144 1.511739 -0.555382 -1.069479 1.270078 0.396129 -0.087784 -0.073409 0.081391 -0.370953 0.505327 0.764909 -0.240989 -1.163608 -0.344117 -0.212722 -0.101276 -0.170309 1.184152 0.579805 0.930853 1.169635 -0.599307 1.383916 1.187070
ReferenceType_Object -0.396010 0.958468 1.252802 0.142145 -0.454768 0.955524 0.679803 -0.013852 -0.561747 -0.752055 -0.667348 -0.476611 0.537445 0.124256 -0.530640 0.550728 -0.412881 -0.120980 0.760293 0.172196 0.377552 -0.379229 -0.505503 -0.508239 -1.305519 1.871502 -0.792940 0.551234 -0.126183 -1.162179 -0.612483 0.498139 0.668039 0.080564 -0.389167 -0.868063 -0.797108 0.161757 0.450376 -2.563352
MethodInvocation_write -0.350180 -0.275558 0.704552 0.722927 -0.579398 -0.058944 -0.242370 -0.088404 -0.502298 -1.300005 -0.056548 -0.146520 1.057730 -1.662884 -1.127477 -0.404253 0.534979 -0.680359 -0.549593 0.299782 1.037450 -0.080707 0.065145 0.253549 -0.957412 -0.228784 -0.184454 0.174595 -0.246084 -0.261550 1.186794 -0.726277 -0.722231 1.081442 0.368637 2.171167 -0.618558 -0.835135 0.356196 0.208093
ReferenceType_Path -0.059933 1.273176 -0.103766 -0.216919 -0.091276 0.588454 -0.353740 1.235118 0.744295 -0.974464 -0.268446 0.046945 0.131608 1.114607 0.936585 0.328993 -0.256716 0.266069 0.641716 0.203031 0.823228 1.388504 0.463798 0.832871 0.053794 0.829580 1.951946 -1.292922 -1.857990 0.184725 -0.166237 0.112607 0.451796 0.680959 0.221791 -0.980058 0.197588 -0.366878 0.291900 0.451522
MethodInvocation_createArgument -0.348299 -0.257083 -1.144950 0.039563 0.660349 0.124256 0.302473 0.261768 0.208136 -1.302928 -0.079691 -0.310734 0.684593 0.222893 0.040016 -0.682705 1.391201 -0.362311 -1.125023 1.170549 0.223734 0.216505 0.298682 0.109524 -0.530565 1.097022 0.224808 -0.877485 -1.899220 -0.999917 -0.217940 -0.756822 -0.117029 1.607222 0.206243 0.875128 0.586783 -0.836812 1.035016 1.323256
MethodInvocation_close 0.110860 -0.453665 0.859580 -0.268280 -0.106071 -0.086868 -0.403977 1.158784 -1.029521 -0.431995 0.834447 -1.679381 0.433994 0.172113 -1.051787 0.018407 -0.134116 -1.019593 0.846454 -0.022102 1.033011 0.470370 -0.238923 0.337103 -0.438136 -0.049454 -0.439643 0.007706 0.945624 0.720542 0.766523 -0.048539 -0.675965 -1.182083 0.595966 0.778531 -0.187465 0.660461 0.087383 0.010943
MethodInvocation_getAbsolutePath -0.176870 -0.296300 -0.078296 0.176958 -0.349102 0.006046 0.462171 0.037375 -0.254823 -1.292143 0.601643 0.270252 -0.391759 0.087392 -0.736427 -0.401442 -0.089431 -0.240816 1.164996 -0.493276 -0.233522 -0.627713 -0.399750 -0.782975 0.410516 0.818934 0.246418 0.202897 0.421104 -0.597190 -0.549807 -1.102965 0.229926 -1.544413 1.486710 0.204791 -0.213339 1.407855 1.478998 1.460630
breakstatement -0.623683 1.316622 -0.151082 0.200747 -0.235152 -0.652711 0.361779 0.070589 0.479624 -1.022390 0.247723 -0.468835 0.231508 -0.602672 -0.555784 -0.224663 0.244501 -1.497861 -0.741998 0.041984 0.987717 0.272997 -0.859820 1.309547 -0.316611 0.212741 0.206603 -0.067128 -1.602663 0.736475 -0.650367 0.878401 -1.535581 0.022795 0.976375 1.242057 -0.990308 -0.787591 -0.705508 0.880168
ReferenceType_Project 0.028696 -0.108246 0.334380 -1.242899 0.058324 1.010651 -0.757384 0.598232 -1.130883 -0.054654 -0.193220 -0.442302 -0.302840 1.243887 -0.367345 0.742453 -0.757420 0.985923 0.245397 1.129501 1.172179 0.380377 -0.311601 0.170921 0.124741 0.980311 0.444390 -0.425898 0.113956 -1.171384 -0.227730 0.284233 0.296983 -0.205287 0.305865 -0.686059 -1.433904 0.754571 0.359514 -1.086933
ReferenceType_Task -0.037570 -0.700204 -0.340390 -1.022274 -0.583545 0.127932 -0.244711 0.355502 -0.781769 -0.558494 -0.237294 -0.848123 0.781243 1.216703 -0.531106 -0.442880 -0.617337 -2.280204 0.986537 -0.674872 0.201463 -0.737192 -0.208112 -0.731341 0.514587 0.042762 -0.583270 0.226498 0.831894 0.598087 -0.020308 0.603954 0.877005 -0.039762 0.150223 -1.140253 -0.951245 0.167934 0.145328 -0.507327
ReferenceType_Class -0.791858 0.168559 0.148112 0.518479 -0.133265 0.425992 0.049397 -0.304212 -1.216970 -0.300295 -0.641648 -0.504378 1.461226 -0.417505 -1.702478 -0.209496 -0.907101 0.217724 1.539031 -0.158288 -0.028111 -0.596602 -0.617046 0.178135 -1.190196 0.757532 -0.955352 -0.397522 0.316551 -0.381325 -0.467523 0.587875 0.375703 1.813305 -0.509001 0.313857 0.567875 0.359276 1.063877 -1.320090
MethodInvocation_substring 0.223578 0.839600 -0.722494 1.640755 -0.956393 0.336415 0.260342 -0.618617 1.374483 -1.399275 -0.075575 -1.030697 0.308005 -1.571505 -0.803999 0.958780 0.081111 -0.331011 -0.091014 0.523802 0.501988 0.207204 -0.020158 0.567615 0.667643 0.358945 0.143501 0.252000 0.412554 -0.804949 -0.818883 0.968062 -0.187102 -0.695447 -0.118900 -0.538662 0.154971 -0.109048 0.193440 0.865674
MethodInvocation_getValue -0.713769 -0.644901 -0.812965 -0.284056 0.071225 -0.103207 0.230590 -1.075308 -0.055535 -1.328744 0.161106 -0.064531 -0.488384 -0.179485 0.141039 -0.253777 0.094406 -1.296194 -0.557469 0.215645 0.452368 -0.497524 -1.175979 1.472501 0.128956 -1.692761 0.262230 0.503940 -0.765209 -0.065276 -0.418080 -0.214399 -0.756253 -0.109542 1.372306 -0.533660 -0.957970 0.415092 1.480932 0.036186
ReferenceType_Enumeration 0.911085 0.472961 0.772742 -0.398031 -0.251590 -0.717131 0.668545 0.013464 -1.076012 -0.886500 1.445864 0.043445 0.783083 0.594558 -1.216392 -0.046122 -1.345970 0.342973 0.104837 0.567910 -0.240416 -1.746505 0.900618 -0.030183 0.939655 0.355211 0.256789 0.568434 0.692700 -0.514934 0.070748 0.809810 -0.120523 -0.444057 0.021330 0.256756 0.144246 0.394344 0.535250 0.615398
ReferenceType_Commandline 0.462027 -0.027741 -0.366070 1.015284 -0.354327 -0.462508 0.240154 0.752940 0.793270 0.308359 -0.366551 -0.940926 0.749634 0.094507 -0.315588 0.525586 0.158751 -0.580982 0.388474 -0.006868 -0.093387 0.385353 -0.393755 0.176038 -0.623001 1.995483 1.518362 0.479217 -1.430455 -0.918805 0.637846 -0.766169 0.250045 1.036166 -0.500771 -0.324710 0.647917 -0.283039 1.005105 1.306213
MethodInvocation_hasMoreElements 0.354672 0.879066 0.878057 -0.813668 -0.063241 -0.625687 0.950700 -0.037149 -1.244891 -1.141717 1.344879 -0.021577 0.700764 0.363963 -0.706290 -0.392582 -1.524846 0.277617 -0.161516 0.488324 -0.430904 -1.483065 0.912368 -0.546641 0.848729 0.694280 -0.061657 0.827755 0.726342 -0.084988 0.273010 0.831775 -0.409795 -0.592646 -0.098497 0.131233 0.178695 0.119941 0.157686 0.245647
MethodInvocation_nextElement -0.262140 1.191214 0.457791 -0.868220 -0.099525 -0.422128 0.832598 -0.721854 -1.328877 -1.088778 0.882995 -0.129251 0.688819 0.493870 -0.123347 -0.428261 -1.219292 0.394108 -0.236250 0.538360 -0.140147 -0.802270 0.566500 -0.657110 0.331710 0.604903 -0.391300 0.494985 0.668108 0.670701 0.353929 0.536612 -0.064409 -0.547049 -0.146744 -0.367327 -0.118962 -0.168672 0.110810 -0.043450
MethodInvocation_exists -1.144142 0.623824 -1.444180 -0.287479 0.781870 0.041930 -0.117199 0.082365 -0.603692 -1.674697 -0.146362 -0.503838 0.384130 0.791043 -0.702567 0.472204 -0.145748 0.759567 0.912321 -0.716658 -0.365823 -0.462802 -0.661762 -1.246030 0.887946 0.582896 0.127679 -0.708965 -0.216175 0.144471 0.527928 -0.256950 0.457980 -1.123453 0.849697 0.280782 0.682474 0.651776 0.788138 0.321714
MethodInvocation_getProperty 0.060805 0.466796 -0.336113 -0.408653 0.936983 0.114389 1.551461 0.353704 -0.654448 -1.079937 -0.869133 -1.076664 0.546678 1.374881 -0.078336 0.276813 0.466750 -0.804659 -0.455744 0.676779 0.686795 -0.385892 0.646176 0.009789 0.590249 0.215722 -0.487790 -0.485433 0.379693 0.567784 -0.995246 -0.303037 -0.813706 -0.862656 -0.235465 -0.118109 0.214506 0.256562 1.076609 -0.069770
MethodInvocation_getName -0.276942 0.589926 0.074249 0.532739 0.727652 0.333741 -0.146398 -0.817355 -0.543379 -1.491016 -0.374459 0.124950 -0.635994 -0.815081 -1.490784 0.936900 -1.820555 -0.035903 -0.705873 0.636351 -0.044776 0.434211 -0.945053 0.446891 -0.020324 -0.950628 -0.646533 -0.387836 -0.303839 0.312732 0.793827 -0.485406 -0.476605 -0.160169 0.438307 0.434739 -0.363725 0.384002 0.786322 0.057337
MethodDeclaration_execute -0.217686 0.278062 -0.966194 -0.236631 -0.553918 0.580310 -0.177927 0.542815 0.473687 -0.419135 -0.710718 -0.728815 0.708013 0.647883 -0.341407 -0.589079 -0.113444 -0.323418 0.576157 0.773694 -0.169689 0.913980 -1.136396 -0.223002 0.471827 0.538364 0.934539 0.622575 0.786607 0.014232 0.925609 0.816854 0.119289 0.084443 -0.126356 -1.034829 0.362355 0.236198 1.021127 0.346992
MethodInvocation_getProject -0.827181 0.771044 -0.046678 -1.705750 0.279164 0.324126 0.320894 0.930622 0.440086 -0.711643 -1.474018 -0.440053 0.954678 1.320360 0.458517 -0.507085 -0.108350 -0.105359 0.455009 0.038027 0.056363 0.496909 1.130167 -0.113814 0.664323 0.534771 -0.395014 -0.787361 0.373452 0.119633 -0.745928 0.694573 0.161143 -0.130805 0.356974 -0.418272 0.482128 -0.306003 0.368959 -0.954646
ReferenceType_Hashtable 0.275809 0.447594 1.035879 -0.574277 -0.483660 -0.479315 0.252450 -0.395893 -0.135387 0.301770 -1.991788 0.552977 0.510422 0.460668 -1.167604 -0.014452 -0.610975 -0.067980 0.384108 0.323545 0.415026 -0.774252 0.066569 0.081911 0.509598 0.402706 1.437671 0.157230 0.679756 -0.407295 -1.167624 0.889888 -0.174817 1.415465 0.274653 -0.446201 0.420690 -0.243160 1.031091 -1.116520
MethodInvocation_put -0.286321 -0.046126 1.177453 0.329268 -0.347826 0.107977 0.969277 -0.812811 0.231621 -0.163400 -0.307777 -0.111740 0.084577 -0.115888 -0.239715 0.502721 -0.481220 -0.750222 -0.016627 0.310167 -0.613996 -1.633286 0.346602 0.281490 -0.390565 -0.017133 0.158190 1.041584 0.595589 -1.103034 -1.281460 -0.778933 0.216478 -0.115532 0.749832 -1.053023 0.299342 0.917783 1.925148 -0.591640
MethodInvocation_getMessage 0.388873 0.027612 0.225120 -0.098529 0.082703 0.168859 -0.280663 1.736039 -0.001493 -0.871342 1.146286 -0.130582 0.036781 -0.306556 0.270766 -0.866728 -1.171972 -0.517894 0.904906 0.981493 -0.038103 0.886233 -0.481788 0.088144 -0.260177 0.252614 -1.428533 -0.431320 -0.381127 0.822914 0.600441 0.136132 -0.874483 -0.761284 0.759743 -0.326465 0.388457 0.372370 0.870614 0.445270
ReferenceType_FileSet -0.641316 1.431295 0.272287 -1.383813 -0.757784 0.410033 0.344500 -0.456627 -0.828273 -0.295672 -0.484190 -0.344626 0.644490 -0.157591 0.412916 -0.569261 -0.272034 1.519121 -0.912200 0.634412 -0.233114 0.469091 -0.646429 -0.896519 1.033879 1.189338 1.157374 1.138251 0.787440 -0.299498 1.052839 0.921527 -0.522209 -0.574119 0.087998 0.409760 -0.601237 -0.260983 -0.074342 -0.146687
MethodInvocation_elementAt -0.643737 1.636875 -0.026325 -1.293061 -0.526535 -0.138434 0.117971 -1.372204 -0.350887 -0.242215 -0.401832 -0.715152 0.751663 -0.699685 0.426138 -0.361784 0.231553 0.910153 -0.705450 -0.159673 0.513033 0.549174 -0.795873 0.685398 0.206832 1.432694 0.717882 0.399889 -0.686207 -0.668357 -0.099571 0.561540 -1.286338 0.214600 -0.113526 0.392365 -0.672911 0.144549 -0.212578 0.696007
MethodInvocation_indexOf -0.698305 1.354182 -1.098873 1.144903 -0.170413 0.264909 0.754353 -0.436167 1.057427 -0.877515 0.399341 -0.126733 0.297707 -0.020700 -0.346034 1.235000 0.411110 -0.646900 0.540391 0.493333 1.092294 0.096620 -0.421458 1.031617 0.694988 0.914261 0.127203 -0.218138 1.135590 0.331646 -0.853086 0.182755 -1.490674 -1.111828 -0.586274 -0.664165 -0.521050 0.588444 0.018558 1.385784
MethodInvocation_read 0.180453 0.175673 0.189525 0.403472 -0.012755 -1.155098 0.360360 1.565071 0.120099 -0.483204 0.513550 -0.760374 0.348942 0.135093 -0.446097 -0.183967 0.269026 -0.212015 0.493442 -0.322818 1.185840 0.030447 0.780367 1.108033 -0.711579 0.137654 0.418325 -0.180795 -0.508834 -0.032685 -0.345616 0.016040 -0.960742 -1.085985 1.067590 1.314931 -0.581600 -0.656075 -0.059908 0.961696
switchstatementcase -0.950722 1.241462 -0.168453 0.327729 -0.526121 -0.259858 0.163551 0.046539 1.208332 -1.501353 0.029177 -0.165752 0.270644 -0.595117 0.089073 -0.083850 0.016219 -1.064198 -1.315982 0.370863 0.638375 0.433383 -0.103797 0.671597 -0.343952 0.467097 1.051590 0.455367 -1.417832 0.669775 0.489137 0.796394 -1.116447 0.332082 0.508207 0.660570 -0.960781 -1.677930 -1.242668 0.412982
ReferenceType_Reader -0.053825 0.146022 -0.113228 -0.461463 0.181330 -1.588843 -0.982008 1.013819 -0.054747 0.501241 0.165790 0.520238 -0.564390 1.641124 -0.810796 -1.027671 -0.058988 0.581587 0.915097 -0.276660 0.719220 0.417506 -0.458754 0.333977 -0.378516 -0.024456 0.006401 -0.491976 -0.202946 -0.447705 -0.616709 0.814846 -0.788964 -0.318414 1.246359 1.299557 -1.203737 -0.076543 -0.601746 -0.215636
MethodInvocation_get 0.143490 0.335399 0.272473 0.443880 0.617997 0.064442 0.744973 -0.547334 -1.661762 -0.593234 0.800880 -1.003810 0.801351 0.256618 -0.735490 0.166020 -0.985636 0.012163 0.145380 0.278637 0.095015 -1.389428 0.518456 0.341141 -0.427975 0.934268 -0.653870 -0.470639 -1.088948 -0.321614 -0.643212 -0.132659 0.536285 1.063712 -0.315078 -0.909759 0.276218 -0.603967 0.736896 -0.339408
MethodInvocation_getBytes -0.734229 -0.220421 0.339967 0.491435 -0.667419 0.405758 -0.241918 0.425536 0.505830 -1.040490 -0.492764 0.059256 0.088238 -0.370363 -0.627875 -0.431144 0.194061 -1.324625 -1.348233 0.169144 0.288488 0.369856 0.289203 0.862224 -0.654109 -0.785128 0.861948 0.314982 -0.603477 -0.323832 0.505038 -0.295789 -0.187198 1.156146 0.734321 1.728599 -0.294372 -1.804954 -0.125562 0.420373
MethodInvocation_elements 0.479332 0.534549 0.259530 -0.633532 -0.054722 -0.987251 0.170548 0.275959 -0.837534 -0.982537 1.034540 0.100251 0.443833 0.790445 -1.037903 -0.126239 -1.083378 0.042682 0.088528 0.263127 -0.268718 -1.178090 0.797595 -0.672650 1.104519 0.672779 0.247141 0.758944 0.395379 -0.255296 0.553396 1.096483 -0.325650 -0.600738 -0.131648 0.423391 -0.194639 -0.079372 -0.063974 0.165048
MethodInvocation_arraycopy -0.480258 0.293749 -0.364531 -0.491960 -0.938755 0.060917 -0.087263 0.185964 0.970918 -1.317304 0.166259 0.725756 -0.834326 0.182854 -0.470230 -0.351265 -1.451280 -1.401384 -1.275746 -0.101809 -0.637460 -0.072788 -0.136908 0.615572 0.280280 -0.196295 1.271102 1.055379 0.181122 -0.665196 0.337241 -0.193442 -0.614227 0.303503 1.034809 0.087509 -0.448808 -0.660140 0.447070 1.088265
MethodInvocation_equalsIgnoreCase -0.523181 -0.983849 -1.194580 -0.066020 0.370150 0.556890 -0.630966 -0.527775 -0.122677 -1.625837 -0.172197 -0.369736 -0.508298 -0.061358 -0.683800 -0.192928 -0.142136 -0.736259 0.108455 -0.149716 0.959103 1.027093 -0.779585 1.148128 -0.060589 -1.661136 0.096014 -0.206740 -0.947896 -0.329306 0.959411 -0.333212 0.052275 0.509761 0.420458 0.056168 -0.814229 0.046735 1.049496 -0.044408
ReferenceType_PrintStream 0.311417 -1.275001 -0.154708 -0.581150 0.259178 -0.489836 -0.339325 0.617403 -0.421248 0.246791 0.320307 -0.089724 -0.678902 -0.430520 -1.072958 0.174240 0.065000 0.046946 -0.265153 0.536118 0.824618 -0.720687 -0.596643 0.052281 0.056900 -0.602170 0.825768 -0.500113 1.092191 0.036807 -0.721655 -0.636275 -0.216307 -0.877271 0.459942 -0.307942 0.682032 1.616055 -0.408738 0.227971
MethodInvocation_isDirectory -0.467131 0.836538 -1.246455 0.385411 0.523571 -0.207988 -0.238189 -0.430664 0.206393 -1.162783 -0.481638 -0.535380 0.100050 -0.041396 -0.938650 0.630644 -0.526065 0.944112 0.991779 -0.909526 -0.110834 -0.284080 -0.803278 -1.331648 0.875308 0.336750 0.127164 -0.776562 0.112445 -0.192830 0.810328 -0.445230 0.594878 -1.107943 0.618313 -0.439134 0.029864 0.569625 0.776908 0.364976
ReferenceType_OutputStream -0.319022 -0.934699 0.620968 -0.272173 -0.853409 -0.111357 -0.610575 -0.141653 0.156952 1.001909 0.252629 -1.264175 1.260382 0.306011 0.092703 -0.085237 1.127462 -1.318283 1.278822 -1.160352 0.030062 0.180932 -0.237427 0.872821 -0.692860 0.571891 -0.370708 0.472071 0.548467 -0.066391 -0.475180 0.158003 0.437021 0.504541 0.451042 0.319402 -0.357190 0.236061 0.787858 1.155690
MethodInvocation_lastModified -1.061916 -0.049333 -1.173184 0.259348 -0.079434 0.445078 -0.119170 -0.333769 -0.344130 -1.929933 0.045817 0.312324 -0.749937 0.910420 -0.956150 1.088567 0.020946 0.096145 -0.262010 -0.119105 -0.462509 -0.308677 -0.166199 -0.506699 0.411708 -0.179092 1.028799 0.249021 0.140769 -1.158720 0.098028 0.316675 0.648377 -0.691263 1.052356 1.200001 1.103245 0.238297 1.443350 -0.357538
ReferenceType_ZipShort 0.053111 -0.517354 -0.078444 -0.157944 -0.604992 -0.110855 -0.974228 0.501365 0.212589 -0.344442 0.290417 -0.074661 0.182179 -0.422435 -0.199265 -1.079990 -0.372652 -1.016380 -0.317711 -0.490329 0.979917 0.576594 -0.072873 0.929235 -0.544626 -0.845390 -0.608875 -0.135454 -0.619980 -0.553907 0.770617 0.205604 -0.501110 1.348226 0.772066 0.699415 -1.126410 -1.449391 0.238464 0.227052
MethodInvocation_isReference -0.471889 0.870055 -0.755410 -0.218496 0.771481 0.470886 -0.034454 -0.125763 0.010191 -1.036160 0.131813 0.558959 -0.536029 0.424397 0.410781 0.755769 -1.433171 1.329454 0.215686 0.772250 0.631359 0.589632 0.233869 0.076475 -0.460739 -0.123423 -0.339574 -0.828583 -0.620473 -0.018417 0.312650 -0.143267 0.204729 -0.227680 0.174637 -0.793507 -1.119474 0.090451 0.246566 0.017859
ReferenceType_BufferedReader 0.753486 -0.042957 0.825617 1.177822 0.819774 0.268747 0.346617 0.745370 -1.101442 0.379917 0.778857 -0.932495 0.709343 0.833288 -1.238838 -0.403097 0.369123 0.084979 1.311033 0.193075 -0.094153 -0.178891 1.057251 0.030747 -0.045842 0.445512 -0.878221 -0.225120 0.324727 0.369693 -0.778398 0.725676 0.703857 -0.938019 -0.466725 0.747188 0.062427 0.325122 -0.511191 0.355119
ReferenceType_StringTokenizer -0.272024 0.173514 -0.266569 1.074319 0.214065 -0.866765 1.506208 0.046975 -0.269864 -0.699521 0.364976 0.744442 0.201116 0.699057 -0.438038 -0.244607 0.551136 -0.009775 0.573909 0.540429 -0.673358 -0.935557 0.500820 -0.134566 -0.284843 -0.186644 0.283217 1.022347 -1.277179 0.755958 -0.985566 0.135758 0.930568 -1.219936 0.425062 0.217662 -0.971789 0.009298 -1.056085 1.287347
ReferenceType_FileInputStream -0.815756 0.348177 -0.141767 0.923709 0.500097 -0.334786 0.078626 1.466737 0.229313 0.213917 0.160017 -0.665671 0.703436 0.153552 -1.322368 -0.214800 0.529131 0.618510 0.698566 -0.826464 -0.229424 0.004588 -0.108275 0.364520 -0.551062 -0.254049 -0.216879 0.036210 0.570425 -0.146035 -0.115853 -0.532058 -0.184109 -1.589210 0.998661 1.804805 0.005491 0.658084 0.050926 1.016549
ReferenceType_Properties -0.407740 0.644530 0.456808 0.161377 0.558057 -0.015844 0.464509 0.077048 0.212782 1.305559 -0.485979 -0.662559 1.314285 -0.179311 -0.456231 -0.543061 0.308793 0.606248 0.926242 -0.070136 -0.827019 -0.503233 -0.111529 0.440868 0.678570 0.273548 -1.113926 0.476956 1.060666 -0.631859 -1.172081 -0.229253 -0.572761 -0.499140 -0.135827 0.043208 0.660258 1.551487 0.731112 0.775425
ReferenceType_InputStream -0.115816 -1.028563 0.103438 -0.104065 0.048399 0.151431 -0.635926 0.106064 0.046701 0.958359 -0.125302 -1.478694 0.759723 0.787130 -0.595844 0.102535 0.495069 -1.196134 1.503574 -0.919608 -0.154292 0.356205 0.068870 0.970153 -0.424320 0.104854 -0.646632 0.165488 0.595253 -0.117290 -0.714009 0.011205 0.765792 0.106998 -0.012782 -0.029310 -0.073922 0.614590 0.520700 1.250746
ReferenceType_BuildEvent 0.420520 -0.306212 0.885785 -0.305738 0.326197 0.438117 -0.509146 -0.006367 -0.245418 0.378576 0.677501 1.496696 -0.910665 0.754246 -0.312258 0.938483 -0.466279 -0.858197 -0.213410 0.046857 -0.935212 0.094628 -0.021551 -1.333330 0.420445 0.601642 0.200043 0.005403 0.172354 0.576841 0.472353 -0.174011 0.241595 -0.117344 -0.250975 1.366342 0.931688 0.161543 -0.998013 0.005897
MethodInvocation_startsWith -0.382179 0.109283 -1.118079 0.670776 0.399997 -0.401747 0.822035 -1.439480 0.350241 -1.008109 0.384776 -0.258454 -0.519735 -0.081302 -0.309233 1.111307 -0.027580 0.074130 0.344949 1.150475 0.443710 -0.147304 0.002583 0.600237 -0.158635 0.192170 -0.462892 0.259951 0.042605 -0.885814 -0.937115 0.036974 -0.597394 -0.845109 -0.200739 -0.694232 -0.659079 1.434135 -0.188705 -0.162268
MethodInvocation_trim -0.100099 -0.249874 -1.020939 0.467722 0.362565 -0.706132 0.642459 -1.018049 -0.642657 -0.678560 0.869751 -0.665071 -0.021546 -0.202813 0.271213 -0.370051 0.116404 -0.332239 0.915387 1.046458 0.385274 0.324100 -0.450269 -0.020024 -0.347617 0.138751 -1.130087 -0.267623 -0.725777 0.754440 -0.444234 0.273229 -0.087502 -0.469816 -0.150296 -0.785349 -0.061826 0.256916 -0.884336 0.584207
ReferenceType_FileOutputStream -0.275305 -0.737037 0.010827 -0.039739 -0.089842 -0.142421 0.347167 0.964708 -0.180732 -0.222665 0.229311 0.041474 -0.090928 -1.147168 -0.619699 -0.084525 0.929776 -0.002458 0.026032 -0.708771 0.211747 -0.347505 -0.228202 -0.044161 -0.536461 -0.053083 0.579806 -0.012630 0.947683 -0.078466 -0.126287 -1.551196 -0.441877 -1.014036 0.664548 1.443642 1.023914 1.349433 0.382553 0.726666
MethodInvocation_setError -0.863896 -0.817956 -0.195633 -0.774760 0.142603 0.807780 -0.171338 -0.603166 -0.088225 -0.313294 0.298019 -0.564888 0.317128 -0.184015 0.855304 0.396933 1.449209 -0.565889 -1.206564 -0.561441 0.522883 -0.095319 -0.979157 0.087550 0.595326 -1.467349 0.096790 -0.068492 0.747897 0.914111 0.689624 -0.158895 -0.167430 -1.062806 0.096936 -0.207420 0.243878 0.946502 0.769568 -0.457752
MethodInvocation_charAt 0.200096 0.422696 -1.038298 0.398718 -0.030526 -0.759144 -0.383712 -1.811521 0.524913 -0.879000 0.418885 -0.819161 -0.554743 -1.197769 -0.899835 0.264858 0.206462 0.336250 0.196913 -0.134905 1.093133 0.168225 -0.149486 0.407530 -0.215094 0.024299 -0.086949 -0.825926 0.000590 -0.943698 -0.688386 0.904645 -0.354781 -0.477895 0.303054 0.067081 -0.633105 0.226268 -1.011390 0.049428
MethodInvocation_forName -0.899480 0.198285 0.034118 0.297457 0.225310 0.160975 -0.224256 0.926098 -0.694874 0.274993 -0.663064 -0.419832 0.601680 -0.107984 -0.854362 -0.302466 0.014626 0.853459 1.466853 0.060616 0.108072 0.490710 -0.591740 0.683344 -1.875824 0.511295 -0.424082 -0.040584 0.882481 -0.040019 -0.185177 0.165807 -0.173341 0.693506 -0.419397 0.254304 0.970043 0.478921 0.475545 -0.511769
ReferenceType_ZipLong -1.165414 -1.078498 0.484836 0.040360 -0.430810 -0.132690 -0.043951 -0.548460 -0.298313 0.268051 -0.842026 0.397382 0.689492 0.050791 -0.692393 0.103335 0.153967 -0.655643 -1.433311 0.615047 -0.191712 -1.168012 0.227809 0.395771 -0.350309 -1.075088 0.723437 1.013590 0.021570 -0.082097 0.135612 -0.691440 0.231362 1.518738 0.252684 0.741575 -0.099353 -1.288163 -0.349834 -0.191949
continuestatement -1.331651 0.669192 -0.998019 -0.556108 0.147716 -0.143264 0.222552 -1.601987 -0.551697 -1.242538 0.210500 -0.091852 0.413795 0.270112 -0.911567 0.257829 -0.034422 -0.490418 -0.145988 -0.143217 -0.189144 -0.307385 -0.371564 0.214238 -0.168473 0.764822 -0.041361 -0.229571 -0.723804 0.125377 -0.818054 0.641033 0.209313 0.522217 -0.055123 0.575984 0.128637 0.257586 -0.438812 0.925214
MethodInvocation_getMethod -0.420272 -0.025830 0.676186 0.523698 -0.390622 0.507604 -0.701987 0.194948 -0.647547 0.187223 -0.995232 -0.300961 0.397873 -0.545695 -1.248555 0.337912 0.037396 0.162914 0.413976 -0.558578 0.992141 0.352533 -0.848223 0.368919 -1.053672 0.201050 -0.134807 -0.238488 -0.151895 -0.465480 0.374350 0.439280 -0.116747 1.423610 -0.047947 1.018444 -0.066774 -0.574496 0.621626 -1.789804
MethodInvocation_invoke 0.235493 0.190132 0.451433 0.386333 -0.006014 0.532317 -0.074021 -0.219828 -0.506234 -0.233913 -0.534264 -0.173995 -0.400091 -0.195974 0.213215 0.583112 -0.194220 0.478458 1.053754 -0.207108 1.415179 0.454607 -0.612051 0.211207 -0.947016 0.179121 -0.564722 -0.876615 -0.065208 -0.200552 -0.171632 -0.117715 -0.188291 0.317601 -0.248873 -0.865172 -0.405389 0.393745 1.036052 -2.172802
MethodInvocation_replace 1.141460 0.081312 0.072240 0.507295 -0.388494 -0.531511 0.646610 -1.418950 0.253221 -0.283629 0.590713 -0.821182 -0.463980 -1.115706 -0.730657 0.400956 0.258257 -0.201570 -0.275837 -0.162249 0.826376 -0.761174 -0.750622 0.067279 1.015966 -0.579543 -0.382635 -0.527245 1.792036 -0.508051 -0.652216 0.238761 -0.826823 -0.563059 0.283987 -0.810841 -0.569361 0.879044 0.867719 0.793142
ReferenceType_Throwable 0.905212 -0.693143 0.345794 -0.288579 -0.084464 0.060195 -1.329064 0.555507 0.509841 0.101367 0.651451 -0.333798 0.055688 -0.762262 0.053175 -0.194774 -0.652016 -0.782392 1.572194 -0.436686 1.061931 -0.701427 0.005245 -0.792178 0.417066 1.042169 -0.698060 -0.531157 0.762798 -0.288661 0.543670 -0.274463 -0.338942 -0.275624 0.310044 -0.956829 0.031247 0.644694 0.192556 -0.829975
MethodInvocation_getClass 0.128778 -0.425461 0.128455 0.302894 0.017075 0.276359 -0.685825 -0.501125 -0.459220 -0.409526 0.034332 -0.409013 -0.436482 -0.237440 -0.690900 0.634012 -0.604552 0.520871 0.901730 -0.529362 0.130438 0.869016 -0.454846 -0.098775 -0.604013 0.144070 -1.675998 -0.832187 -0.259208 -1.392788 0.471493 -0.303684 0.577185 0.436649 -0.221554 0.325155 0.676947 0.319469 1.205737 -1.433121
MethodInvocation_readLine 0.215871 0.373804 0.432901 1.250500 0.087269 0.211649 0.378586 0.449644 -0.351361 -0.447590 1.070735 -1.165414 0.755638 -0.296423 -0.802983 0.032261 0.165038 -0.143382 0.466301 0.759444 0.265042 -0.118264 0.956692 0.641003 -0.251144 0.539446 -0.638366 0.178070 0.238251 -0.014240 -0.304537 0.921990 -0.107017 -0.972139 -0.541759 0.490336 0.094378 -0.066380 -0.771679 0.207881
MethodDeclaration_toString 2.050040 0.045019 0.510188 0.695727 -0.200208 -0.727743 0.030894 -0.288572 -0.155491 -0.100289 0.669173 -0.427792 -0.523398 0.404057 0.004816 -0.313463 0.017455 -0.741862 0.525806 -0.156785 1.048676 0.253858 0.538395 -0.750193 0.881434 0.725325 -0.244892 -0.276124 0.151869 0.124318 0.426999 0.453190 -0.064164 -0.519323 -0.486931 -0.302993 -0.838581 -0.953846 0.008460 0.624031
MethodInvocation_toLowerCase 0.392069 0.859963 -0.441205 1.459405 0.318537 0.832721 1.337053 -0.252124 0.082404 -0.479948 0.074675 0.086839 -0.285813 1.005516 0.097611 0.712979 -0.140051 -0.390830 0.182219 0.705905 0.513917 0.088653 0.708610 1.193003 0.370916 -0.067712 -0.406930 -0.137575 -0.042730 -0.170427 -0.777793 -0.437351 -0.604161 -0.459245 -0.796834 -1.204003 -0.851069 -0.106111 1.089798 0.183372
ReferenceType_Long 0.346088 0.061065 0.072499 0.995562 -0.818906 0.429713 0.340010 -0.242712 0.078081 0.037904 -0.194932 -0.937353 0.069101 -1.142715 0.148104 0.535889 -0.733176 -0.853596 0.209701 -0.668829 0.166741 -1.131513 0.445432 0.718820 0.075728 -0.622294 0.676727 0.822232 -0.061424 -0.407214 -0.457408 -0.328478 0.458394 -0.336568 0.745633 -1.023390 -0.302367 -0.106006 0.667592 -0.502965
ReferenceType_Parameter -0.284350 -0.085236 -0.049552 -1.727961 0.365894 -0.398572 -1.075705 -0.271715 0.132988 0.351558 1.300330 0.254904 -0.578098 0.503431 0.040998 -0.743188 -0.107652 0.143525 -0.854059 -0.210813 -0.449545 0.787223 -0.922664 -0.509692 0.182215 -0.204666 -0.124562 -0.308738 0.081002 -0.277606 0.702446 0.187713 -0.205955 -0.455650 0.239624 0.372730 0.462173 0.419960 -0.563250 0.642474
ReferenceType_Reference 0.143727 0.986892 0.111942 -0.444091 -0.506094 -0.391235 -0.571982 0.439551 0.916161 -0.487543 0.437355 0.831742 0.294039 0.877377 0.617466 -0.102127 -1.037223 -0.287091 0.286648 0.314196 0.119052 1.080445 1.297723 -0.113470 -0.042950 -0.055491 0.183414 -0.241065 -0.934952 0.583605 1.289848 0.181049 0.501914 0.801175 0.196531 -0.431333 -1.065552 -0.929443 -0.712694 0.094838
MethodInvocation_nextToken -0.873958 -0.144349 -0.301694 0.672753 0.260921 -0.535101 1.167821 -1.044063 -0.708708 -0.341200 0.388773 0.200273 0.468309 -0.228154 -0.287153 -0.469363 -0.177459 0.204220 0.463659 1.261981 -0.607720 -0.725833 0.051221 -0.231740 -0.669336 -0.458974 -0.552871 1.099609 -0.222301 0.806523 -0.409394 0.389522 0.415183 -0.492554 -0.060028 -0.449360 -0.611366 -0.191749 -1.283159 -0.233751
ReferenceType_IOException -0.059543 0.468989 -0.202834 -0.912180 0.052542 0.159414 -0.083172 0.917635 0.505562 -1.048740 0.554303 0.611699 0.284734 0.023944 0.885352 -0.835579 -0.761065 0.048406 -0.359896 0.596626 -0.192544 0.757873 0.477751 -0.117729 -0.200397 -0.780216 -1.447230 -0.481500 0.345741 0.594581 0.798322 -0.429523 -0.538426 -0.330734 0.303984 -0.283028 -0.229356 0.304789 0.871089 0.645663
MethodInvocation_newInstance -0.801950 0.126751 0.590770 0.284840 -0.194588 0.007385 0.001744 0.493116 -0.680877 0.335510 0.204883 -0.065184 -0.066759 -0.103887 -0.322991 -0.058965 -0.133643 0.685095 1.209975 -0.556502 -0.066598 -0.418973 -0.309188 0.157895 -2.245626 0.379578 -0.504361 0.321479 0.975629 -0.024739 -0.355092 0.119065 -0.165561 0.126958 0.059393 0.269048 0.263773 0.353498 0.502432 -0.838286
ReferenceType_AntClassLoader -1.086593 0.240627 -0.652546 0.252034 0.369819 0.749991 0.407308 0.820103 -0.440189 -0.907882 -1.150799 -0.256872 0.721090 0.535425 -0.066196 -0.941996 0.455311 0.569525 1.186107 0.325102 -0.006318 0.514366 0.508645 0.131539 -1.202859 0.202006 0.375433 -0.845836 0.693461 0.693629 -0.338740 0.197099 0.775523 0.890290 0.050152 0.128166 1.117932 -0.962373 0.402990 -0.119993
ReferenceType_PrintWriter 0.104525 -0.005517 0.531596 -0.433189 0.094182 0.281349 -0.160449 -0.040204 0.011474 0.143881 0.232546 -0.849390 0.484641 -1.571382 -0.318220 -0.175542 0.516519 -0.222910 -0.053154 -0.633980 -0.054947 -0.191600 0.428357 0.227711 0.078116 0.014746 -0.952547 -0.087447 1.541261 0.144834 -0.553154 -0.138993 -0.674999 -0.878143 -0.174094 0.891505 1.497568 0.950061 -0.040435 0.258446
MethodInvocation_isFamily -0.165822 -0.050836 -1.161346 0.431896 0.751804 -0.404145 0.253595 -0.273684 0.032741 -0.005380 -0.645364 -0.049652 0.007925 0.359517 0.481624 0.504702 0.813167 -0.040042 0.778680 0.373801 1.766931 -0.206968 -0.425401 0.097527 0.399959 0.005164 -0.397680 -0.963378 0.073576 1.029676 -0.756015 0.185733 -0.714600 -0.649688 -0.602643 -1.061975 -0.522700 0.089303 -0.373501 -0.476073
MethodInvocation_resolveFile -0.559134 0.419493 -0.764833 0.058783 0.179390 0.028462 0.256212 -0.343825 0.068530 -0.710145 -0.171382 -0.344556 0.238904 0.047060 0.099561 0.312048 -0.024302 0.047977 0.087932 -0.094340 -0.453449 0.119790 -0.643836 -0.507156 0.754269 -0.467358 -0.366942 -0.610068 -0.261820 0.838930 -0.196843 -0.056234 0.462311 -0.623004 0.618069 -0.771320 1.417203 0.195532 1.102563 0.305685
ReferenceType_EnumeratedAttribute 0.690782 -1.094531 -0.301343 0.307972 -0.871506 -0.427787 0.367422 -0.145791 -1.046794 -0.002969 -0.243300 0.540582 -0.823584 0.634745 0.138820 -0.424001 0.539674 -0.056387 0.517719 0.240721 0.451293 0.073906 -0.753774 0.228521 -0.075164 -1.127284 0.720080 0.179141 0.244885 -0.018211 0.099234 0.570410 0.857748 1.429405 0.085567 -0.921681 -0.477151 0.006843 0.872045 -0.377681
ReferenceType_Method -0.110351 0.211021 0.115131 0.552808 -0.194120 0.394883 -0.199815 -0.268001 -0.767702 0.232958 -1.355666 -0.121926 0.459888 -0.356477 -0.906450 0.444172 0.217228 0.834310 0.764003 -0.568057 0.707320 -0.342823 -0.586988 -0.042342 -0.462017 0.388333 0.217668 -0.222411 0.096232 -0.672999 -0.076344 0.255156 0.182758 0.849689 -0.374174 0.544528 0.288354 0.093554 0.899358 -1.659479
ReferenceType_Attribute -0.158534 0.377186 0.076522 -0.071027 0.701028 0.421897 0.763519 -0.305786 -0.451140 -0.664249 0.893253 0.590435 0.293907 0.009191 0.151471 -0.581554 -0.830194 -0.009688 -0.851467 0.847377 -0.613548 -0.208992 0.946969 0.804215 0.235097 -1.035995 -0.809288 0.399798 -0.440091 0.120292 0.564633 -0.528746 -0.587709 0.392498 -0.643262 -0.041334 -0.295113 -0.385929 0.111591 0.035332
ReferenceType_Date 0.498989 0.082763 -0.162922 1.045240 -0.281260 -0.162836 -0.263231 0.619014 0.315359 -0.193282 -0.911080 0.221816 -0.011659 0.097073 -0.641905 0.234362 -0.069633 -0.425743 -0.034370 0.300040 0.358753 -0.122141 -0.300404 -0.551381 0.794177 -0.331653 1.739683 -0.069538 -0.446876 0.875340 0.808311 0.445531 0.049521 0.470289 -0.138301 0.065623 -0.672774 -0.309450 -0.648864 -0.094032
ReferenceType_DirectoryScanner -0.106144 1.036236 0.090222 -1.054727 -0.438275 0.561731 0.156942 -1.649731 -1.163721 0.008458 -0.135834 -0.487426 0.521905 -0.581608 0.247105 -0.374777 0.412258 1.403025 -0.365521 0.035145 -0.013252 1.167089 -0.729252 -0.601709 1.126014 0.868298 0.024955 0.032862 1.290636 0.223328 0.686223 0.429450 -0.334189 -0.430504 -0.723582 0.362154 0.152718 0.905467 0.176286 0.727059
ReferenceType_Execute -0.413142 -0.267699 -0.070921 -0.011226 0.712169 -0.115538 -0.427763 0.410409 0.429026 0.898601 -0.009317 0.212351 -0.782213 -0.138939 -0.202493 0.284442 -0.680244 -0.017663 0.617039 -0.931892 -0.404999 -0.124506 -0.027643 0.919673 -0.975374 -0.012320 -0.621269 -0.747008 -0.327950 -0.706469 -1.027134 -0.339260 -0.198335 0.643425 0.299133 0.284622 1.087733 0.072573 -0.042696 -0.626793
ReferenceType_Stack 0.465048 0.219931 0.507695 -0.341620 0.274394 0.688283 0.156500 1.155479 -0.243598 -0.154794 0.351038 -1.409581 -0.070264 -0.212330 0.732542 0.574652 0.017307 0.024384 -1.231695 -0.588125 0.630451 -1.029312 0.468703 0.465155 0.092243 0.936555 -0.364277 -0.331379 -1.484277 -0.289266 -0.847244 -0.612186 -0.011718 -0.144783 -0.205976 -0.636541 -0.519000 -0.327686 0.229264 -0.285607
MethodDeclaration_getValues 0.569460 -1.004516 -0.820474 0.549956 -0.538282 -0.751417 0.239485 -0.605472 -0.669753 -0.717948 0.117318 -0.181939 -0.653639 0.343618 -0.439296 0.044847 0.264738 0.115777 0.203496 0.242765 0.154462 -0.312466 0.260277 0.226081 0.012779 -1.132690 0.850204 -0.153089 0.292750 -0.644021 -0.446981 0.578620 1.048280 1.100555 0.381007 -0.530446 0.162943 -0.264075 1.350547 0.578985
MethodInvocation_delete -0.056673 -0.181184 -0.367718 0.546628 -0.056535 0.278371 0.194809 0.956661 0.297136 -0.306983 0.222873 0.461595 -0.137512 0.312781 0.072842 0.067538 0.591919 0.297436 0.977916 0.140035 -0.452395 -0.210238 -0.302696 -0.904243 0.962552 0.553174 0.368920 0.065023 0.190198 0.014405 0.007244 -0.594169 0.283600 -1.398067 0.782662 0.124363 0.400108 1.103383 0.669154 0.719761
MethodInvocation_endsWith -0.183067 0.413482 -0.883177 0.512636 0.210752 -0.363102 0.634730 -1.977628 0.348718 -0.772397 0.053103 -0.115371 -0.483236 -0.756591 -0.118962 0.914689 -0.060322 0.559174 0.135861 -0.243365 0.303683 -0.422358 -0.145106 0.390353 0.414949 -0.797505 -0.464125 -0.696279 0.759643 -0.069555 -0.723783 -0.093054 -0.157511 -0.574516 0.053744 -1.072228 -0.535255 0.960303 0.318251 0.358898
MethodInvocation_getCommandline 0.750141 -0.696151 0.393127 0.104322 -0.559060 -0.558826 -0.415410 1.010854 0.708528 0.364672 1.129171 0.585072 -0.560039 0.389804 -0.113045 -0.638502 0.020585 -0.163284 0.851446 0.109344 -0.725469 0.734448 -0.234953 -0.046916 -0.257750 0.888912 0.312920 0.782061 0.174181 -1.008054 0.931042 0.001747 -0.159658 -0.058492 -0.017323 0.281884 0.708705 -0.375700 0.077237 0.456824
MethodInvocation_getDir -0.297000 0.570838 -0.510181 -0.690250 -0.183982 0.302714 -0.137019 -1.014206 -0.714423 -0.485491 -0.336416 -0.187869 0.413280 -0.444651 0.001207 0.060890 0.111299 0.757316 -0.848876 -0.388707 -0.255329 0.148921 -0.580785 -0.707946 1.040189 0.013255 0.205708 -0.187868 0.451024 0.055935 0.825238 0.127425 -0.027540 0.005903 -0.166510 0.353464 0.668038 0.416390 0.835882 0.486508
MethodInvocation_hasMoreTokens -0.326354 0.201768 -0.392715 0.870948 0.295200 -0.935730 1.333247 -0.456415 -0.699635 -0.857249 0.739743 0.441387 0.523299 0.374285 -0.659996 -0.311423 -0.001360 0.299646 0.721812 0.913620 -0.353838 -0.992512 0.506515 -0.154932 -0.587091 -0.307774 -0.257110 0.907928 -0.500487 0.645568 -0.509018 0.554436 0.594639 -0.969074 0.160591 -0.051078 -1.149284 -0.081959 -1.090940 0.545598
MethodInvocation_init 0.229118 -0.480048 -0.083581 0.782699 -0.317522 0.514788 0.347364 -0.027957 0.467392 0.151615 -0.618793 0.866285 0.433671 -0.427600 0.243335 -1.107498 0.578376 0.010396 -0.134596 0.820312 -0.282307 0.171936 0.211516 -0.266167 -0.890860 0.451678 0.360278 0.902108 -0.204150 -0.519298 0.146937 0.056567 0.659537 0.720689 -0.599309 -0.260176 -0.389437 -1.315931 -0.302924 0.016361
MethodInvocation_setNewProperty 0.289536 -0.503635 0.086476 -0.790505 0.042651 0.243691 -0.160703 -0.074033 0.367871 -0.461883 -0.507105 -0.248089 -0.173249 0.284622 -0.163919 -0.559123 -0.247145 -1.156169 0.677334 0.512524 -0.214877 0.976705 0.277746 -0.248838 0.525666 -0.276733 -1.512959 -0.768871 1.388616 0.611823 -0.665099 0.478185 0.172618 -0.178333 -0.213386 -0.317083 0.942756 0.156739 -0.133286 -0.025759
ReferenceType_NameEntry -0.252676 0.498201 0.521497 -0.539820 -0.080366 -0.896140 -0.612057 0.226104 0.086038 0.511498 0.495518 0.318251 0.507163 0.695742 0.489387 -0.078494 -0.792752 0.724002 0.212103 -0.699547 0.164357 -0.257772 1.045438 0.074885 -0.752071 -0.514013 -0.078927 -0.085374 0.354128 -0.274660 0.845858 -0.023384 0.147151 0.207144 -0.101312 -0.230085 -0.462496 -0.622948 -0.240942 -0.696778
MethodInvocation_execute -0.727709 -0.168745 0.491110 -0.320118 0.279605 0.283770 -0.440905 0.594018 0.366010 -0.435767 -0.444558 -0.014601 0.348506 0.041777 -0.562995 -0.372390 -0.001322 -0.711861 0.695811 -0.644916 -0.658965 0.071565 -0.059841 -0.416131 -0.381272 0.086763 -0.893971 0.021327 0.741653 0.001611 0.102944 -0.204899 -0.170315 -0.515237 0.671955 1.084753 0.718644 -0.039866 0.382680 -0.722510
MethodInvocation_keys 0.174395 0.584265 0.637999 -0.537971 0.234411 -0.443488 0.740371 -0.371313 -1.219237 -0.171246 1.067094 0.375159 0.392794 0.220393 -0.857936 -0.244598 -0.671384 0.687699 0.092875 0.107324 -0.611400 -1.160685 1.088489 0.171905 0.265608 0.993640 -0.064165 0.613660 0.554252 -0.809358 -0.536108 0.515972 -0.243324 0.070414 -0.627323 0.685826 0.575378 0.392774 0.116146 0.396838
ReferenceType_TimedElement -0.815122 -0.033368 -0.554432 0.167400 0.965202 0.684810 0.026939 -0.326596 -0.489122 0.300857 -0.407520 -0.030926 0.746520 0.017147 -0.494177 -0.120068 -0.301342 0.088732 0.074872 -0.256164 -0.851031 -0.996874 0.398376 -0.198605 -0.376271 0.374868 -0.368127 -0.454817 -0.493010 -0.222282 -0.619119 -0.037715 0.901627 0.947353 -0.668336 -0.119022 0.436553 -0.348074 -0.557193 -0.541980
MethodInvocation_bsW 0.579961 0.520938 0.307033 -1.140526 -0.030354 -0.086819 0.166219 -1.468187 -0.060448 0.008914 -0.021411 0.274573 0.022125 -0.214196 -0.507251 -0.172275 -0.338994 0.053623 -1.410423 0.283631 -0.586321 -0.482588 0.186773 -0.736735 1.506982 0.414483 0.760343 0.336481 0.501430 -0.045709 -0.490545 0.556010 0.030590 -0.151657 -0.192383 -0.218135 -0.270155 0.410204 -0.576202 1.266513
MethodInvocation_copyInto 0.312042 0.034279 0.253459 -0.943418 -0.892796 -0.500760 -0.998132 -0.668352 0.335121 0.120792 0.953999 0.069131 0.134909 0.039940 0.012791 -0.483377 0.111494 0.377409 -0.035726 0.470177 -0.255436 0.191540 -0.828669 -0.860375 0.557416 1.142502 0.403053 0.494752 0.187452 -1.052337 0.904937 0.358352 -0.330077 0.161952 0.416315 0.110719 -0.197513 0.305589 0.167134 0.484808
MethodInvocation_getIncludedFiles 0.413258 0.719823 -0.058524 -0.890000 -0.487197 0.010779 -0.270789 -1.461848 -0.537514 0.032691 -0.448819 0.143318 0.263378 -0.829668 -0.124920 -0.366224 -0.094393 0.609330 -0.695666 -0.394566 0.004136 0.668762 -0.757155 -0.575814 1.375358 0.105770 0.099079 -0.077338 0.824624 0.242119 0.682386 0.396769 -0.511832 0.071709 -0.390603 0.578230 0.079957 0.710629 0.266753 1.103577
MethodInvocation_isJavaVersion -1.303729 -0.048980 -1.514934 0.038818 0.692994 -0.339087 0.627684 -0.264279 -0.229701 -0.044371 0.221965 0.166676 -0.615816 0.147165 0.734006 0.387677 -0.161123 0.270802 0.468604 0.031699 0.071065 -0.414791 -0.875745 0.319804 -0.677195 -0.500021 -0.449367 -0.327439 -0.141063 1.088576 -0.737930 -0.730584 -0.425435 -0.152995 0.099292 -1.183061 -0.162530 0.774332 -0.308517 0.050135
MethodInvocation_tooManyAttributes -0.332023 0.704289 -0.802913 0.405330 0.466594 0.457583 0.091274 0.207945 0.522245 -1.233466 0.023605 0.996478 -0.177861 0.086864 0.471421 0.514977 -0.638223 0.841231 0.420948 0.977253 -0.105483 0.670472 0.060527 -0.643757 -0.315656 -0.179626 -0.627590 -0.494106 -0.594309 0.371470 0.472577 -0.456718 0.389062 -0.131398 0.489449 -0.465528 -0.544697 0.249931 0.449472 0.296227
ReferenceType_Boolean -0.005222 0.098622 0.029283 0.374843 0.002975 0.053498 0.344337 -0.041249 -0.016763 0.051423 -0.981324 0.672381 -0.141797 -0.164253 0.558088 -0.354497 0.122535 0.273951 0.156625 -0.159052 0.817665 0.350601 -0.170593 0.024148 -0.971704 -0.480913 -0.581084 -1.010061 0.205407 0.526034 -0.340675 -0.117653 -0.103925 1.414936 -0.223832 -0.838481 0.150220 -0.474816 0.604745 -1.723654
ReferenceType_FileSelector 0.553329 0.069385 0.563382 -0.684447 0.170889 -0.059391 -0.142106 -0.115662 -0.765302 0.577702 1.403079 -0.113930 -0.280714 0.687987 0.639588 0.653017 -0.882709 0.594874 -0.300692 0.798622 0.172960 -0.720091 0.305693 -0.029805 0.319370 0.331073 0.272279 0.314364 -0.118475 -0.098753 0.362677 0.424936 -0.040470 -0.115144 -0.346657 -1.215647 -0.609028 0.078924 -0.330101 -0.207917
ReferenceType_PatternSet -0.167704 -0.069963 0.596024 -0.929589 -0.379859 -0.731300 -1.034727 -0.258943 0.405728 0.870444 0.540985 0.209422 -0.027251 0.440668 0.410272 -0.259510 -0.170896 0.862598 -0.588471 -0.332548 0.188248 0.166230 0.256270 -0.007468 -0.974424 -0.175024 0.524764 0.171370 0.491529 -1.202639 1.064740 -0.165266 -0.089402 0.454559 0.161865 0.314017 -0.552707 -0.771150 -0.245104 -0.517100
MethodInvocation_flush -0.163834 -0.754427 0.899828 -0.576295 -0.112742 0.051426 -1.141608 0.566082 -0.107811 -0.189524 0.387976 -0.501951 0.454961 -0.318107 -1.058892 0.034864 0.067968 -1.193714 -0.235333 0.200478 0.144664 0.425835 0.161314 -0.060504 -0.526697 -0.373447 -0.822759 -0.289873 0.839663 -0.065420 0.688817 0.070737 -0.576196 0.137571 0.314593 1.735557 0.678217 0.251010 0.015348 -0.218461
MethodInvocation_getDirectoryScanner 0.033417 1.153836 -0.118862 -1.086077 -0.399494 0.539136 -0.055160 -1.821600 -0.918390 -0.133119 -0.581998 -0.090709 0.328352 -0.582954 0.217017 -0.496777 0.107788 1.329763 -0.549542 -0.077361 -0.083151 1.186743 -0.688718 -0.842469 1.341372 0.845034 0.105581 -0.145202 1.335466 0.062208 0.907188 0.341187 -0.349338 -0.067583 -0.782152 0.447215 0.221816 0.625517 0.371228 0.995623
ReferenceType_FileNameMapper 1.118737 0.883386 0.317053 0.811468 -0.424917 -0.271943 -0.343703 0.091855 0.253347 0.427883 -0.513219 -0.031010 -0.697039 -0.142442 0.383916 0.341084 -0.187608 0.756996 1.072808 -1.006388 0.529142 0.806189 -0.198477 -0.382048 0.352429 -0.163592 0.019179 -0.864653 0.695134 0.555148 0.244392 0.576658 0.254831 0.097414 -0.386558 -0.440694 0.541698 -0.092476 0.453815 -0.161936
ReferenceType_FileUtils 0.042324 -0.246617 -0.024870 0.063695 0.022447 -0.405679 0.367423 0.444307 0.036713 0.737708 -0.858427 -0.171900 0.743259 1.135597 -0.186566 0.568661 0.396042 -0.419122 0.707096 -0.143995 0.497950 -0.768161 -0.570225 -0.050636 1.239765 -0.437481 0.498959 -0.114651 -0.054086 0.501502 -0.982992 -0.146317 0.478032 -0.851747 0.521386 -1.609441 0.177840 0.941037 0.966062 -0.036848
ReferenceType_Target 0.044735 -0.642847 0.462831 -0.118977 0.003833 0.350280 -0.319468 -0.055887 0.001017 0.837252 -0.582520 0.627506 -0.178168 0.887979 0.153742 -0.019389 -0.438362 -0.495185 0.116007 0.281294 -0.240706 -0.219863 0.137750 -0.027238 -0.688046 -0.326907 0.292517 0.506894 -0.055694 -0.143875 -0.020470 0.065960 0.793241 0.785346 -0.196642 -0.816659 -1.051758 -0.584421 -0.454049 -0.949315
MethodDeclaration_read 0.050791 -0.557120 -0.372503 0.039074 0.338914 -1.424071 -0.043783 0.354108 0.147176 0.010518 0.540622 0.264428 0.050971 0.699963 -0.519598 -0.777107 0.657990 0.467949 0.284788 0.314001 0.431934 -0.099593 1.096434 0.315199 -0.636708 -0.325403 0.082882 -0.459270 -0.362774 -0.779510 -0.609476 0.241618 -0.242266 -0.230009 0.828906 1.252298 -0.484060 -0.503827 -0.855380 0.037200
MethodInvocation_createArg -0.686033 -0.699472 -1.045034 0.370843 0.167512 0.283283 0.327119 0.266914 -0.079347 -1.048653 0.701882 -0.505537 -0.001615 -0.001771 0.486193 -0.517207 1.589996 -0.671539 -1.018551 1.046588 -0.105240 -0.463708 0.817966 0.246706 -0.377800 0.004679 0.282268 -0.454573 -0.659231 0.143526 -0.749863 0.374195 0.233572 0.555092 0.607865 0.937211 1.218908 -1.369024 -0.298376 0.591692
MethodInvocation_createPath 0.501813 1.062333 0.696291 -0.828212 -0.191548 -0.187689 -0.651790 0.366627 0.850857 0.261685 -0.286157 0.299920 -0.268874 0.968226 0.536512 0.132339 -0.950515 -0.135119 -0.098788 -0.570570 0.597102 1.124645 1.262816 0.726040 -0.038009 0.027506 0.986487 -0.912010 -0.836356 0.092108 0.339544 0.007299 0.237553 1.126946 0.059192 -0.357952 -0.641538 -1.016800 -0.386139 0.079783
MethodInvocation_currentTimeMillis 0.179964 -0.451516 -0.044462 1.116235 0.124916 0.141347 0.126815 0.053416 -0.108041 -0.208039 0.359180 0.502556 -0.534824 -0.565766 -0.870075 0.262506 -0.131996 -0.230168 -0.137695 -0.008174 -0.181586 -0.488200 0.436646 -0.095960 -0.487262 0.076889 0.836136 -0.060886 -0.318226 -0.293294 -0.362829 -0.042848 0.889553 0.054874 -0.018458 0.441650 0.879659 -0.529447 -0.898948 -0.008537
MethodInvocation_setInitialized 0.040572 -0.206204 -0.248607 -0.579688 0.565346 -0.912757 -1.264477 0.082520 0.638629 0.368778 0.841109 -0.522508 -0.616278 0.517251 -0.512548 -0.186444 0.202825 0.181368 0.148250 -0.486493 0.416676 0.805425 0.338162 0.609237 -0.720028 0.176741 0.131657 -0.910049 -0.282805 -0.848366 0.049263 0.307912 -0.355701 -0.077714 0.337554 1.103438 0.057253 -0.290873 -1.006422 0.650553
MethodInvocation_setName -0.052054 -0.105488 -0.257563 0.344305 0.235440 -0.423068 -0.040303 -0.661502 0.182858 0.054999 0.581461 0.892814 -0.578480 -0.665225 -0.097378 0.492357 -0.448966 0.530587 -0.128728 -0.321261 -0.208558 -0.648764 0.239955 0.031089 -0.307186 -1.205026 -0.278805 -0.034835 -0.119806 0.211483 -0.196972 -0.360938 0.221968 -0.643037 0.456306 0.240774 -1.025628 0.657700 -0.671075 0.714494
MethodInvocation_validate -0.137816 0.829501 -0.477381 -0.192610 0.698200 0.316419 0.494849 -0.521572 -0.086512 0.068241 0.429239 -0.514528 0.274151 0.189545 -0.074103 0.813992 -0.119196 0.599155 -0.344372 -0.736502 -0.543445 -0.794957 0.089428 -0.310593 1.230620 -0.073259 0.399221 -0.045723 0.702164 0.126402 -0.014793 -0.012958 0.060309 -0.939293 -0.398836 -0.635494 1.171758 0.850709 0.715932 0.629101
ReferenceType_AttributeList 0.175832 -0.129019 0.365475 0.315004 -0.096049 0.659193 0.627442 -0.026006 0.275109 0.029328 -0.348921 0.650886 0.410140 -0.387494 0.697627 -0.795210 0.642721 0.574528 -0.106010 1.562816 -0.008842 0.789239 0.280185 0.202112 -0.498063 0.295734 0.289254 0.489244 -0.174732 -0.019033 -0.011175 0.145246 0.150785 0.466520 -0.589289 -0.673987 0.027777 -0.370970 0.166297 -0.087225
ReferenceType_CommandLauncher 0.179369 -0.057958 -0.335324 0.500900 0.424026 0.467489 0.671951 0.023538 -0.441792 -0.027654 -0.631370 0.096099 -0.142809 0.330226 0.777825 0.686984 0.462134 0.684977 -0.589726 0.844760 1.124390 -0.310412 0.342561 -0.009815 0.236490 -0.298908 0.405487 -0.069569 -0.496420 0.419684 -0.137884 -0.008033 -0.051353 -0.529082 -0.394755 -0.511991 -1.173171 -0.467162 -0.343330 -0.758100
ReferenceType_Environment 0.241013 -0.117483 0.369604 0.291008 -0.517320 0.319197 -0.087748 0.083180 0.125655 -0.069370 -0.584789 0.030731 0.428032 -0.238910 0.877179 0.624823 0.569111 -0.633561 -0.435658 -0.723498 0.238074 -0.039836 0.516053 -1.054292 0.603915 0.555469 0.915934 0.473566 -0.305803 0.887430 1.395992 -0.666585 0.398530 -0.215113 -0.100647 0.536350 -0.430455 -0.809026 0.082291 0.421772
ReferenceType_Process -0.089670 -0.907416 -0.034625 -0.487027 -0.202226 0.917023 -0.320574 0.354867 -0.513214 0.243512 0.492448 0.340401 -0.380815 0.800374 0.752848 0.880758 -0.248621 0.674732 -0.103489 0.748667 0.064606 0.617165 -0.026578 0.008554 -0.180829 -0.264416 0.255978 0.376008 0.214908 -0.095764 0.983890 -0.216559 0.682544 -0.311775 -0.258495 -0.391203 -0.698761 0.278608 0.143635 -0.560269
ReferenceType_Section -0.283478 0.613941 0.000519 -0.275722 0.684407 -0.603930 0.466398 -1.121692 -1.360617 0.202928 0.466659 0.684283 0.117699 0.448211 -0.528078 -0.386512 -0.902748 1.548915 0.062038 0.094362 -0.108245 -0.382298 0.512950 0.546051 -0.344763 0.502926 0.129363 -0.417753 -0.407378 -0.127192 -0.308788 0.133629 0.107973 1.119226 -0.849548 0.020808 0.081338 -0.375975 -0.577290 -0.098770
ReferenceType_SimpleDateFormat 0.151985 -0.525500 0.044637 -0.394282 0.721941 -0.047811 0.073381 0.080230 -0.399163 -0.118642 -0.538109 0.203765 -0.242699 0.227826 0.126067 -0.639943 0.137980 -0.746173 0.407249 -0.771673 -0.212208 0.552186 0.465586 0.016976 0.324074 -0.752628 -1.576485 -0.974362 0.135478 1.302610 -0.435439 -0.399387 0.242835 -0.060041 -0.338830 0.487436 0.197368 -0.636620 -0.791327 0.128312
ReferenceType_ZipExtraField -0.148951 0.097344 0.097949 -0.312691 -0.235866 -0.730075 -0.988661 -0.026759 0.378236 0.866260 0.797955 0.457297 0.268425 -0.827751 -0.095477 -0.753074 -0.379341 0.525939 0.370715 -0.412791 -0.602794 -0.150288 -0.777739 -0.071118 -0.557117 0.382424 -0.304064 0.499784 -0.149551 -0.676149 0.865724 -0.127057 -0.878147 0.792731 0.297890 0.601857 0.053087 0.339833 0.155163 0.385332
MethodInvocation_bsR 0.317522 0.637490 0.087160 -0.521446 -0.187839 -0.467897 0.273363 -1.211215 -0.095720 -0.236527 0.271069 0.379353 -0.081728 -0.000332 -0.266372 -0.156799 -0.371531 0.119051 -0.959947 0.169103 -0.292925 -0.420025 0.229780 -0.250105 0.780042 0.295310 0.605189 0.411119 -0.052030 -0.058971 -0.137650 0.640635 -0.000442 0.101135 -0.217378 -0.077801 -0.561068 -0.311627 -0.664917 1.097134
MethodInvocation_newFileUtils 0.031617 -0.190057 -0.146633 0.369399 0.296750 -0.118700 0.432094 0.624135 0.174045 0.939052 -0.875375 -0.285722 0.414455 1.285896 0.422055 0.721104 0.330686 -0.319176 0.590009 -0.008084 -0.149587 -0.207577 -0.653934 -0.421862 1.572926 -0.513924 0.381032 -0.111739 -0.142905 0.791242 -0.834528 -0.304560 0.653183 -1.008693 0.509539 -1.590668 1.090549 0.620558 1.226867 0.132117
MethodInvocation_setProject 0.316984 0.419975 0.341662 -0.883444 0.250871 -0.020731 -0.406189 1.023306 0.486857 -0.033932 -0.947692 -0.254007 -0.288739 1.288003 0.530124 -0.419178 0.238789 0.153462 -0.684887 -0.133264 0.174940 0.792349 0.209582 -0.732056 0.744210 0.193034 0.399759 -0.988892 -0.254041 0.115583 -0.094443 -0.129150 0.159472 -0.498322 0.779007 0.396137 -0.010311 -0.979870 0.066812 -0.140854
ReferenceType_InputStreamReader -0.382479 -0.051295 0.704089 1.214663 0.585201 0.079637 0.167433 1.013700 -1.103717 0.241983 0.169059 -0.545124 1.025128 0.691949 -0.930429 -0.500999 0.697750 0.277936 0.427027 -0.313342 -0.375124 -0.157153 0.613181 0.106557 -0.924188 -0.122898 -0.661779 -0.226360 -0.208329 0.263430 -0.327689 -0.045726 0.750916 -0.297027 0.034407 1.640196 0.350726 -0.456591 0.151904 0.055060
ReferenceType_Location 0.487264 -0.583969 0.445654 -0.739119 -0.164631 -0.266028 -1.132701 -0.177651 1.293652 0.581813 0.722668 0.523810 -0.256983 0.090800 0.493382 -0.526739 -0.367972 -0.564688 1.174168 0.388400 0.594662 -0.014391 -0.186958 -0.542961 0.186135 0.932480 0.352515 -0.100554 1.084447 -0.149981 0.773413 -0.161776 -0.613189 0.321706 0.042605 -1.659002 -0.185505 0.320638 -0.369757 0.150142
ReferenceType_Thread -0.552832 -0.534885 0.451008 0.105519 -0.109475 -0.043693 -0.618347 0.209967 -0.494766 1.322021 0.278705 -0.679625 0.551855 0.339231 0.436718 -0.116777 0.241508 -0.010920 1.670944 -1.285273 0.091824 -0.398153 -0.238662 0.273653 -1.278212 0.561122 -0.994395 -0.010317 0.411786 0.525766 -0.199100 0.123423 0.438369 0.794979 -0.242552 -0.377204 0.003426 -0.186560 0.188325 -0.529263
MethodDeclaration_isSelected 0.146811 0.152043 0.166182 -0.377442 -0.195055 0.315882 0.165697 -0.291205 -0.299854 -0.045926 0.490390 -0.844590 -0.101180 -0.372598 0.831581 0.580250 0.367417 -0.094373 -0.475688 -1.159552 0.299434 0.155277 -0.094599 0.026635 0.929880 -0.602360 0.306789 -0.453314 0.672923 1.261405 0.161192 0.339837 0.146628 -1.124178 -0.156620 -0.661634 1.168716 0.238856 0.507199 0.172371
MethodDeclaration_setValue 0.341871 -0.169113 -0.141741 0.588381 -0.905093 -0.209869 0.523979 -0.880251 0.372934 -0.095239 -0.199899 0.360229 -0.424545 -0.246431 0.539218 -0.648779 0.792546 -0.406776 -0.051492 0.264448 0.496625 0.295589 -0.816744 0.147655 -0.436862 -0.097855 0.225170 -0.232607 0.350343 0.126102 -0.678711 0.036434 0.152991 0.655628 0.298237 -1.207761 -0.192682 -0.106181 0.810730 -0.134218
MethodInvocation_getBaseDir -1.101220 0.257052 -0.112002 0.061522 0.871567 0.280272 0.775753 -0.486338 0.353911 -0.403732 -0.729085 0.126075 -0.448417 0.673241 -0.158561 0.098119 -0.061613 -0.477990 0.596923 -0.366671 -0.802574 0.000343 0.021021 -0.091426 -0.491031 -0.178805 -0.870828 -0.601752 0.670054 0.406302 -1.234315 -0.586673 0.253531 -0.498208 0.482470 -0.290093 0.833894 0.247349 0.446756 -0.256202
MethodInvocation_getLocation 0.133403 -0.277466 -0.412454 0.500921 -0.000141 0.036094 0.228060 1.811536 0.481610 -0.413267 -0.376201 0.202917 0.468452 -0.129067 0.714731 -0.927333 0.194044 0.455254 0.779632 0.305246 -0.248521 0.222984 -0.015393 -1.389354 0.475966 0.310002 -0.606197 0.570073 -0.128956 -0.063676 1.260485 -0.833677 -0.110990 -1.087762 0.434180 0.109254 -0.415339 -0.277082 -0.144076 -0.519318
ReferenceType_Condition -0.055787 0.437162 -0.631491 0.057369 0.690852 0.157293 0.241729 -0.010368 -0.448253 -0.305649 0.214917 0.501487 -0.022881 0.818061 0.813531 -0.149426 -0.717036 0.860507 0.759792 0.264968 0.012553 0.054948 0.008551 -0.537977 0.949645 -0.403901 -0.156678 0.462895 0.255505 0.482685 1.425697 -0.316748 -0.170529 -0.687551 -0.402987 -1.246479 -0.622998 -0.088445 0.247951 -0.530767
ReferenceType_FileList -0.665167 -0.042171 -0.968173 0.038894 0.214567 -0.008302 0.645723 -0.998332 -0.244380 -0.457499 0.034280 0.795827 0.337518 -0.170071 0.136365 -0.174873 0.058959 0.529915 -1.031610 0.743671 -0.521735 -1.427823 -0.522219 -1.171840 0.838262 -0.017186 -0.167714 0.584814 -0.256133 -0.127265 0.038206 0.213982 0.328247 -0.489071 0.044258 -0.302517 -1.007393 -0.298233 -0.744881 0.087318
ReferenceType_Integer 0.223502 -0.008492 1.410990 0.752669 0.079860 0.179812 0.628798 -1.246909 0.418664 0.150891 -0.334959 0.040507 -0.273283 -0.446991 -0.462840 0.341124 -0.378641 -0.978968 -0.570581 0.555971 -0.204677 -1.168315 1.076945 1.330074 -0.783565 -0.777245 0.133518 0.676379 0.283871 -0.888171 -1.486129 -0.331918 -0.087300 0.765257 0.185139 -0.718646 -0.324215 -0.365911 0.767395 -0.491659
ReferenceType_ProjectComponent -0.050776 0.782621 -0.234789 0.635380 -0.134877 -0.203814 0.585501 0.492612 -0.111456 -0.064902 -0.494209 -0.048209 0.062819 0.584331 0.492455 0.136940 -0.770899 0.819392 0.891846 0.101454 0.200298 0.049787 0.030337 -0.733113 0.136514 -0.080891 0.275322 0.750992 0.805423 0.332204 1.192369 0.228861 -0.219075 -0.606541 -0.195204 -0.892550 -0.221732 -0.605676 0.446177 -1.448907
ReferenceType_RuntimeConfigurable -0.036419 -0.189432 0.461795 -0.727437 0.174615 0.494515 -0.047604 -0.138097 0.032878 0.358394 -0.792560 0.089441 -0.180242 0.701406 0.618875 0.286445 -0.150096 -0.225487 -0.364018 -0.145015 0.462057 -0.656075 0.407082 -0.209940 -0.334947 -0.150843 0.341325 0.108808 0.056581 -0.101194 -0.385975 -0.056875 0.387574 0.052122 0.023236 -1.116345 -1.524815 -0.408516 -0.404760 -1.283542
ReferenceType_ZipEntry -0.519330 -0.617190 0.897604 -0.074397 0.021202 0.117138 0.348107 0.342546 -0.868538 0.806951 -0.305962 -0.430881 0.123559 0.063696 -0.367926 0.631995 0.398120 0.344403 -0.504923 0.495527 0.315065 -0.196036 0.069681 0.764295 -0.803230 -0.674574 0.508367 0.928786 0.651291 0.361849 -0.035204 0.064752 -0.160771 -0.042146 -0.380712 0.625639 -0.302789 0.206910 -0.851129 -1.048664
MethodDeclaration_setFile 0.404545 0.375668 0.239054 -0.342752 -0.613527 -0.373246 0.509837 -0.009844 -0.333368 0.442213 -0.245954 -0.128780 -0.045028 0.420932 0.624641 0.113461 0.265967 0.190811 -0.458905 0.327882 0.363066 -0.050836 -0.594377 -0.398038 1.122704 -0.058741 1.165018 -0.050653 0.374948 1.203162 -0.340370 0.358294 -0.106136 -0.431762 0.332644 -1.096401 0.751899 0.016297 0.739584 0.186095
MethodInvocation_copyFile 0.285944 -0.260905 0.767630 -0.039943 -0.546743 0.882380 -0.021640 0.241051 -0.575505 0.886108 -0.157435 0.162002 0.035471 0.015185 0.864157 0.427627 0.508564 0.159887 -0.782824 -0.025375 -0.632885 0.376268 -0.513610 -0.709819 0.768079 -0.670094 0.296183 0.373398 0.398623 1.094098 0.388189 -0.024473 0.687741 -0.457442 0.007445 -0.134991 0.660807 0.504726 0.549825 -0.064600
MethodInvocation_getRef -0.285898 0.730840 -1.135117 -1.135948 0.882513 0.163227 -0.070291 -0.758182 -0.703795 -0.586219 -0.199443 0.293775 -0.569251 0.955570 0.890827 0.733542 -1.165107 1.636742 -0.261417 0.050364 0.444350 -0.093190 0.676444 -0.066843 0.654676 0.479455 0.114316 -0.598926 -0.338676 -0.535625 0.260497 0.179738 -0.048965 -0.067038 -0.360956 -0.520623 -0.978709 -0.323442 0.078802 -0.376941
MethodInvocation_loadClass -1.003518 -0.237882 -0.162585 0.391230 0.084214 0.032473 0.030377 0.477482 -0.138104 0.295801 -0.059253 0.010556 0.298780 -0.059012 -0.041753 0.001238 0.331895 -0.134180 0.993992 -0.439426 -0.468541 -0.296760 0.210075 0.562426 -1.589675 0.072302 -0.413538 -0.232623 0.776020 0.549867 -0.753328 0.083062 0.198174 0.697942 -0.256080 0.210110 1.386033 -0.110794 0.247283 -0.053815
MethodInvocation_setExecutable 0.551802 -0.266218 -0.331993 0.562899 -0.202769 -0.068992 0.185490 0.131113 0.704652 -0.079481 -0.118646 -0.277158 0.137159 -0.378269 -0.319582 -0.023197 0.601739 -0.764560 -0.627621 0.255619 0.019880 0.739540 -0.447995 0.071232 -0.232538 0.309591 0.488751 -0.095702 -1.038580 -0.566862 0.231595 -0.460823 0.032102 0.603592 -0.210705 0.098901 0.321775 -0.158374 0.497366 1.034838
ReferenceType_TarEntry -0.075253 0.229655 -0.928996 -0.225055 0.520629 -0.035789 -0.757190 -1.567317 -0.188747 0.334859 -0.157295 -0.117888 -0.280252 0.348830 -0.474540 0.306262 -0.520521 1.002209 0.244615 -0.966282 -0.645613 0.375790 -0.241667 -0.142711 0.119851 -0.212560 -0.344290 -0.306278 -0.528593 -0.271497 0.769933 -0.250738 0.748688 0.191862 -0.310753 0.061086 -0.777120 0.080904 -0.174413 0.433853
MethodDeclaration_write 0.355256 0.095711 0.832347 -0.093138 0.137971 0.482579 -0.254100 -0.397696 0.444660 0.019870 -0.184495 0.188931 0.886093 -1.094059 -0.045056 -0.533505 0.524580 -0.714898 -0.435913 -0.119899 -0.180606 -0.031714 0.502305 -0.572956 0.173723 0.050410 -1.347748 -0.192171 0.256294 0.221549 0.008070 -0.168380 -0.317282 0.139324 -0.402508 0.969034 -0.296770 0.150488 -0.486305 0.152379
MethodInvocation_appendSelector 0.022457 -0.991121 0.608537 0.223144 -0.316829 0.304379 -0.494915 0.554764 0.715534 1.654575 -0.674771 0.399392 -0.469750 -0.271990 0.087854 0.021696 0.613143 -0.774380 -0.765236 -0.265649 -0.839183 0.174610 -0.471552 0.094666 -0.334781 -0.687662 0.653614 0.434002 0.079807 0.546287 -0.163135 -0.431335 0.317191 0.717480 0.207245 0.594568 0.482720 -0.252253 -0.784969 0.336438
MethodInvocation_getTime 0.642304 -0.006149 0.132109 1.636120 -0.200455 0.657993 -0.458484 0.698248 0.505395 -0.256190 -1.188531 -0.027442 -0.156263 -0.583230 -0.116115 0.770693 0.578080 -0.012699 0.359406 0.031424 0.759665 0.251290 -0.202177 -0.611355 0.174946 0.393430 1.227521 -0.620190 -0.520174 0.184924 0.597902 -0.039879 0.278577 0.298150 -0.318922 0.307625 0.275256 -0.227868 0.186900 -1.023688
MethodInvocation_setLength 0.833549 0.204149 0.043999 0.364441 -0.207549 -0.679962 0.011043 0.181014 0.442056 -0.592924 0.574149 -0.705176 0.255651 -1.350664 -0.909884 -0.559363 -0.215254 -0.171763 -0.240993 0.054287 0.240359 0.023507 0.411502 0.300420 0.310893 -0.259546 -0.433690 -0.209020 0.449705 -0.354145 -0.102115 0.328105 -0.699317 -0.625897 0.191211 0.624992 0.447495 0.028043 -0.168936 1.069075
ReferenceType_Argument 0.239824 0.093497 0.163155 -0.264195 -0.233809 -0.837956 0.139023 -1.126504 -0.149200 0.042914 0.490126 0.352741 0.115427 0.244618 -0.130541 0.151473 0.059935 0.577233 -0.490014 -0.047114 -0.145618 0.181603 0.776072 0.408619 -0.741008 0.946960 0.871173 0.032694 -1.287207 -1.189190 0.020501 0.312237 0.551356 1.446927 -0.800376 0.500355 -0.016983 -0.880637 0.134768 0.962184
ReferenceType_ClassLoader -0.548622 -0.645416 -0.035413 0.332354 0.023096 -0.055002 -0.510807 0.564480 -0.126874 0.807870 -0.498968 -0.820812 0.825831 0.084455 -0.126844 0.253198 0.214461 0.380869 1.433623 -0.673700 0.229417 0.208279 -0.724607 0.527188 -0.444061 -0.072210 -0.726293 -0.134424 -0.099111 -0.397910 0.162466 -0.417684 0.157357 0.272588 0.017810 -0.340819 0.368357 0.902028 1.139186 -0.744222
ReferenceType_FilterSetCollection 0.234293 -0.564617 0.367393 -0.423429 -0.261191 0.614392 -0.081299 -0.191402 -0.268233 1.116708 -0.447470 0.280858 -0.003988 0.440872 0.437409 0.336962 0.855137 -0.269010 -0.613172 -0.019688 -0.627787 0.256266 -0.489201 -0.414726 0.997278 -0.423140 0.698905 0.126507 0.289281 0.755970 -0.282593 0.082743 0.662084 0.136304 -0.157228 -0.067501 0.759885 0.610401 0.128154 0.443759
ReferenceType_Manifest -0.169497 -0.608868 -0.431529 0.548785 0.221064 -0.107731 0.195561 0.968002 -0.467605 0.802157 -0.083534 0.374754 0.052303 0.122524 0.865139 -0.245241 0.411279 0.781362 0.596348 -0.277295 -0.153793 -0.110615 -0.040917 -0.452174 -0.187033 -0.248017 -0.014032 -0.112385 0.165549 0.571338 0.622057 -0.724178 0.117899 0.410483 -0.260776 -0.095788 0.600437 -0.121347 0.076988 -0.298078
ReferenceType_Mapper 0.333011 1.171423 -0.143945 0.298139 -0.305711 -0.407954 -0.244246 -0.202159 0.646796 0.354739 -0.887139 -0.141785 -0.185964 -0.274802 0.680998 -0.007919 -0.255091 0.957813 0.300522 -0.803201 0.237342 -0.006424 -0.260140 -0.419848 0.907217 0.157768 0.589858 -0.466017 -0.026762 -0.256764 -0.119049 0.198635 -0.054116 0.217273 0.416020 -0.543613 0.273007 -0.226655 0.611352 0.081595
switchstatement -0.148982 0.735651 -0.193613 0.198407 -0.376725 -0.609302 0.150807 0.220398 0.925494 -0.677430 -0.021132 -0.365318 0.177807 -0.279816 0.158998 0.027656 0.227135 -0.518869 -0.603649 0.214863 0.684559 0.022752 0.360848 0.327057 0.139639 0.483408 1.007213 0.311069 -0.922478 0.271326 0.219639 1.082750 -0.662822 -0.248278 0.242689 0.447149 -0.937022 -1.192412 -1.462820 0.184913
MethodDeclaration_setName 1.028207 -0.326031 0.021023 0.856231 -0.643015 -0.306546 0.556108 -0.556168 0.562909 0.434716 -0.586501 -0.127006 -0.499332 0.026831 0.158361 -0.001258 0.068525 -0.353405 -0.134556 1.518909 0.754866 0.417587 -0.280743 0.836463 0.385415 -0.412834 0.701155 -0.012655 0.383920 -0.196393 -0.966481 0.509030 -0.155473 0.642597 -0.036802 -1.656892 0.078139 -0.587119 0.837743 0.062848
MethodInvocation_bsPutUChar 0.196377 -0.176994 0.759482 0.243611 -0.273409 0.116509 0.119297 0.070800 0.500628 0.686850 -0.565646 0.683028 -0.313799 -0.475953 0.031733 -0.084746 0.106824 -0.223884 -0.843344 0.180219 -0.445321 -0.399171 -0.036251 0.129468 0.042947 -0.279010 0.651876 0.635064 0.054591 -0.053350 -0.311087 0.067651 0.042446 0.456036 -0.089431 0.151508 0.028002 -0.451231 -0.522764 -0.110932
MethodInvocation_clone 0.245595 -0.376711 -0.228163 0.072929 0.239430 -0.345116 0.092285 0.687130 0.358581 1.021042 -0.970160 -0.197510 0.534052 0.144190 -0.787580 0.264856 -0.308397 -0.299859 0.273880 0.133522 0.145981 -0.426642 -0.666871 0.317269 0.083525 0.712062 1.322879 0.573625 -0.865543 -0.824125 0.104129 -0.648259 -0.433799 1.058553 -0.229031 -0.434132 0.382654 0.523982 0.560351 0.150677
MethodInvocation_createClasspath 0.439922 0.657684 0.123229 0.034472 0.082367 0.144755 -0.042762 0.551223 0.691250 -0.467775 -0.004668 0.532886 -0.196850 0.113240 0.689270 -0.038746 -0.035631 -0.044243 -0.947329 0.308573 0.261444 0.964377 1.018762 0.063453 0.139982 -0.309807 0.553051 -0.720086 -1.078503 0.512203 0.441541 -0.205149 0.202607 0.313076 0.069617 0.107224 -0.410544 -1.057274 -0.405140 1.035668
MethodInvocation_describeCommand 0.746200 -0.490832 0.571283 0.222486 -0.078518 -0.239706 -0.232839 0.457207 0.312299 0.488074 0.886495 0.177044 -0.656731 0.683791 -0.267946 0.313106 -0.085224 -0.185701 0.955592 -0.242155 -0.604468 0.840656 0.191795 0.037651 -0.258869 0.974300 0.250277 0.164038 -0.011749 -0.984554 0.226748 -0.281499 0.247599 -0.103473 -0.405006 0.372525 0.867781 0.276121 0.500811 0.429086
MethodInvocation_exec -0.117702 -0.068538 -0.419361 0.046329 0.095679 0.677086 0.167762 -0.184748 0.059056 -0.131826 0.175020 0.574730 -0.929192 0.342339 1.135366 0.550873 -0.344604 0.626761 -0.396388 0.200646 -0.040999 0.264180 0.396708 0.257136 -0.215644 -0.360638 0.484778 -0.001925 -0.249292 -0.307623 0.158663 -0.617911 0.353071 -0.108303 -0.022390 -0.608366 -0.482960 -0.056432 0.561788 0.055951
MethodInvocation_getRmic -0.203638 -0.727406 -0.652908 0.647564 0.424579 0.349540 0.083294 1.459495 0.476228 -0.175905 -0.734752 0.234311 0.492349 0.162289 0.117758 -0.814074 0.491910 0.053595 1.096435 0.335813 -0.663048 0.174189 0.308453 -0.701079 -0.023566 0.486020 -0.712179 0.283332 -0.062120 -0.497689 0.541474 -0.504900 0.253365 -0.046959 -0.015600 0.363680 0.257103 -0.444828 -0.131561 -0.438833
MethodInvocation_printStackTrace -0.034716 -0.654816 0.314546 -0.862784 -0.189931 -0.197934 -0.601446 0.891995 0.923897 0.070850 0.164759 -0.204556 -0.197231 -0.445135 0.225736 -0.201690 0.075518 -0.631249 -0.212111 0.225239 0.368783 0.479850 0.066526 0.632172 -0.677498 -0.819489 -0.173262 -0.381085 1.177582 0.411460 -0.076742 -0.029779 -0.750023 -0.462711 0.353502 -0.273830 0.946353 0.554276 0.180345 -0.391859
MethodInvocation_setRefid 0.609311 0.561606 0.275805 -0.266547 -0.280466 0.119755 -0.179303 0.524906 0.511164 -0.108189 0.312754 0.620600 -0.383682 0.372316 1.091615 0.048125 0.006119 0.176633 -0.984658 0.188404 0.197776 1.460390 0.784052 -0.153790 0.231862 -0.511990 0.689899 -0.594950 -0.546458 0.764753 0.929996 -0.090321 0.330298 0.209672 -0.149882 0.170858 -0.118160 -0.888896 -0.189180 0.939660
ReferenceType_ByteArrayOutputStream 0.363233 -0.652677 -0.542405 -0.900125 -0.523045 -0.169918 0.221196 0.328884 -0.124936 0.465938 -0.593728 -0.765397 0.156956 -0.493542 -0.343587 -0.500746 0.083014 -0.256413 0.353445 -1.078746 0.354912 -0.028796 -0.028612 0.373088 -0.380659 0.189520 -0.106974 -0.559903 1.583809 0.051144 -0.586343 0.308544 0.121977 0.280159 -0.920835 -0.928844 0.917205 -0.074768 -0.592501 -0.398100
ReferenceType_ChainableReader 0.760433 0.210856 -0.786702 0.481570 -0.206709 -0.273833 0.394961 0.393835 -0.417325 0.287090 0.203542 0.280057 -0.807194 0.158846 0.461791 -0.798348 0.377006 -0.096991 0.059405 0.355702 0.482131 0.388011 -0.802204 0.459573 0.730839 -0.393402 0.303193 0.277433 -0.611668 0.891915 -0.145654 0.844065 -0.638986 0.053499 -0.121910 -0.235713 -1.589022 -0.309378 -0.703911 0.208780
ReferenceType_UnknownElement -0.210545 0.300184 0.290443 -1.006833 0.176320 0.574739 -0.116629 0.353909 -0.355047 0.129896 -0.530128 -0.409746 -0.358804 0.943979 0.698904 0.457489 -0.508614 -0.617293 -0.795931 -1.048357 -0.373909 -0.259702 0.522957 -0.195008 0.203587 0.225872 -0.262276 -0.232311 -0.656846 0.141470 -0.315561 -0.321708 0.527243 0.011775 0.178766 -0.032648 -0.613901 -0.703495 -0.231569 -0.315885
ReferenceType_Variable 0.058828 -0.160814 0.194016 -0.229599 -0.280235 0.127314 -0.024277 -0.045058 -0.031236 0.373176 -0.503836 0.645000 0.113645 0.218137 0.933780 0.297781 0.687865 -0.407663 -0.733569 -0.347198 -0.100130 -0.233142 0.436442 -0.616445 0.699449 0.244821 1.095621 0.544816 -0.411728 0.932386 0.781616 -0.357601 0.093377 0.256144 -0.152666 0.662728 -0.200461 -0.590474 -0.365301 0.272432
MethodDeclaration_chain 0.248101 0.056886 -0.037485 -0.702884 -0.083493 -1.445698 -0.710404 0.847904 0.460752 0.386148 0.350469 0.999242 -0.832877 1.069557 -0.242001 -1.039760 -0.354478 0.624287 0.366062 -0.086397 0.504902 0.432388 0.142973 0.413934 -0.251164 -0.402918 0.671360 -0.270522 -0.130296 -0.484824 -0.190066 0.434000 -0.741802 -0.073434 1.260801 0.877034 -0.735943 -0.360081 -0.445278 0.197967
MethodDeclaration_eval -0.076157 0.144857 -0.396039 1.170735 0.276028 0.396250 0.533413 0.295700 0.274360 0.107202 -0.503541 0.565231 0.011793 -0.043887 0.336268 -0.276752 0.407497 0.290339 0.070513 0.473168 0.063544 0.262480 -0.182560 -0.176270 -0.838823 0.061554 -0.620945 -0.447392 -0.094185 -0.088338 -0.262668 -0.809293 0.073308 0.753235 -0.201390 -0.452926 -0.010172 -0.496330 0.746327 -0.311022
MethodDeclaration_getValue 0.612851 0.151897 0.084945 0.227673 -1.051168 -0.612296 0.484474 -1.341230 0.273841 0.089125 -0.275342 -0.034752 -0.698988 -0.229456 0.207932 -0.186208 0.458932 -0.256636 -0.291959 -0.037687 0.742128 0.165010 -0.680888 0.401459 -0.363424 0.358052 0.967229 0.125188 -0.147816 -0.290522 -0.899631 0.749241 0.063320 0.685618 0.058229 -1.140740 -0.559574 -0.415534 0.367773 -0.213882
MethodInvocation_getException 0.703879 -0.670157 -0.049115 0.686952 0.175089 0.461904 -0.682706 0.203661 0.866660 0.164718 -0.012515 0.096715 0.092330 -0.944151 0.471593 -0.196105 0.114917 -0.649700 0.833834 -0.225887 0.265882 -0.250194 -0.063634 -0.623971 0.384630 0.394863 -1.009683 -0.279548 -0.174591 -0.338258 0.463435 -0.359030 -0.034941 0.031084 -0.179912 -0.550883 -0.209311 -0.208673 -0.095252 -0.458731
MethodInvocation_getReferencedObject 0.092296 0.555001 0.559998 -0.125629 -0.033615 0.566843 1.010457 0.161101 -0.136720 -0.315443 -0.603477 -0.494897 0.150691 0.164496 1.167221 -0.110362 -0.073612 0.059719 -0.164786 0.120371 -0.228532 -0.269626 0.618088 -0.557730 -0.254272 0.548785 -0.998112 0.089363 -0.107023 -0.025639 -0.412243 -0.076476 0.193655 -0.179518 -0.374548 -0.964160 0.139764 -0.704346 0.239375 -1.823380
MethodInvocation_initialize -0.212102 -0.935609 -0.177588 0.117398 0.620077 -0.348072 -0.675165 0.003035 0.477290 0.633226 0.482367 -0.418229 -0.160637 0.166909 -0.163235 -0.050044 1.051235 -0.002918 0.049155 -0.317693 -0.007492 0.322842 0.960058 0.750102 -0.943844 -0.385820 -0.118686 -0.659648 -0.283241 -0.582785 -0.512611 -0.189225 0.333586 0.022618 0.293451 1.193692 0.052597 -0.230457 -0.963332 0.703862
MethodInvocation_replaceProperties -0.180858 -0.202426 0.121438 -0.348255 0.080264 0.382004 0.253012 0.108252 0.103797 -0.046832 -0.259565 -0.581108 0.224077 0.190394 0.572484 -0.176152 0.361922 -0.218060 -0.176336 0.346616 0.183507 0.337923 0.755395 1.003998 -0.225759 -0.427540 -0.010856 -0.101515 0.145388 -0.092743 -0.456905 0.056285 -0.163960 0.155268 -0.184008 -0.284014 0.341699 -0.147849 0.192119 -0.536281
MethodInvocation_toBoolean -0.585727 -0.355296 -1.356794 0.299135 0.375848 0.836966 0.449819 0.039538 0.277783 -0.663400 -1.039342 -0.166775 -0.080122 0.599528 0.301520 -0.055435 0.887725 -0.739667 -0.233327 0.411469 0.216206 0.639436 -0.250140 0.778730 0.071527 -0.790004 0.535956 -0.175240 -0.584515 0.304627 -0.255829 -0.139829 0.034464 0.446068 -0.019079 -0.267872 0.144008 -0.186379 0.790057 0.024509
ReferenceType_BufferedInputStream -0.359125 0.308236 -0.571002 1.158292 0.353564 -0.202800 0.326332 1.479811 0.518282 0.616520 -0.031740 -0.206545 0.451109 0.295806 -0.701879 -0.218020 0.383811 0.729302 1.017664 -0.137210 -0.619108 0.230555 0.218974 0.378711 -0.325738 0.465219 0.293631 0.503964 0.010485 -0.237102 -0.206244 0.089888 -0.091238 -1.102897 0.066382 1.192832 0.403341 0.056811 -0.797974 0.773659
ReferenceType_CVSEntry -0.032922 0.420723 -0.684777 -0.311546 0.338271 -0.094697 -0.197784 0.221400 0.053386 0.304065 0.429332 -0.199715 0.069356 -1.023202 0.288942 0.177347 0.008551 0.233101 -0.985811 0.325821 -0.159207 -0.421468 -0.431371 0.169697 0.475421 0.247316 -0.160425 0.064835 -0.596372 0.322273 -0.056361 0.296571 -1.043704 0.077776 -0.419538 0.316948 0.711135 0.213051 -0.876200 0.592227
ReferenceType_RuntimeException -0.614182 0.122408 -0.058982 -0.367803 0.299888 0.336608 -0.451149 1.201541 0.248723 -0.033651 0.417498 0.215705 0.277271 -0.721326 0.634230 -0.193173 -1.141277 0.360140 0.218631 0.216710 -0.716634 0.159665 -0.282552 -0.057162 -0.583607 -0.568781 -1.021388 -0.081369 -0.002986 0.385646 1.064049 -0.533604 -0.633977 -0.152281 0.489981 -0.066523 0.673719 0.783098 1.009502 -0.589730
ReferenceType_SAXParseException -0.072239 -0.053232 -0.001847 0.160337 0.408026 0.540279 -0.122889 0.999680 0.492826 -0.291767 0.075439 0.479610 0.351806 -0.661850 0.768956 -0.547029 -0.210799 0.556909 0.538757 0.862542 0.006928 0.894588 0.024256 -0.263444 -0.489222 -0.084933 -0.976903 -0.268321 -0.073626 0.696962 0.884759 -0.346703 -0.176767 -0.264811 -0.083842 -0.392199 0.046450 0.255294 0.165875 -0.054510
ReferenceType_TaskContainer -0.368140 -0.457440 -0.658693 -0.524632 0.060449 0.744131 0.347330 -0.519181 0.005900 0.112233 -1.004334 0.398941 0.286716 0.200638 0.864326 -0.433839 0.473012 -0.853937 -0.113100 0.011088 -0.124061 -0.334408 -0.216020 -0.527849 0.143036 0.009603 -0.247317 0.409270 0.020704 0.890200 -0.485919 0.061098 0.599828 0.152940 -0.457502 -1.228641 -0.980375 -0.449859 -0.539264 -0.131953
ReferenceType_java 0.128446 -0.091346 1.121331 -0.002525 0.034304 0.349899 0.544831 0.759676 -0.683948 0.482082 -0.421407 -0.370603 -0.292714 -0.270982 0.027729 1.218029 0.030971 0.206785 -0.558016 0.185826 0.379521 -0.281816 -0.062775 0.010048 0.023811 -0.409526 0.499360 0.462930 0.586648 1.073223 -0.025266 0.295117 -0.364344 -0.666812 -0.565270 -0.008212 0.378136 0.798338 -0.424240 -1.461604
MethodDeclaration_copyFile 0.444398 -0.310753 0.605484 0.110155 -0.469908 0.696048 0.060610 0.056972 -0.369321 1.250305 -0.451667 0.174923 -0.139073 0.141030 0.807668 0.359554 0.495164 0.135138 -0.471067 -0.173950 -0.542853 0.393078 -0.398813 -0.544097 0.530525 -0.610475 0.399293 0.259339 0.487765 1.132318 0.115195 -0.040923 0.888011 -0.120166 -0.271369 -0.513265 0.639758 0.222032 0.135979 -0.065462
MethodDeclaration_createClasspath 0.306423 1.360831 -0.062147 0.306488 0.352744 0.272750 0.080524 -0.065565 0.476289 -0.822304 0.120310 -0.042253 -0.616204 0.113386 0.385697 0.229197 -0.386926 0.016825 -0.433720 -0.092175 0.807701 0.933584 0.628044 1.026900 -0.025510 0.114045 0.631041 -1.309035 -1.297416 0.315419 -0.540918 0.241054 -0.027098 0.326725 -0.271199 -0.358056 -0.102749 -0.834414 -0.270978 0.872199
MethodDeclaration_init 0.133380 -0.210496 0.374911 0.203882 -0.082681 0.463362 0.123657 0.208227 0.485774 0.679742 -0.978844 0.093861 0.317121 0.596681 0.042240 -0.156090 0.659044 -0.025896 0.027748 0.559231 -0.086779 0.489368 0.288565 -0.125989 0.171032 -0.075177 0.951282 0.117211 0.350200 -0.076636 -0.103280 0.043572 0.581553 0.469552 -0.142015 -0.320766 0.390439 -0.228518 0.189678 -0.093084
MethodDeclaration_initialize -0.019208 0.198780 -0.284093 -1.199197 0.377767 -0.746611 -1.062307 -0.109824 0.069075 0.012045 1.095174 0.137505 -0.726668 0.455483 -0.047901 -0.424942 -0.471633 0.208967 -0.377844 -0.608350 0.090147 0.696226 -0.217954 -0.224526 -0.207288 0.376041 -0.260247 -0.790056 -0.362206 -0.499044 0.715297 -0.048566 -0.486386 0.200465 0.049262 0.702057 0.197819 -0.207512 -0.561146 0.423083
MethodDeclaration_setClasspath -0.516787 0.939392 -0.097753 0.266230 -0.248508 0.402653 0.096074 -0.067480 0.695425 -1.064495 0.311133 0.511192 -0.417137 0.605065 0.405808 0.141148 -0.042078 -0.140395 -0.014922 0.391139 0.221475 0.988110 0.219369 0.748968 -0.225032 -0.125183 0.853113 -0.588883 -0.555055 0.527138 -0.129425 0.447935 0.207598 0.202983 -0.035509 -0.467414 0.303809 -0.435893 0.043206 0.543669
MethodDeclaration_setDir 0.211677 -0.275050 -0.295442 0.143277 -0.254716 0.031559 0.119060 0.596531 -0.067597 0.240199 -0.240185 -0.050241 0.130889 0.204442 0.001900 -0.116732 0.406692 -0.112988 -0.254767 0.469648 -0.004766 0.084118 -0.793196 -0.313176 0.675823 -0.496914 0.593301 -0.010234 0.214418 0.540545 -0.040337 -0.254858 0.100429 -0.123116 0.616481 -0.199508 0.247903 0.657349 0.868547 1.046471
MethodDeclaration_setSrc 0.263664 0.026715 0.297461 0.074211 -0.735407 0.458583 -0.254831 0.148387 -0.046727 0.117895 -0.190867 -0.480560 0.053046 -0.268996 0.500120 0.373260 0.279895 -0.503949 -0.231048 -0.392058 0.105825 0.659655 -1.099948 -0.423116 0.843786 -0.630737 0.022588 -0.296739 0.319990 1.180235 0.324747 -0.147852 0.305675 -0.524093 0.512391 -0.528982 0.567436 0.442491 1.067292 0.148480
MethodInvocation_format 0.324251 -0.574508 0.033047 -0.294289 -0.019871 0.169689 -0.408831 0.079195 -0.005041 -0.075236 -0.164926 0.152057 -0.827584 0.296679 0.251284 -0.027939 -0.387200 -0.461271 -0.156738 -0.340769 -0.231964 0.724773 0.541829 0.053542 -0.085726 -1.265876 -0.469632 -0.877288 0.455999 0.952856 0.041794 0.201355 0.831580 0.290065 -0.362007 -0.459595 0.292199 -0.368630 -0.536752 -0.427901
MethodInvocation_getClasspath -0.743553 0.025456 -0.438568 -0.365248 0.751884 0.502042 0.007550 0.255306 -0.011804 -0.148194 -0.580694 0.002979 0.209652 0.532873 0.108701 -0.356425 0.241001 0.129457 -0.189414 -0.048402 -0.475043 0.002051 0.948920 0.377477 -0.130857 0.382088 0.152122 -0.277777 -0.645489 -0.285788 -0.461349 0.055384 0.272208 0.482899 -0.233171 0.725783 0.011511 -0.877954 -1.028993 0.094182
MethodInvocation_getRefId 0.182479 0.202025 -0.013215 -0.182669 -0.077278 0.293407 0.357206 0.707867 0.355690 -0.572762 -0.605758 0.269395 0.506079 -0.150550 0.985193 -0.671870 -0.114954 0.387361 0.054423 0.389017 0.029073 0.281297 0.273959 -0.626728 0.013557 0.280600 -0.724173 0.066925 -0.380278 0.221133 0.824601 -0.645566 0.165033 0.104049 -0.086960 -0.816852 -0.899081 -0.466945 0.407909 -0.466319
MethodInvocation_getSize -0.785194 -0.336380 0.006801 0.446705 0.556355 0.843922 -0.338237 0.327863 0.070860 -0.447105 -1.057123 0.165476 0.172098 -0.363722 -0.414783 0.436618 -0.065858 -0.457506 -0.471080 0.011375 -0.201412 -0.050800 -0.016804 -0.008306 -0.438265 -0.405994 -0.591222 -0.231840 -0.507701 0.138028 0.346622 -0.989730 -0.106028 0.541758 -0.050676 1.080826 0.270905 -0.516581 0.012737 -0.604547
MethodInvocation_getTask 0.556422 -0.687650 -0.024816 0.403652 0.321862 0.386503 -0.248483 -0.382133 0.022401 0.753728 0.061906 0.203743 0.137781 0.032335 -0.217036 -0.107246 0.399405 -0.540484 0.454629 0.028595 -0.454533 -0.162386 0.145803 -0.866718 0.782466 -0.125236 -0.968683 -0.093324 0.745308 0.586363 -0.103953 0.240919 0.385132 -0.293062 -0.796299 -0.123585 0.124591 0.269176 -0.889846 -0.029165
MethodInvocation_list 0.507779 0.148916 -0.484751 -0.543602 -0.157387 -0.437686 -0.595368 -1.152023 0.124657 -0.277775 0.048105 -0.110042 -0.142478 -0.252410 -0.647551 0.082475 -0.164617 0.060661 -0.330014 -0.633249 0.069329 -0.071997 -0.868157 -0.302506 0.979903 -0.093890 0.077451 -0.556465 -0.396645 -0.427565 0.107829 -0.238833 -0.034034 0.020735 0.536053 -0.113142 -0.400097 1.049450 0.894050 1.154672
MethodInvocation_load -0.006375 0.130080 0.860933 0.511746 0.568947 -0.037608 0.586349 0.679253 -0.529653 0.571359 0.265501 -0.239549 0.661894 0.041139 -0.673929 -0.286709 0.303705 0.110562 0.270596 -0.618401 -0.398481 -0.544070 0.787955 0.227628 -0.108708 0.019050 -1.042984 0.318721 0.626151 -0.371087 -0.390555 -0.506436 -0.405319 -0.807368 -0.222662 1.429172 0.230081 0.550879 0.209877 0.333835
MethodInvocation_print -0.664126 -0.003933 -0.328029 -1.066881 0.370980 0.335338 0.043190 -0.059883 0.878788 -0.043070 -0.551141 -0.113166 0.833667 -0.343449 -0.104409 0.013932 0.272013 -0.260889 -1.139891 0.633336 -0.439872 -0.224674 0.543277 0.616980 0.216386 -0.644577 0.142849 0.338473 0.227999 0.258156 -0.555765 0.509296 -0.228702 -0.036847 -0.297807 -0.107321 0.023871 0.555354 -0.835464 0.474418
MethodInvocation_push 0.490435 0.142880 1.129887 -0.344771 0.160118 0.543365 0.505047 0.959062 0.040615 -0.155597 -0.120732 -0.126651 -0.465185 0.156997 0.796296 0.389340 0.302204 -0.144093 -0.977095 -0.402261 -0.201464 -0.756124 0.796597 -0.267234 -0.016398 0.736573 -0.450830 0.332313 -1.027190 -0.190266 -0.648334 -0.932395 0.093209 -0.371635 -0.169857 0.185256 -0.524012 -0.334575 -0.065621 -0.412790
MethodInvocation_setCommandline -0.436804 -0.580412 0.562207 -0.065634 0.262098 -0.138809 -0.655034 0.556816 0.885930 0.567132 0.193824 0.499587 -0.172952 -0.102388 -0.063145 -0.599191 0.281972 -0.072084 0.832397 -0.522090 -1.257158 0.664616 -0.272363 -0.150545 -0.698669 0.031620 -0.558997 0.298303 0.486722 -0.478343 0.514649 -0.611457 -0.221282 -0.300477 0.399947 1.011106 1.036195 0.065242 -0.094698 -0.442258
ReferenceType_AttributeSetter -0.327016 0.050255 -0.018381 -1.063551 0.232854 0.248943 -0.031302 -1.026840 -1.029454 0.409377 0.083791 0.135375 -0.167352 0.756636 0.142540 0.672389 -0.619711 0.843302 0.079009 0.371410 0.345050 -0.514837 -0.330100 0.666494 -0.124201 0.733005 -0.002887 0.227888 -0.829416 -0.849907 -0.735771 0.425421 0.321401 0.661726 -0.774439 -0.750963 -0.637877 0.186745 0.068500 -1.177810
ReferenceType_FileWriter 0.170806 -0.169278 0.668592 0.010034 -0.046716 0.340152 -0.196681 -0.203202 -0.114079 0.553112 -0.121176 -0.269542 0.325581 -1.059857 -0.557431 -0.209359 0.345662 0.170882 0.543322 -0.638627 -0.588624 -0.253798 0.092110 -0.040110 0.019195 0.290035 -0.444244 0.192584 0.912474 -0.496516 -0.608314 -0.232770 0.105276 -0.426792 -0.006249 0.810315 1.190532 1.232295 0.302411 0.239047
ReferenceType_SourceFileScanner 0.332528 -0.008027 0.310943 -1.080203 -0.025154 -0.469033 -0.631233 -0.989952 -0.534695 0.664823 0.692455 0.588465 -0.377004 0.355131 0.312345 0.480367 -0.607431 0.063877 -0.464121 -1.365109 -0.499233 -0.144861 0.446685 -0.356231 0.550098 -0.336022 -0.122892 -0.245764 -0.075400 0.935239 0.137429 -0.179900 0.615965 -0.354735 -0.309812 0.107016 -0.010908 0.439921 -0.549937 1.023371
dostatement -0.148595 -0.127511 0.007288 -0.380485 0.497608 -0.377675 -0.303143 0.679991 -0.121881 0.130470 -0.094487 -0.230292 0.468477 -0.148888 -0.317725 -0.171593 0.453287 0.028577 -0.027812 -1.091584 -0.096824 -0.516677 0.481157 -0.236081 0.082903 0.386914 0.163317 -0.207016 -0.237043 -0.026506 0.057921 -0.418482 -0.138767 -0.379976 0.431627 1.470504 0.137158 -0.010956 -0.300141 0.866361
MethodDeclaration_addFileset -0.783254 0.846077 -0.109665 -0.297055 -1.033578 0.475108 0.157115 -0.944747 0.418813 -0.126781 -0.965571 -0.082284 0.209227 -0.116881 0.977122 -0.243390 0.425902 0.520070 -0.963411 0.592096 -0.483399 0.832895 -0.599327 -0.808569 0.700735 0.084849 1.366062 0.982886 0.700036 0.638754 1.027683 0.733842 0.255658 -0.351501 0.235700 -0.139401 -0.457679 -0.966846 -0.587570 -0.007672
MethodDeclaration_addText 0.185285 -0.019355 0.447689 -0.045519 -0.324612 0.635271 0.015228 0.166167 0.051256 0.060514 -0.423623 0.169146 -0.041507 -0.127884 0.269863 0.444742 0.340974 0.598741 -0.511657 0.886703 0.472700 0.590142 -0.731508 -0.539953 0.205720 -0.138451 0.243311 -0.257095 -0.031559 0.296622 -0.018578 -0.133047 0.503170 -0.466065 0.145559 -0.661282 -0.471624 0.594907 0.072329 -0.847773
MethodDeclaration_getName 0.616580 -0.681199 -0.035813 0.445520 -0.411462 -0.400293 0.260539 -1.298166 0.310109 0.131220 -0.497781 0.335763 -0.803020 -0.188351 0.005454 -0.291850 -0.073526 -0.198697 -0.386400 1.183886 0.608314 0.623180 -0.613327 0.759361 -0.094545 -1.043870 0.204591 -0.058076 0.251070 -0.201426 -0.516660 0.157450 -0.007332 0.845641 0.284167 -1.242053 -0.685268 -0.304694 0.597310 0.004839
MethodDeclaration_setFrom 0.904806 -0.475418 0.227486 0.753361 0.031396 0.253706 0.422269 -0.472959 0.287855 0.689315 -0.349614 0.541420 -0.107073 -0.324849 0.356959 -0.195838 0.672933 0.713750 0.326154 1.172275 0.309705 0.312369 -0.366227 -1.029250 0.537619 -0.031352 -0.330803 -0.198421 0.890931 0.090088 -0.200487 0.009985 0.473771 -0.024696 -0.607869 -1.305195 0.266570 0.312791 0.136743 -0.313379
MethodDeclaration_verifySettings -0.849972 -0.078576 -0.370137 -0.416131 0.179424 0.345154 -0.152124 -0.554662 0.131803 -0.460845 -0.027922 -0.476328 -0.053898 -0.651985 0.895259 0.142878 0.816956 -0.081705 -1.099647 -0.956259 0.297311 0.148880 -0.164004 0.119560 -0.217846 -0.793823 -0.308411 -0.625890 0.017772 0.683336 0.113650 -0.154765 -0.051091 -0.407665 0.144121 0.104516 0.577259 -0.125717 0.110165 -0.236524
MethodInvocation_getCompilerVersion -1.283908 -0.117617 -1.052956 0.024258 0.441850 -0.373387 0.507734 -1.844997 -0.291852 0.427568 0.678372 0.357988 -0.773066 -0.175225 0.648672 0.315563 -0.066022 0.249216 0.129567 -0.083063 -0.305769 -0.662183 -0.655692 0.973086 -1.151176 -0.374882 -0.356983 0.177721 -0.317553 0.410286 -1.040559 -0.272211 -0.203941 0.619981 -0.472737 -1.145947 -0.499154 0.371133 -0.756488 0.055290
MethodInvocation_getTargetException 0.690140 -0.348061 0.459359 0.107193 0.292031 0.115809 -0.948239 1.075461 0.636207 0.089964 0.076778 -0.319200 0.370970 -0.612696 0.228867 -0.288252 -0.432665 -0.430571 1.328298 -0.420980 0.651885 -0.469233 -0.098665 -1.041060 0.286194 0.304369 -1.310526 -0.612515 0.791649 0.094377 0.867757 -0.454104 -0.577269 -0.674025 0.291429 -0.712896 0.139896 0.461050 0.266307 -1.234742
MethodInvocation_noChildrenAllowed 0.095366 0.422246 -0.246574 -0.423353 0.660384 0.422793 -0.432582 0.710403 -0.041587 -0.480307 -0.307804 0.374669 -0.216023 0.296739 0.856266 0.137226 -0.919795 1.078304 0.722362 -0.382987 0.453248 0.728034 0.390229 -0.252218 -0.429701 0.217867 -1.011821 -1.109434 -0.384199 -0.298098 0.542337 -0.656062 0.106844 -0.024609 -0.111458 -0.453446 -0.334612 -0.004347 0.857238 -0.803949
MethodInvocation_panic 0.092003 0.370953 0.245615 -0.183323 0.183897 0.032922 0.041188 -0.093406 -0.073428 -0.333827 0.083995 -0.148536 0.543139 -0.587298 -0.696313 -0.239698 -0.110433 0.137365 -0.251990 0.229545 -0.150273 -0.330985 -0.165816 -0.410377 0.645104 0.252934 -0.325415 0.000391 0.242686 -0.120142 0.083369 0.077146 -0.511606 -0.395443 0.021268 0.502312 0.113038 0.658441 -0.043139 0.359956
MethodInvocation_setPath -0.171580 -0.371263 -0.317118 -0.128438 0.168126 0.063264 -0.153398 -0.168344 0.270531 -0.350711 0.159386 -0.155271 0.174981 0.109709 -0.093806 -0.367667 0.879241 -0.448001 -1.107240 0.387660 -0.157274 -0.107332 0.489034 0.107409 -0.244973 0.323241 0.279174 -0.146893 -0.963192 -0.667674 -0.122051 -0.001023 0.154796 0.788170 0.085177 0.978547 0.350526 -0.866315 -0.127175 0.639618
MethodInvocation_start -0.499532 -0.199243 0.797484 0.148942 -0.102219 0.439685 -0.299267 0.631686 0.284393 0.686432 -1.161294 -0.178962 0.784669 -0.995551 -0.584398 -0.201534 0.385808 -0.538295 -0.750186 -0.331899 -0.406507 -0.094744 -0.311121 0.256370 -0.277458 -0.609795 -0.056997 0.411127 -0.150578 0.094721 -0.111308 -0.153668 -0.358482 0.364059 0.293420 1.340676 0.159561 0.082684 -0.373482 -0.349847
ReferenceType_DataType 0.731960 -0.318497 0.233127 0.275280 -0.580654 -0.339480 0.302220 0.238779 -0.286670 0.473938 0.537878 0.389767 -0.094315 -0.137746 0.868477 -0.649717 -0.310240 0.245896 0.025442 0.101746 -0.023401 -0.195514 -0.154718 -0.484216 0.147477 0.130911 -0.449308 1.002959 -0.022885 -0.188445 0.854846 0.159918 -0.119009 0.034359 -0.355810 -0.652149 -0.653318 -0.852079 -0.001238 -0.280333
ReferenceType_EmailAddress -0.163148 0.107853 0.217658 0.662840 -0.011760 -0.310813 0.599277 0.292856 0.555662 0.390577 -0.046209 0.662494 1.030828 -0.515316 -0.381056 -0.338381 0.357660 0.406924 0.000123 1.543329 -0.414419 -0.897745 -0.269816 -0.692780 0.205043 0.283640 0.149198 1.183046 -0.237759 0.109406 -0.033509 0.466813 -0.239743 -0.380099 -0.263415 -0.085649 -0.500154 0.246938 -1.222132 -0.402573
ReferenceType_FileReader -0.077975 -0.163967 -0.011767 1.307594 0.612000 -0.143367 0.440571 0.361426 -1.153435 0.354985 0.020534 -0.681396 0.485883 0.797666 -1.078094 -0.289824 0.673366 0.526569 1.336486 -0.281637 -0.264906 -0.547132 0.464015 -0.088220 -0.217117 0.227903 0.096494 0.122158 0.003329 -0.043413 -0.702694 0.400144 1.021683 -0.532660 0.013797 0.782562 0.234499 -0.050858 -0.450827 0.172727
ReferenceType_FilterSet -0.138800 0.812004 0.348054 -0.482114 -0.177953 -0.396818 0.238387 -0.667809 -0.385892 0.348930 0.483300 0.410898 -0.001655 0.115803 0.195382 -0.224337 -0.672467 0.389778 -0.800119 0.138418 -0.281956 -0.468211 0.546798 0.251561 -0.033417 0.159295 0.350568 0.783945 -0.375004 0.093004 0.002532 0.706210 -0.144324 0.309554 -0.525558 0.172286 -0.680499 -0.714335 -1.495234 -0.126035
ReferenceType_ProjectHelperImpl 0.202749 -0.627539 0.970212 0.162556 -0.112376 0.438997 -0.090713 1.026195 0.401545 1.093390 -0.611766 0.316658 -0.063417 0.045476 0.852157 0.147252 0.408918 -0.137448 -0.147043 0.181974 0.049603 -0.129009 0.390892 -0.100895 -0.375066 -0.662994 0.348240 0.413621 0.220980 0.283894 0.065298 -0.273359 0.172318 -0.046544 0.185776 -0.088611 -0.538405 -0.033089 -0.324998 -1.145243
ReferenceType_org 0.276015 -0.116483 0.215263 0.034583 -0.260916 0.142118 0.743898 -0.650544 -1.009718 0.341200 0.070840 0.410177 -0.750491 -0.501354 0.275841 -0.014920 -0.651846 0.336594 -0.512854 0.006710 -0.148540 -0.311598 -0.299340 -0.206786 0.326360 -0.685854 0.137059 0.652274 0.868594 -0.077481 0.382538 -0.526776 -0.099047 -0.000340 -0.075600 -0.324489 -0.918588 0.491930 -0.484336 0.247358
synchronizedstatement -0.525667 -0.362250 0.162330 -0.311219 0.254391 -0.083132 -0.485227 0.813626 -0.144349 0.228174 0.445830 -0.051261 0.191594 -0.616377 -0.228285 -0.033425 -0.029923 0.317277 -0.023566 -0.757660 -0.337549 -0.451790 0.219443 0.360521 -0.541996 -0.782109 0.011760 0.175690 0.568267 0.247296 0.437563 -0.387469 -0.332326 -0.720855 0.388345 0.891880 0.567263 0.552039 -0.253788 -0.002508
MethodDeclaration_close 0.189649 -0.740367 0.077543 0.126155 0.017306 -0.770876 -0.192854 0.325998 -0.342218 0.327084 0.791348 -0.737349 -0.104151 0.505269 -0.280407 -0.195807 0.724060 -0.878339 0.513414 -0.185482 0.302522 -0.070111 0.005178 0.007139 -0.162391 -0.083757 0.025629 -0.035954 -0.004280 0.572237 -0.054592 0.002544 -0.130238 -0.770143 0.509749 0.563430 0.234430 -0.016060 -0.597239 0.249540
MethodDeclaration_setProperty 0.514311 0.090323 0.152979 -0.068647 -0.449918 0.057201 -0.029789 -0.158699 0.340107 0.280926 -0.074332 0.208780 -0.262027 0.380424 0.341314 -0.227079 0.081762 -0.190132 0.040053 0.301240 0.090244 0.690934 -0.604669 -0.286941 0.274139 0.025220 0.398643 -0.360431 0.139752 0.465878 -0.056163 -0.127000 0.357294 0.385745 0.192383 -1.074269 -0.071072 0.123922 0.551417 0.471401
MethodInvocation_clear -0.094980 -0.158448 0.651300 -0.280728 0.277033 0.631915 -0.449172 1.627597 0.606340 0.799546 0.371175 -0.250379 0.090647 0.225541 0.754224 -0.137799 0.519415 -0.556245 -0.375582 -0.457003 -0.679591 -0.004826 -0.054407 -0.413029 -0.674885 0.610300 -0.050899 -0.174950 -0.913899 -0.013738 0.081264 -0.217363 0.464423 -0.037391 0.334219 0.236710 0.560016 -0.385228 -0.357729 -0.603464
