832 40
statementexpression -0.293381 0.809081 0.916601 -0.043740 -0.886955 -0.746768 0.517126 0.357185 0.269687 -0.717084 -0.247794 -1.782147 0.483793 0.337064 1.079611 -0.497337 1.159167 0.016908 0.452364 0.093634 0.553632 0.134261 -0.366993 0.314958 1.266422 -0.206706 0.551546 -1.071784 1.052591 0.149036 -0.243239 0.658429 -0.345189 -0.513514 1.318114 -0.480674 1.376033 -2.008947 0.474591 0.366563
blockstatement 0.385769 0.944197 0.426597 -0.815768 -1.258140 -1.053604 0.816015 -0.633357 -0.415062 -0.489833 -0.695146 -0.005399 0.036791 -0.153808 1.248466 -0.161803 1.465458 0.832834 0.692233 0.186609 -0.071784 -0.657794 0.465482 -0.550617 -0.100294 -0.386991 -0.198804 -1.102746 0.654700 0.498885 -1.025527 -0.019430 -1.041909 -0.826335 0.751170 -0.938977 -0.528353 -1.609433 1.386687 0.624233
ifstatement 0.150944 0.839094 0.184642 -0.588628 -1.258713 -1.087080 0.764454 -0.151907 -0.463246 -0.425627 -0.624717 -0.196305 0.026919 -0.278858 1.255263 0.484056 0.919937 0.980109 0.735052 -0.248603 -0.163123 -0.395144 0.513417 -0.786117 -0.069272 -0.444159 -0.729775 -1.327175 0.522309 0.522053 -1.299551 0.057349 -1.418313 -0.891735 0.586426 -1.166094 -0.237339 -1.473433 1.366520 0.529217
ReferenceType_String -0.725211 0.606045 -0.378753 -0.941434 -0.399795 0.778552 0.402779 -0.940653 0.522922 -0.350274 1.284866 -0.555312 -0.023560 -0.485247 -0.558647 0.516761 0.623846 -0.074203 0.639734 -0.054183 1.492827 0.152374 0.468177 -0.261422 -1.238667 1.051160 0.387568 -0.948891 0.236636 1.239332 -0.668147 0.667402 -0.217640 -0.869161 1.431586 -0.076441 0.451506 -3.400069 1.696983 0.161338
returnstatement 0.529618 0.796863 0.391088 -0.695084 -1.360539 -1.247770 1.542558 -1.514557 -0.615038 -0.741917 1.209655 0.590632 0.181310 0.597964 0.351790 0.835492 -1.438526 0.493182 0.331953 0.217854 0.818301 0.162571 -0.911043 -1.031975 0.332376 0.931441 -0.039622 -1.619158 -0.541526 0.327439 0.552786 1.247833 0.150808 -1.197554 0.871011 -0.232781 -0.320388 -1.308428 1.490255 2.366922
throwstatement 0.141997 -0.432954 0.991649 -0.187897 -1.473223 0.085324 0.690550 -0.614601 -0.978231 -1.350498 -0.245192 0.103254 0.066511 -0.280951 0.361366 -0.325314 -0.563939 0.585043 0.459993 -0.123406 -0.393674 0.102011 0.683910 -0.479982 -1.009451 -1.158805 -0.530621 -0.962816 0.934155 -0.298366 -0.520866 -0.700120 -0.861681 -1.044716 2.048262 0.102718 0.922465 -1.532533 1.639298 0.276548
ReferenceType_File -0.948223 1.397020 0.984447 -0.001472 -1.468082 -0.424749 -0.303691 0.456569 -0.513742 -0.646673 0.143370 -0.036839 -0.848900 0.072987 1.163618 -0.335610 0.291148 -0.541122 1.493901 -0.277736 1.112907 2.174821 -0.090184 -0.105240 -0.400530 0.661691 0.809043 0.947393 -0.073557 0.942489 -0.976087 0.559814 -1.597976 0.545487 1.948091 -0.152384 0.163712 -1.354158 1.454493 1.117946
ReferenceType_BuildException 0.008670 -0.038997 0.707572 -0.260168 -0.932989 0.491679 0.369598 -1.049821 -0.688923 -1.455163 -0.643776 -0.048561 0.218861 0.056464 -0.065591 0.006717 -0.162227 0.355266 0.458343 -0.235139 -0.145049 0.634289 0.270408 -1.098763 -0.631377 -1.270338 -0.661921 -0.726542 0.000900 -0.701055 -1.122526 -0.330411 -0.489877 -1.304798 2.421512 0.165780 0.665706 -1.754159 1.060148 0.420422
catchclause 0.276893 0.842683 1.672870 -1.112551 -0.130293 -0.316853 0.670437 0.998120 -1.420151 -0.784392 0.529308 0.021873 1.352626 -0.730180 0.190213 0.490618 0.350681 0.051068 0.743421 0.248126 0.540668 0.333998 1.091971 -1.794058 0.093253 -1.112460 -0.046354 0.172047 0.219600 -0.879996 0.080152 0.020380 0.135618 -1.281714 1.999682 0.814760 0.751308 -0.510695 1.113220 0.306218
catchclauseparameter 0.307099 0.777076 1.371140 -0.891996 -0.234395 -0.354390 0.532697 0.789363 -1.193854 -0.928703 0.552220 0.075764 1.249242 -0.563172 0.053599 0.401023 0.376869 0.110604 0.803857 -0.034449 0.460456 0.401097 0.897226 -1.613615 0.006762 -1.100360 -0.196162 0.052553 0.297772 -0.741707 -0.067496 0.009478 0.140220 -1.168179 2.015072 0.858411 0.799655 -0.772841 1.165106 0.295517
MethodInvocation_log -1.286386 1.144961 0.178722 -1.326836 -0.590212 -0.964174 0.780916 -0.265212 0.458873 -0.194811 -1.106455 0.491344 0.638339 0.561258 -0.334912 1.041775 0.886496 0.174323 -0.162069 -0.051537 0.170887 0.674701 0.147309 -1.319000 0.568789 0.027762 0.463033 0.542693 -0.671942 -0.703172 -1.211093 -0.082517 -0.837879 -1.118837 2.104136 -0.516988 0.523989 -1.524884 0.015209 0.150807
trystatement 0.351990 1.867254 1.390041 -1.055285 0.452252 0.348439 0.511661 0.235734 -0.922663 -0.053021 -0.589220 -0.145773 0.929286 -0.213524 0.014074 0.360864 1.144937 0.331075 0.196266 -0.020454 0.462581 1.259522 0.258586 -1.893054 0.513704 -0.718286 0.449398 -0.127203 -1.029552 -0.053796 -0.052643 0.616428 -0.736246 -1.879666 1.332498 0.106480 0.250918 -0.951035 0.738705 0.753449
MethodInvocation_append -1.021437 -0.076114 0.987435 -0.598908 -0.275503 -1.804627 -0.122270 -1.125785 0.165939 0.098332 -0.174403 -0.547820 -0.692027 0.169034 1.983487 0.583169 -0.084877 -0.907785 1.109593 0.405136 0.561591 -0.340420 1.185449 -0.754244 1.468687 0.407670 -0.927073 -0.119140 -0.057519 0.214565 -0.562347 0.397041 1.026575 -0.665795 -0.521399 -0.126766 0.418332 -2.257853 1.628681 -0.427027
forcontrol 0.031341 1.795419 0.065461 -1.134707 -0.594173 -1.093567 0.098082 -0.796346 0.923123 -1.883505 -0.592950 -0.145709 -1.083652 0.102136 0.210279 -1.313491 0.575329 -0.036719 -0.208447 -0.014115 1.288288 -1.139294 0.617346 -1.310674 0.169142 -0.780836 0.829596 -0.170013 -0.191803 0.498958 -0.197572 0.012484 0.078488 0.093645 0.701815 -0.411413 -0.368625 -1.282013 1.486216 0.594380
forstatement -0.148018 1.734001 -0.073897 -1.059098 -0.587020 -1.062730 0.099673 -0.497470 0.857648 -1.906876 -0.556242 -0.186081 -1.085739 0.211333 0.212571 -1.014675 0.499237 -0.173354 -0.291252 -0.088015 1.298530 -1.041083 0.612864 -1.366282 -0.062960 -0.741978 0.789170 -0.126904 -0.188109 0.408200 -0.161968 -0.046249 -0.029934 0.049843 0.674291 -0.158874 -0.259624 -0.964153 1.472858 0.536391
ReferenceType_Vector 1.139366 0.858156 -0.878875 -0.077578 0.589982 -0.201190 -1.094656 -1.055270 -0.266131 -1.317687 0.500066 -0.307913 -0.451993 1.173179 -0.105609 -0.786368 0.525812 0.623470 0.517294 -0.595039 0.560037 0.843988 -0.686894 -1.521180 -0.136620 0.409591 0.562002 0.518305 0.714261 0.579889 -0.966542 -0.148189 -0.288877 -1.197153 0.141859 -0.066686 1.463684 -1.652883 0.812834 0.946443
MethodInvocation_equals 0.064743 0.599895 0.064839 -1.044998 0.615069 -0.476750 0.098971 -1.645257 -1.314503 -0.599858 0.126900 -0.464258 0.153858 -0.291116 -0.502546 0.508056 1.064633 0.183171 -0.697767 -0.276390 -0.814829 -0.531740 -0.139384 -0.118507 0.709236 -0.591980 -0.795406 -0.387021 -0.230440 -0.303366 -1.172817 0.542021 -0.009157 -0.089841 1.572402 -1.720839 -0.809698 -1.693593 2.009107 0.218660
MethodInvocation_getProject 0.151880 0.310973 0.100756 -1.276391 -0.312919 -0.384988 1.103236 -0.166723 -0.809186 -0.681432 -0.423193 0.052299 -0.622761 -0.333753 1.451645 0.238911 0.264097 0.308796 -0.910307 1.049532 -0.443053 -0.540098 -0.703805 -0.951082 0.210903 -0.079138 0.349583 -0.323507 -0.987184 2.004047 -2.092799 0.597394 -0.461352 0.475733 1.363279 -0.332938 1.365177 -0.574191 0.638802 0.104533
ReferenceType_Object 1.049130 -0.416689 1.266031 -1.622798 -0.185063 0.297904 1.522275 -0.629882 -0.096631 0.313134 0.393064 0.334104 0.142719 -0.081157 -1.575080 0.453228 -0.154591 1.016030 1.124646 -1.165973 1.316951 -0.037355 1.166288 -1.309598 0.837326 -1.574781 -0.251834 -0.661066 -0.704221 1.117632 -1.150478 0.435142 -0.405811 0.292949 -0.062467 -0.989528 1.098556 -0.489342 0.436621 0.926905
MethodInvocation_addElement 0.722710 0.034634 -0.824374 -0.466687 0.148929 -1.129111 -0.419270 -0.615887 -0.731133 -1.101478 -0.303486 0.313900 -1.038905 -0.029609 0.059274 -1.383523 -0.584952 0.813280 0.078231 -0.311638 0.525854 -0.792782 0.523817 0.527775 1.260484 0.770947 -0.178065 0.678494 1.057994 0.139918 0.606510 -0.048247 -1.210074 -0.682738 1.537500 -0.760967 2.078725 -1.680740 0.256935 0.436572
whilestatement 2.158884 0.767276 0.166756 -1.721701 0.340788 -1.163794 0.880876 -0.679811 0.307442 -0.868243 -0.275977 -0.514722 -0.019351 -0.947847 1.204005 -0.845427 1.087192 0.135212 0.261646 0.029441 0.614152 -0.247208 0.982146 0.247293 0.108916 0.740474 0.161355 0.126060 0.257498 -0.846656 -0.327810 -1.011714 0.224448 -0.310137 0.177301 0.115859 -0.045732 -1.859972 0.588069 1.240967
MethodInvocation_size 0.181491 0.242712 0.082857 -0.444184 -1.674020 -0.587421 0.408722 -0.759863 1.054580 -0.602573 -0.203945 -0.759756 -1.285696 1.326465 0.811298 -0.735862 -0.618619 0.704239 -0.747009 -0.013520 1.121475 -0.076842 0.515159 -0.681484 0.543212 -0.782621 -0.158416 0.455052 0.726225 0.075889 -1.476471 0.441548 -0.496589 -1.230403 0.914439 0.735920 -0.504784 -0.745963 0.752663 1.153222
ReferenceType_StringBuffer 0.408083 -0.091550 0.317748 -0.820885 -0.105397 -1.093704 -1.024520 -1.071786 1.131374 -1.154015 -0.230500 -0.183578 -0.113290 0.989470 1.187720 0.067810 0.942101 -0.457070 1.668341 0.440246 0.675897 0.136991 1.175986 -1.595406 -0.071662 0.020994 0.038226 -0.904148 -0.878328 -0.582933 -0.472380 -0.140316 0.765519 -0.310711 0.209830 0.230710 0.153236 -1.547959 0.426986 0.360209
MethodInvocation_length 0.212854 -0.288586 0.537220 -0.930459 0.474506 -0.869568 -0.851977 -0.003233 -0.197729 -0.746340 -0.256898 -0.704412 -0.538920 -0.233546 1.615478 -0.047475 0.834764 -1.082909 -0.038347 -0.020550 0.673681 -0.526653 0.815118 -0.467233 -0.136648 0.296410 0.060066 -1.881642 -0.838157 -0.977895 -0.399780 -0.187555 -0.995330 -0.733149 0.471826 -1.183230 0.263687 -1.236754 0.820495 0.708612
ReferenceType_Path -0.385086 -0.057536 0.857502 0.385402 -0.478451 -1.841765 0.233721 -0.704169 -1.193133 0.474875 0.373094 0.418242 -0.637749 0.042354 0.670549 0.001658 -1.318880 1.258163 0.709028 0.866912 -0.134891 0.601022 -0.067734 -0.976509 -0.280447 -0.360126 1.485133 0.806381 0.603016 1.307137 -0.813987 1.290033 1.541277 -0.173881 -0.325349 -1.157316 1.230724 -1.044816 1.104190 -1.104951
ReferenceType_Project 0.717223 -0.324481 0.123979 -0.162140 -0.198408 -0.059879 1.486427 -1.275386 -0.636370 -0.949956 1.311852 0.565528 -0.605968 0.712549 0.317426 0.628030 0.531132 0.225391 0.712829 -1.129489 0.376265 1.376713 0.155945 -0.702911 -0.347913 -0.441639 0.848222 -1.029181 0.410862 0.641306 -1.609336 0.615674 -0.124636 -0.079379 0.092514 0.028185 0.985101 -0.378329 0.091916 0.174986
MethodInvocation_getLocation -0.618718 0.664675 0.146974 0.096293 -0.504106 0.767018 0.591271 -0.570323 -0.775110 -0.725606 -1.165183 0.176341 0.630637 0.238672 0.659615 -0.068540 -0.401311 0.266955 0.427641 0.367377 -0.670803 -0.031318 -0.110844 -1.272455 -1.353040 -0.931693 -1.137545 0.038432 0.435750 -0.614283 -1.110669 -0.716536 -0.743687 -0.608314 2.161598 0.447254 0.521921 -1.433737 0.326161 0.299240
MethodInvocation_setValue -1.034431 0.084256 -0.531203 0.182376 -0.158663 -1.387471 0.863058 0.619799 -0.475924 0.959003 -0.273803 -1.114552 -0.104036 -0.050809 0.662792 0.085526 -0.078593 0.356880 -0.796330 -0.191399 1.172755 -0.490549 -0.149531 -0.056302 -0.627894 -0.704028 0.767760 0.993562 1.416824 -0.977743 -1.428650 0.516390 0.120562 -0.366990 0.682710 -1.117601 -0.635256 -1.183481 0.312779 -0.290720
MethodInvocation_toString -0.166235 -0.030386 0.908813 -1.481553 0.214419 -1.220649 -0.041673 0.156726 -0.351548 0.007697 -0.071991 -1.155904 0.015274 0.352058 1.155232 0.727479 -0.248309 -0.956533 0.195319 0.235816 0.814320 -0.022229 0.034701 -0.579346 0.159152 0.136613 -1.125299 0.406154 -0.861337 -0.006953 -0.467518 0.566621 0.129380 -0.235428 0.691163 0.407900 0.623437 -1.854368 1.001808 0.189514
MethodInvocation_createArgument -1.159050 0.304184 -0.891508 0.578286 -0.144686 -1.381954 1.140621 0.273144 0.115085 1.030758 -1.099934 -1.057399 -0.038464 0.019928 1.270433 -0.158120 0.220722 0.516525 -0.783599 -0.507247 0.713077 -0.388868 0.185937 -0.131518 -1.026977 -1.183266 0.673801 0.785948 1.346628 -1.059058 -1.110703 0.266685 0.364471 -0.561945 -0.019659 -0.737276 -0.568757 -1.255873 0.393757 -0.780378
ReferenceType_Class -0.472065 0.771839 1.646983 -1.258810 -0.201272 0.553817 1.557290 -1.156053 -0.255861 -0.446431 0.734216 0.555631 0.023102 -0.006551 -1.234434 0.892208 0.754493 -0.473468 0.207156 -1.377930 0.460324 0.453975 0.270979 -0.209126 1.550536 -1.135132 -0.707880 -0.551715 0.110783 0.822542 -0.444238 -0.538929 -0.433341 -0.860335 -0.310522 -0.021156 0.676364 0.361504 2.120141 -0.172362
ReferenceType_Task 0.672942 1.324677 0.217602 -0.917707 0.091277 -0.883022 0.907751 -0.446209 0.864058 -1.298254 0.332286 -0.238057 0.940560 1.870080 -0.295184 0.655115 1.009952 0.723893 1.353058 -0.318153 0.192962 -0.529221 -0.384912 0.018816 -0.311502 -0.391666 -1.281961 0.383577 0.368504 0.567218 -1.094672 0.595764 -0.115110 1.161487 0.928670 -0.164817 0.296291 -0.208578 -0.262007 1.142218
MethodInvocation_getName -0.098635 0.154608 -0.217100 -0.701290 -1.426978 -1.067449 0.337699 -0.341905 -0.260252 -1.754039 -0.542980 -1.105388 -0.416601 -0.589939 -1.124344 0.639930 0.790416 -0.566566 0.274802 -0.129190 0.569833 -0.692932 0.102536 -0.086674 0.371468 -0.754480 -0.451350 0.118366 -0.233822 -1.091632 0.767814 -0.311809 -1.081290 -1.060292 0.768381 -1.146235 -0.478360 -0.887898 1.158953 -0.728075
ReferenceType_Enumeration 1.689889 0.633737 0.180353 -1.314363 -1.019701 -1.373516 1.072917 -0.733633 0.348664 -1.013828 -0.222773 -0.591911 -0.926879 -0.705879 0.362924 0.014716 0.124450 0.112050 -0.171083 -0.320723 1.287473 0.516553 0.055987 -0.666974 -0.167597 0.613053 0.382795 1.338977 0.202603 -0.427845 -0.962546 -1.251800 0.115442 -0.447899 0.139039 1.097552 0.185641 -1.224570 0.331793 1.087233
MethodInvocation_println -0.428862 0.936553 0.957603 -0.879772 -1.890750 -1.093530 -0.205171 0.904335 0.482701 -0.847273 0.202735 -0.613425 0.391319 -0.485368 0.483061 0.513394 1.614064 -0.689542 -0.255336 0.491454 -0.063308 -0.661446 -0.146619 -0.434726 -0.079887 0.837240 -0.798477 -0.338153 0.416943 1.203095 0.016883 -1.116842 -0.047262 -0.342477 -0.051177 1.532740 0.555876 -1.012660 1.042392 -0.665736
MethodInvocation_hasMoreElements 1.600519 0.493727 0.179229 -1.213897 -0.894868 -1.036636 1.238671 -0.540979 -0.160301 -0.823811 -0.606407 -0.743928 -1.026920 -1.086789 0.400977 -0.380159 0.495056 0.482775 0.368904 -0.098524 1.190855 -0.192032 0.310505 -0.381356 0.063446 0.257530 -0.030667 1.533739 0.005082 0.231813 -0.749231 -0.850353 0.148959 -0.223792 0.493938 1.047880 0.328262 -1.283747 0.257018 0.796224
MethodInvocation_nextElement 1.324896 0.540213 -0.196867 -1.296109 -0.909237 -0.810427 1.392415 -0.650058 -0.354719 -0.624218 -0.573679 -0.462560 -0.934770 -1.229478 0.386250 -0.050645 0.307679 0.597030 1.106783 0.239847 0.995330 -0.568782 0.138551 0.227459 0.058798 0.295873 -0.460502 1.368275 -0.051174 0.774377 -0.443206 -0.590831 -0.307946 -0.195639 0.547367 0.543826 0.250127 -1.150334 0.036059 0.305325
MethodInvocation_getValue -0.477720 1.141383 -0.968318 0.477248 -0.332253 -0.772910 -0.128306 1.158872 -1.478387 -1.058758 1.107878 -1.393935 0.069201 -0.800860 -0.730088 0.868242 1.190525 -0.032234 0.394843 0.372260 1.064693 -1.476496 -0.178551 -0.075117 1.278763 -0.055008 0.446120 -0.064115 1.215256 -0.376863 0.406522 0.914937 0.039353 -0.412345 0.759048 -1.250452 -0.877529 -0.308692 0.125024 0.353398
MethodInvocation_getAbsolutePath -0.872106 0.991201 1.295484 -0.531253 -1.518701 0.120918 0.228298 -0.185984 0.483610 -0.655844 -0.277421 -0.339644 0.067356 -0.213091 -0.183089 0.169813 -0.507165 0.250164 -0.143737 0.749847 0.021289 0.777618 -0.015894 0.270866 -0.685556 0.320206 1.148141 0.425902 0.553943 -0.973610 -0.973762 -0.835421 -0.382304 0.208955 1.882041 -0.544207 -0.446576 -1.020189 0.623973 1.543444
MethodInvocation_substring -0.667413 -0.483574 0.697753 -1.482702 0.747838 -1.335515 -0.933630 -0.000153 -0.001820 -0.371880 0.468849 -0.531409 -0.672213 -0.449885 1.504141 0.568220 0.459718 0.167950 -0.022172 -0.164506 1.007640 -1.060494 1.754076 0.315201 0.115070 0.159807 0.304537 -1.047013 0.002482 -0.391362 -0.305310 0.044696 -0.720876 -1.390374 0.347940 -0.155667 0.629101 -0.802804 0.774239 0.534951
MethodInvocation_close 0.672706 1.256045 0.972768 0.131561 -0.379601 -0.226163 0.790898 1.101890 -0.073633 -0.905795 0.125993 -0.747881 1.201241 0.049318 1.104888 -0.002890 0.858035 -0.173828 0.334554 0.308823 0.513299 0.575878 0.993847 -0.903838 -0.371082 -0.063378 -0.465404 -0.209348 0.300242 -0.926745 0.222433 0.345460 0.172547 -0.799825 1.464272 0.831814 -0.037094 -0.424531 0.356132 0.795270
breakstatement -0.703882 0.856212 -0.220807 -0.238683 0.615625 -0.762620 -0.144443 -0.335782 -0.657894 0.571393 -0.817739 -0.569092 -0.326555 -0.528688 1.687402 -0.712662 -0.590635 -0.651911 0.646105 0.433148 0.843870 -1.244772 0.686875 -0.900427 1.578512 -0.280679 -0.279360 -0.103591 0.739362 -1.428309 0.496400 -0.235314 1.050618 -0.314677 -0.284972 -1.122423 0.259507 -1.726021 0.516728 0.663840
ReferenceType_Hashtable -0.216797 1.029361 -0.238800 -0.507856 0.424462 0.116002 0.077661 -1.277226 0.403660 -1.817532 1.014298 -0.496676 -0.604348 0.618394 -0.344125 1.136008 0.057563 0.283964 0.579869 -0.097434 0.530347 0.901673 -0.012849 -0.422462 1.042110 -0.128148 1.360717 0.447579 1.050641 0.965862 -1.111019 -0.600974 0.040206 -1.053623 0.199717 0.969478 0.754489 0.457171 0.273889 0.714135
MethodInvocation_exists -0.481764 1.036899 0.281494 -0.017549 -1.542967 -0.214063 -0.041348 -0.073256 -0.764860 -0.405631 -1.403864 0.755363 -0.425552 -0.245337 1.103156 0.185032 -0.054542 0.267194 0.358956 0.582633 -0.261917 0.722800 -0.349810 -0.567780 -0.182638 0.291463 0.371721 0.029893 -0.266367 -0.620327 -1.244933 -0.539581 -1.808357 -0.460368 1.725416 -0.821490 -0.973951 -0.437627 0.490548 1.375385
MethodInvocation_getProperty 0.115409 0.668642 0.069805 -0.438225 0.111973 -1.032966 -0.009749 -0.166678 -1.044663 -0.893515 -0.407919 -0.856641 -0.012743 -0.484900 0.426476 1.194739 0.910258 0.598118 1.168024 1.152488 -0.508154 -0.590199 -0.676601 -0.595676 -1.313731 -0.443683 1.069045 0.540488 -0.434140 0.411788 -0.792031 0.252396 0.866454 -0.353381 -0.009940 -0.492056 0.022045 -1.396938 0.557330 -0.120339
MethodInvocation_get 0.391051 0.550034 0.208188 -1.177208 -0.247187 0.295080 1.690420 -1.147883 0.406842 -0.751479 -0.050489 -1.497147 -0.729254 0.053674 0.089720 1.474598 0.084117 -0.349583 0.896466 -0.092363 1.091917 -0.342747 0.401674 0.435618 0.690156 -0.800481 -0.459355 0.556571 -0.729654 0.112983 -0.881790 0.272997 -0.205260 -0.573884 -0.061814 0.001184 -0.695399 0.161689 0.440178 0.706997
MethodInvocation_put -0.195827 0.957905 0.282413 -1.153984 -0.349214 0.394064 0.791091 -0.560254 0.557368 -1.557494 0.135566 -1.289477 -0.113480 -0.857156 -0.927942 1.477908 -0.133891 0.421325 1.033116 0.125366 0.696527 -0.230213 -0.013181 0.649311 0.398289 -0.284534 1.216553 -0.429534 -0.166947 -0.358211 -0.051189 -0.949307 -0.523190 -0.746267 0.571343 -0.495443 0.759762 -0.112069 -0.610202 1.112966
MethodInvocation_isReference 0.763356 -0.798573 0.481478 0.460479 -0.229693 -0.548227 0.309484 -0.570428 -1.528760 0.035091 0.283155 0.728853 -0.839745 -0.099258 1.253530 -0.987363 -1.130329 0.780389 -0.124381 -0.713971 -0.624914 0.050937 0.185667 -0.147941 -1.033189 -0.155168 0.629959 -1.123923 1.092564 0.649607 -0.539715 -0.241494 -0.490923 -0.096685 -0.373889 -0.173835 0.854975 -0.198785 0.920904 0.957696
MethodInvocation_getMessage -0.844078 -0.273285 0.547639 -0.390578 -0.930815 -0.699961 0.116250 0.856439 -0.631419 -0.606454 -0.340924 0.025969 0.991018 -0.163934 0.029407 0.125871 -0.134911 -0.660966 0.079818 0.360132 -0.074673 -0.444965 0.604349 -1.262047 -0.082358 -0.387933 -1.242210 0.245821 0.443417 -0.643878 -0.281277 -0.468307 0.064807 -0.511805 1.750839 0.433607 0.409642 -1.197837 1.453592 -0.671390
MethodInvocation_elements 1.292104 0.385535 -0.306553 -1.223518 -0.910689 -1.516525 0.939436 -0.643490 0.166158 -0.666112 -0.243782 0.030053 -0.957591 -0.403307 -0.080896 -0.542657 0.224990 0.557426 0.146322 -0.096762 1.323057 -0.255104 0.440585 -0.872369 -0.263275 0.711269 0.198759 1.121582 -0.225929 -0.040093 -0.567597 -0.931379 0.440397 -0.062337 0.251375 0.603515 0.300449 -1.351983 -0.064500 0.701475
MethodInvocation_write -0.353192 1.776075 0.442620 0.216143 0.554180 0.781911 -0.108059 0.073519 0.307889 -0.310555 -0.467377 -0.805389 0.875883 -1.764786 0.809442 -0.984756 0.122132 -0.202680 0.676025 -0.120579 0.769133 -1.043219 1.422823 0.318416 -1.028990 -0.552649 0.003669 -0.570810 0.451285 -1.140326 1.944267 -0.214831 0.782136 -0.301446 0.165774 -0.327423 -0.112175 -1.410964 0.798892 0.363727
MethodInvocation_indexOf -0.333126 -0.089539 0.194563 -1.733958 0.690039 -0.712647 -1.612909 -0.313136 -0.192177 -0.277071 0.376423 -0.398008 0.178154 0.626394 1.623063 0.870459 0.500635 0.722608 0.489136 1.337675 -0.655891 -1.555104 0.527000 0.446151 1.070201 0.439681 -0.039982 -0.491566 0.090649 -0.465360 -1.084271 0.128402 -0.200089 -0.779057 0.527570 -0.445255 -0.173287 -1.207224 0.586804 1.387107
ReferenceType_Commandline -1.937374 0.839288 -0.189735 0.218895 0.748533 -1.261099 0.279856 -1.581950 0.518087 0.962156 -0.331499 0.093396 0.280485 0.978246 0.543191 0.537526 -0.653564 1.259189 0.330572 -1.122003 0.273695 0.634802 -0.310555 -0.523514 -0.144908 -0.861738 0.588399 -0.147437 0.478591 -0.342462 0.020312 0.345524 0.216253 -1.934751 -0.342641 -0.303041 0.587056 -0.345679 -0.172497 -0.316848
MethodDeclaration_execute -1.287479 1.008249 -0.481428 0.101288 -0.618554 0.248093 -0.387598 -1.067550 -0.002618 -0.894941 -0.210012 0.154679 0.131995 0.737972 -0.310466 0.140194 0.040332 0.198873 0.551593 -0.090100 -0.151391 -0.038431 -0.499344 -0.030715 0.081865 -0.369443 -0.231729 0.154802 0.319435 0.589219 0.234007 0.460659 -0.459232 -1.068066 1.513199 0.260445 0.946272 -1.501546 0.349463 0.042805
ReferenceType_FileSet 0.576432 0.506096 -0.822991 -0.224016 0.067408 -0.041146 0.060185 -0.268553 -0.120352 -0.576361 -0.831711 0.936803 -1.248806 -0.144292 1.199138 -1.494610 -0.545516 1.460731 0.534842 0.699978 0.650541 -0.360265 0.885552 0.177586 0.292272 -0.242200 0.828204 1.016601 -0.237829 0.941329 -0.513328 1.318236 -0.357617 -0.386171 1.818136 0.787690 0.415996 -0.264481 -0.511621 0.619788
switchstatementcase -0.467442 -0.210542 -0.382920 0.135935 0.944234 -1.080165 -0.414718 -0.071447 -0.443172 1.073871 -1.074928 -0.064577 -0.005819 0.220476 1.294912 -1.001644 -0.714227 -0.149576 0.472168 0.004782 0.476733 -1.328312 0.434463 -0.950223 1.732111 -0.645912 -0.786463 -0.329407 0.999490 -1.214086 1.154402 0.170729 0.513483 -0.911417 -0.246168 -1.090866 0.508138 -1.368899 0.658011 -0.381501
MethodInvocation_isDirectory -0.432086 0.612226 -0.057468 -0.314213 -1.201824 -0.060889 -0.684741 -0.465318 -0.371983 -0.755033 -1.288052 0.451069 -0.785899 -0.393293 0.598916 0.152487 -0.178777 -0.044187 0.435727 0.416472 -0.221449 0.082644 0.031571 -0.200719 -0.130046 0.154510 -0.175622 -0.456142 -0.819880 -0.668058 -0.051823 -0.590002 -2.051148 -0.952258 1.241446 -0.726682 -0.682920 -0.300462 0.274088 1.023765
MethodInvocation_read 1.425681 0.733497 0.602055 0.158383 0.636309 -0.487414 0.583353 0.494151 -0.617130 0.074101 -0.580481 -0.359508 0.832050 0.116683 1.973565 -0.407545 -0.170423 -0.864265 -0.109011 0.163664 -0.194524 -0.205937 0.077028 -0.707714 -0.582510 -0.117561 0.454392 -0.771987 0.362096 -1.543152 0.602438 -0.427619 0.784486 -0.326297 -0.475919 -0.320404 0.453345 -1.391925 0.680912 0.765821
ReferenceType_Reader 1.643470 -0.402464 -0.344195 0.170877 0.324507 -0.000472 -0.020786 0.691080 0.200963 -0.644392 -0.052345 0.175344 0.638624 1.221821 -0.107629 -1.285167 -0.765305 -1.180437 -0.432033 -0.079989 0.116291 0.404290 -0.499870 -1.419611 0.288310 0.087788 0.342672 -1.716180 0.418456 -0.597735 -0.007534 -0.420547 0.264376 0.276500 -0.103990 -0.942961 0.478833 -0.393898 0.772604 0.889791
MethodInvocation_add 0.905992 -0.359300 0.155582 -1.570471 -0.431730 0.029035 -0.345887 0.326297 1.414112 -0.432402 -0.497127 -1.066269 0.388254 1.316786 -1.371576 -0.683839 -0.127228 1.316042 -0.441318 0.176509 0.029149 0.186671 -0.504511 1.146352 0.522104 -0.532046 -0.051308 0.810008 -0.774220 0.102800 0.709384 0.813537 -0.587840 -0.343488 0.143279 0.106995 -0.264288 -0.557420 1.111780 0.245377
MethodInvocation_charAt -0.046381 -0.447363 0.610608 -0.235010 0.343100 -1.683395 -1.125118 -0.208672 0.029826 -0.744510 0.035700 -0.543247 -0.819368 0.724441 0.699776 -0.258823 0.185810 -0.456554 0.001103 -0.431970 0.998515 -0.990098 0.794619 -0.835705 -0.113908 0.090323 0.204331 -2.523550 -0.191543 -0.967511 -0.139763 -0.167066 -0.913400 -0.031673 0.015303 -1.836570 -0.615296 -0.584815 1.061270 1.058287
MethodInvocation_getClass 0.332931 -0.414293 0.920609 -0.248633 -0.744159 -0.724337 1.256315 -0.441410 -0.728098 -0.955631 -0.002383 0.431513 -0.158148 -0.354752 -1.405434 0.797506 0.490438 -1.141134 -0.327659 -1.096875 0.086124 0.427023 -0.405860 -1.133802 -0.062526 -1.077848 -0.885450 -1.107537 -0.949460 -0.271746 -0.089506 -0.306758 -0.739339 -0.333616 0.241230 -1.153160 0.227874 0.111162 1.081526 -1.099666
ReferenceType_StringTokenizer 1.376199 -0.071547 -0.172108 -0.696880 0.448802 0.677892 -0.620627 -0.913677 0.270953 0.666096 -0.543165 0.032959 -0.156977 -0.571046 0.618109 -0.997760 1.054952 0.212526 -0.085634 -0.072119 -0.194837 1.318334 0.414166 1.277458 -0.095927 1.574190 0.813059 -0.218417 0.236012 -1.150879 -0.601150 -0.836555 0.064257 -0.316226 -0.143482 -1.177650 -0.510296 -1.946510 0.276654 0.896923
MethodInvocation_equalsIgnoreCase 0.156721 0.537662 -1.043559 0.465269 -0.661665 -1.613492 -0.290564 0.640052 -1.220906 -1.058548 0.543257 -0.096668 0.251253 -0.595141 -0.838852 0.808900 1.397336 0.907462 0.672709 0.074349 0.344340 -0.315281 -0.653622 -0.939423 -0.688435 -0.098255 0.684176 -0.811247 0.360867 0.099224 0.098786 0.526817 -0.668509 -1.073717 0.017434 -1.315801 -0.797465 0.057179 -0.022513 -0.217959
ReferenceType_InputStream 0.503418 2.146531 0.259640 0.017485 0.358309 -0.276010 1.220195 -0.032430 -0.129739 -0.312719 -0.479342 0.053953 0.776027 0.584602 0.244144 1.426794 1.310373 -1.219299 0.880872 -0.651578 0.191669 0.911214 -0.717490 -0.619519 -0.256284 0.974885 -0.158781 0.106524 -0.452353 -0.087598 0.754153 -0.455547 -0.632142 0.174297 -0.016671 -0.085601 0.354193 -0.344015 -0.164370 0.538998
ReferenceType_Properties 1.071044 1.500714 -0.492193 -0.000686 0.058296 0.529081 0.449823 0.229633 0.149204 -1.106511 -1.062191 -0.650101 -0.288777 -0.751804 0.326571 0.050079 0.568249 -0.714060 -0.653422 0.114063 0.267303 0.550323 -0.745590 -0.900440 -0.770555 -0.620466 1.024142 0.303879 -0.980842 0.426549 0.543872 -0.481812 -0.944942 -1.442982 -0.288380 0.476657 0.594850 -0.708597 0.246853 -0.307140
MethodInvocation_startsWith -0.400172 0.061620 0.643210 -1.826448 0.606035 -0.810850 -0.501335 -0.043696 -0.844632 0.410972 0.202275 -0.606714 -0.345179 -1.770309 -0.085632 0.718941 0.574768 0.515226 0.276511 -0.036313 0.222134 -0.973805 0.770912 0.101140 0.019843 0.689605 0.289496 -0.846100 -0.456598 -0.100983 -0.520593 -0.575622 -0.761608 -0.473761 -0.149093 -1.481250 0.043426 -1.411181 0.989698 0.638556
MethodInvocation_getBytes 0.915093 -0.582752 0.135919 0.693442 -0.184323 -1.848111 1.186444 0.975441 0.486948 0.673709 -0.034439 -0.937841 0.582450 0.335211 0.154234 -0.250657 0.569381 0.276917 0.196356 -0.626500 0.670969 0.443289 -0.145344 1.030574 0.200790 -0.751508 1.316199 -0.310154 0.822104 -0.298360 1.121092 1.083339 0.024196 -0.707437 -0.876742 -0.517264 -0.195873 0.144256 0.122791 -0.883236
ReferenceType_FileInputStream 0.963352 0.984608 0.799141 -0.015520 -0.567492 0.965723 0.320137 1.163003 0.037573 0.157196 -1.114018 -0.225323 0.843018 -0.335663 0.611819 -0.709131 0.593267 -0.827341 -1.027107 0.100038 -0.266389 1.426280 -0.046042 -0.761006 -0.666594 -0.095301 0.195077 -0.188268 -0.610196 -1.826373 0.485473 -0.513895 -0.677401 -0.987771 0.370616 0.193018 -1.012002 -1.341202 1.020650 0.387085
ReferenceType_UnknownElement 0.698895 0.519759 0.069880 0.325674 -0.649552 0.467360 1.985682 -0.658669 0.529464 -0.035712 -0.856270 -1.380381 -0.156695 0.426021 0.533518 -0.174465 -0.828601 -0.146356 0.685592 0.193736 0.549530 -0.347797 -0.748685 -0.241347 -0.308852 -1.662507 -0.795232 -0.195142 -0.363015 0.124680 -0.537173 0.257254 0.528917 1.302595 -0.212477 -0.714071 -0.469280 -0.762554 -0.166066 0.591002
continuestatement -0.785441 1.276276 -0.175144 -0.735079 0.231991 -0.472801 0.511126 -0.761699 -0.717356 0.303344 -0.259591 0.104913 -0.481470 -0.467494 0.465572 0.070910 0.702981 -0.139697 0.495712 -0.506416 0.613740 -0.832720 0.434149 -0.042860 0.828035 -0.387410 -0.283329 0.612870 0.116615 -0.719758 -0.604220 -0.111070 -0.126324 0.571201 0.696765 -1.445715 -0.605557 -0.623585 0.452641 0.799681
MethodInvocation_elementAt 0.603273 0.959210 -0.457732 -0.307611 0.111780 -0.117683 0.146186 -0.778926 0.692256 0.052725 -0.661580 0.358561 -0.887907 0.838299 1.692283 -1.151142 0.401274 0.397888 -0.287873 0.191448 0.532026 -0.187990 0.876315 -0.053827 1.177054 -0.392509 -0.204915 0.590913 0.087344 1.000052 -0.200782 1.337928 0.023275 -1.059305 0.192589 0.709670 -0.722462 -0.514026 1.008170 0.312999
ReferenceType_BuildEvent -0.308608 -0.163898 0.040307 0.073250 -0.327775 -0.497452 -0.359262 -0.100573 2.298973 0.020124 0.175079 0.604050 0.700709 0.281889 -1.237638 -0.519014 0.596589 0.679195 0.022161 -0.277579 -0.102364 0.888286 0.852293 0.892630 -0.208920 0.363465 0.464565 0.503282 -0.380707 -0.624329 0.290736 0.250343 0.933328 1.223022 0.594021 -0.386119 0.165540 -0.246249 -0.914029 -0.934508
ReferenceType_OutputStream -0.106689 2.241455 0.688469 0.094362 0.739562 0.161472 1.308573 0.127109 0.558373 0.104878 0.106333 0.024041 1.240586 0.812012 0.208810 1.035146 0.495795 -0.842504 0.898140 -1.294072 0.842533 0.352931 -0.313539 0.251453 -0.550322 0.538231 -0.433306 -0.567341 0.267926 -0.385230 1.731161 0.087915 -0.457492 0.181780 0.417739 -0.168941 0.764293 -0.578762 0.050116 1.040732
MethodInvocation_lastModified -0.847622 0.537352 -0.360204 -0.453997 -1.279065 -0.654679 0.258882 0.835634 -0.451386 0.465841 -0.767739 0.504712 -0.568314 -0.763887 0.364748 0.271792 0.145021 0.613663 -1.000942 0.588992 0.339838 0.104163 -0.384115 -0.646127 0.284114 1.183048 1.586928 -0.181481 0.046297 -0.903440 -0.802008 -0.387690 -1.608216 -1.057572 1.009971 -0.976069 -0.779466 -0.052439 -0.416500 1.118202
MethodInvocation_replace -0.467842 -0.101243 0.196805 -0.867826 -0.615881 -0.701621 -1.598846 0.731301 -0.258271 -1.292713 0.826461 -0.013489 -0.798142 -0.678971 0.571758 0.317314 0.365790 -0.834421 0.523521 0.403888 1.201357 -1.135440 0.946683 -0.087567 0.427528 0.429418 -0.624384 -0.607963 -0.573597 0.621279 -0.085201 0.088800 -0.938933 -0.337395 0.607745 -0.065265 -0.376410 0.119630 0.861482 0.516250
ReferenceType_ClassLoader 1.070847 0.457491 0.303495 0.281951 -0.455565 -0.100493 0.943308 -0.427359 -0.839402 -0.308309 0.984306 0.460048 0.623812 0.357290 -0.093161 1.269166 -0.065200 0.176760 0.055316 -0.493647 -0.793382 1.442803 -1.150537 -1.104678 -0.305655 -0.433880 -0.353827 -0.446871 0.308356 1.242222 -0.261069 0.297790 0.040304 -1.323009 -0.734831 0.630492 0.780005 -0.128298 0.601921 -0.236744
ReferenceType_BufferedReader 1.654739 -0.168134 0.282670 -0.691651 0.195833 0.466062 0.145566 0.571497 0.664070 0.481233 -0.638443 -0.304862 1.161082 -0.406795 0.397564 -0.457788 1.829717 -0.489233 0.804854 0.342374 -0.048621 1.792326 0.671837 -0.645390 0.299782 0.602860 -0.005873 -0.330413 -0.651844 -0.191521 -0.647381 -0.525082 0.401190 0.308899 0.053547 0.403439 -0.460055 -1.123485 -0.103887 0.078693
ReferenceType_Reference 0.587958 -0.960670 0.346529 0.225701 -1.356558 -1.445653 0.727697 -0.165243 -0.253848 -0.360512 1.129545 0.161295 -0.475752 -0.500470 0.674684 0.226930 -1.132113 0.769771 -0.232605 0.391535 -0.270785 -0.591260 0.309934 0.223401 -0.326384 0.620821 -1.227871 -0.375640 0.306447 1.756633 -0.420522 0.845208 0.352587 -0.024283 -0.149514 0.293525 0.965648 -0.569162 0.728516 -0.856755
MethodInvocation_forName -0.463146 0.531494 1.426451 -0.558519 -0.687941 1.071788 0.877008 0.395621 -0.564043 0.791763 0.532657 0.836999 1.036095 0.428488 -0.428814 0.574859 1.241497 -0.204141 -0.777036 -0.492378 -0.440425 1.000241 -0.056155 -0.945235 1.031998 -0.702693 0.222588 -0.446505 0.102668 0.437871 -0.565736 0.313182 -0.155195 -0.444531 0.217496 0.111774 0.467866 -0.133174 0.951392 -0.296963
ReferenceType_PrintStream -0.667299 1.086978 1.220862 -1.238595 0.616383 -0.551503 -1.175647 0.426283 -0.250223 -0.487677 0.262511 -0.603088 0.593442 0.805959 -0.300242 0.018901 1.169121 -0.292934 0.079244 -0.842404 -0.497554 0.029569 -0.351125 -0.337908 -0.869903 0.821495 0.006777 -0.211768 0.145974 0.026098 0.158260 -1.136646 -1.122682 0.800472 0.108943 0.735809 0.700987 -0.366445 0.167061 0.941298
ReferenceType_Target 1.465302 -1.056228 -0.380622 -0.218656 -0.318799 -0.129383 -0.018752 -1.044388 0.490968 -0.676826 -0.409251 -0.998302 -0.015718 1.033661 -0.240852 -0.154928 0.584763 0.821767 0.506624 0.009835 0.091187 1.096011 -0.514411 0.957955 -0.263838 -0.676707 0.110402 0.756285 -0.928003 0.821461 -0.537268 0.938339 -0.237192 -0.046291 -0.060267 -0.168136 0.916255 -0.702550 -0.256529 -0.803690
ReferenceType_URL 0.006449 -0.234554 0.368439 -0.491074 -0.327409 0.737227 -0.154246 0.396978 -0.560293 0.958394 -0.235866 0.477854 0.603200 -0.804370 0.526133 0.467370 0.514513 -0.665520 1.082372 0.317113 0.324141 1.205010 0.116131 -1.488685 0.335143 0.758612 -0.872823 -0.395757 -1.370656 -0.545396 -0.606047 -0.645502 -0.059140 -0.438348 0.513601 0.598581 0.230587 -1.189263 -0.764135 0.488532
MethodInvocation_writeOut 0.611312 -0.898016 -0.502119 0.425667 -0.239462 -0.845853 0.700355 0.299309 0.880466 0.790078 0.088724 -0.965848 0.185801 0.964548 -0.875721 -0.281495 0.597661 0.204443 -0.352964 -0.474868 0.389665 -0.252895 -0.604352 1.016336 0.445766 -0.739552 0.731046 -0.604042 1.103936 -0.250180 0.762514 0.624134 -0.218271 -0.523910 -1.208409 -0.106601 -0.631043 0.939873 -0.456565 -0.631114
ReferenceType_Resource -0.392260 0.401214 -1.582712 0.977807 -1.378379 -0.081962 0.047357 -0.288700 -0.397012 -1.027698 0.244253 0.975104 -1.529020 -0.436910 -0.242841 0.094072 -0.175145 0.138151 0.036613 -0.151340 1.522174 -0.596996 0.459929 -0.823420 -0.053177 0.304325 -0.075085 -0.031988 -0.074259 -0.060286 -0.310203 0.318402 -1.241403 -0.663424 0.883325 -0.622164 -1.193950 0.363183 -0.190237 0.419286
ReferenceType_ZipShort 1.039071 -0.387801 -0.345468 0.635346 0.131987 -0.716998 0.589303 0.263383 -0.082421 -0.434140 1.159152 -0.426263 0.019730 0.235828 -0.708768 -0.526528 0.227222 0.238066 -0.018521 -0.198929 0.868473 -1.207826 0.142877 0.052039 0.121249 -0.772620 0.720623 -1.610139 1.386214 0.106587 1.075855 0.759336 0.548601 -0.579552 -0.827483 -0.279671 -0.582610 0.878695 0.097607 0.079109
MethodInvocation_arraycopy 0.090038 0.272746 -0.084915 0.394747 -0.932555 -2.200139 0.428149 1.014165 -0.233529 0.096349 0.124137 -0.108260 -0.194314 -0.163122 0.018491 -1.080602 -0.031990 0.945646 -0.487312 0.448386 0.338586 -0.284156 -0.457937 0.608379 -0.042038 0.076055 2.027639 0.286020 1.010333 0.199769 0.917525 0.921931 0.328101 0.092024 0.371934 -0.632401 -0.228377 -0.271379 0.499031 -0.367263
MethodInvocation_trim 0.286826 -0.877850 0.104059 -0.392778 0.727053 -0.248238 -0.761545 -0.741770 -0.864615 0.201483 -0.180558 -0.362680 -0.481252 -0.488979 0.727582 0.017727 0.264642 -0.948281 -0.162106 -0.276519 0.165630 0.081697 0.104172 0.440975 -0.282946 0.983551 -1.052547 -1.097407 -1.159035 -0.303484 -0.060821 0.408192 -0.426677 -0.413773 0.439488 -0.890004 -0.054446 -1.716060 0.884275 0.129099
MethodInvocation_resolveFile -0.284632 0.324096 0.040403 0.255379 -0.630632 -0.117473 -0.377657 0.061420 -1.192991 -0.376236 -0.561407 0.542774 -0.308452 -0.716191 0.476510 0.140901 -0.327143 -0.580115 0.378495 0.628314 -0.424281 0.960601 -0.608737 -0.686732 0.035425 0.788593 -0.210388 0.375304 -1.016561 -0.305465 -0.472528 -0.078801 -0.369058 0.678365 1.210282 -1.283060 0.158321 -0.947726 0.320124 0.423976
ReferenceType_ZipLong 0.529114 0.088264 -0.927542 0.230430 0.427996 -1.191374 0.047393 0.555054 0.504149 -0.348240 0.619954 -1.031512 1.032883 0.185041 -0.119160 1.040306 1.680464 0.965398 -0.248220 -0.109172 -0.032118 -0.333461 -0.543927 0.684649 -0.155289 -0.038219 0.877406 -0.624904 0.590370 -0.138896 -0.071788 0.218309 -0.027875 -0.831814 -0.745282 -0.060932 -0.653078 0.958941 -1.020570 -0.383559
MethodInvocation_newInstance -0.073278 0.070529 1.513241 -0.675731 -0.316582 0.584914 0.995064 0.470125 -0.872601 0.902817 1.229628 1.108686 0.778985 0.143381 -0.556613 0.558632 0.809834 -0.168274 -0.911769 -0.209002 0.199753 0.531915 0.583359 -1.455497 1.156045 -0.092420 0.305025 -0.258757 -0.019781 -0.834521 -0.805360 0.091423 0.656487 -0.197930 0.188685 -0.118086 0.166700 0.182089 0.864075 0.474542
MethodInvocation_setError -0.504725 1.693515 -0.721673 0.484720 -0.429305 0.037091 -0.583887 1.989639 -1.100256 0.024551 0.523739 0.280986 0.717627 -0.309529 0.884727 0.492411 1.065150 0.033581 0.479284 -0.651557 0.427200 -0.107316 0.041322 -0.088233 -0.069410 0.247286 -0.876125 0.672591 0.911510 0.766769 0.008137 0.292473 -1.220865 -0.238533 0.114932 0.581013 -0.264164 0.171797 0.136552 0.351319
MethodInvocation_setProject 0.978296 -0.165864 -0.189417 0.428576 -0.530620 -0.067220 0.804142 0.512516 0.085222 -1.352755 -0.202042 -1.154841 0.073634 0.282914 0.514753 -0.594532 -0.264807 -0.159490 -0.393473 0.525374 -0.422861 0.382288 -1.045891 -0.261811 -0.099021 -0.586032 0.507292 -0.576216 -0.159837 0.950459 -0.559447 0.277025 0.253232 1.056792 0.555721 0.046961 1.648913 -0.503210 -0.324713 -0.298537
MethodInvocation_tooManyAttributes 0.019805 -0.845922 0.878794 0.398264 -0.847765 -0.155361 0.164366 0.315817 -0.507722 0.226342 0.396260 0.467774 -0.294901 -0.375550 1.121100 -0.891506 -0.525941 0.380765 -0.300172 -0.601207 -0.789369 -0.062168 0.628934 0.871832 -1.256348 0.171208 -0.151804 -1.453375 0.903059 0.617386 -0.589389 -0.076750 -0.767185 0.368868 -0.093650 -0.529828 0.584124 -0.439698 1.323619 0.027170
MethodInvocation_getRef 0.598186 -0.188227 -0.820587 0.481847 0.314703 -0.012587 0.935973 -0.976910 -0.894062 0.128340 -0.134030 0.676081 -0.754600 0.197318 1.717491 -0.465612 -0.831340 0.790696 -0.170199 -0.143925 -0.507637 -0.274617 -0.615169 -0.708167 -1.028047 -0.309638 0.706720 -0.904031 -0.333034 0.770174 -1.327296 0.236718 -0.131766 0.103405 -0.400556 0.091352 -0.093341 0.617481 -0.100356 1.044870
MethodInvocation_nextToken 1.724644 -0.441994 -0.279430 -0.535215 0.589213 0.294807 -0.156607 -0.860804 -0.688421 0.084723 -0.562435 -0.388677 -0.793525 -1.554704 0.405059 -0.727032 0.891572 -0.348538 0.063338 -0.177702 0.065084 0.342206 0.057622 1.275440 0.412584 1.287389 -0.308714 -0.438550 -0.480303 -0.316321 0.169844 -0.482740 -0.226708 0.041069 0.153324 -0.788295 -0.287916 -1.433799 0.313430 0.477398
ReferenceType_RuntimeConfigurable 1.288803 -0.620081 -0.648909 0.046078 0.035157 -0.680610 1.531384 0.017986 0.756653 0.400908 -0.268262 -0.814013 0.146092 0.722138 0.077507 -0.936577 -0.025618 1.146867 -0.057762 -0.086591 1.142396 -1.023966 -0.004319 0.239661 -0.444027 -0.897850 -0.832635 0.024609 0.260123 1.210118 -0.481485 1.161866 0.246486 0.387453 0.146819 0.366383 0.029614 -0.453716 -0.286581 -0.259333
ReferenceType_Stack 0.680517 -1.318550 -0.437151 -0.766885 0.109493 0.728510 0.680245 -0.070586 0.429521 0.057112 0.699709 -0.808453 0.172150 0.219689 0.153687 0.663066 0.816964 -0.079602 -0.161491 0.325736 0.578137 -0.463575 0.191322 -0.419306 0.139838 -0.575552 1.102599 -1.348302 0.726332 0.140174 -1.649198 -0.862900 0.046039 -1.102143 -0.660287 0.708286 -0.283878 0.724807 -0.500809 0.315945
ReferenceType_Throwable 0.509782 -0.381371 0.571503 -0.812031 0.182803 -0.381826 -0.532811 -0.372172 -0.302711 -1.162062 0.472985 0.431161 1.204377 -0.192780 -0.597079 0.095423 0.923696 0.627715 0.806972 -0.651446 -0.788610 0.265322 0.702329 -0.349760 -0.370851 -0.998351 -1.555492 -1.004554 -0.164026 -0.601291 -0.181887 -0.252696 0.672123 -0.172100 1.082204 0.505928 0.327860 -0.605914 -0.659709 -0.676778
MethodInvocation_endsWith -0.179593 -0.363349 0.401609 -1.235830 -0.236483 -0.418471 -1.158394 0.055351 -0.667964 -0.100001 -0.076628 0.078941 -0.479333 -1.127012 -0.365494 0.413128 0.549148 -0.997192 0.697071 0.007668 0.745401 -0.760211 0.380784 0.116141 0.587636 0.638395 -0.848377 -0.689149 -1.270757 0.513327 0.428451 -0.152939 -1.347700 -0.220414 0.227346 -1.258268 0.108468 -0.923464 1.184418 -0.058338
ReferenceType_FileOutputStream -0.131187 1.446744 1.668119 -0.724512 0.163701 0.642418 -0.125740 0.935047 -0.416459 0.512238 -0.716125 -0.554437 1.119747 -0.114030 0.164226 -0.303229 0.516764 0.209231 -0.792693 0.001646 -0.745292 0.142796 -0.196363 0.062284 -1.055492 -0.545379 0.552575 0.246331 0.760921 -0.997276 0.390945 -0.953723 -0.466908 0.003919 0.747110 0.768025 -0.350710 -0.544849 0.403187 1.292187
ReferenceType_PrintWriter -0.420201 1.153701 1.279435 -1.153500 -0.352704 0.346433 -0.566848 1.087977 0.617855 0.634575 -0.980187 -0.726607 0.626337 -0.453276 0.820023 -0.724201 0.551925 0.275491 -0.888911 0.449887 -0.279008 -0.356710 0.249340 -0.038585 0.011177 -0.439038 0.275729 0.479407 0.046590 0.090325 0.286350 -0.776898 0.061705 -0.213728 0.211254 1.615158 0.136206 -0.957394 -0.238881 0.081922
MethodInvocation_getMethod 0.539533 -0.709300 1.243064 -0.512405 0.019408 -0.037150 0.884547 0.075069 -0.297300 0.351790 0.261696 0.035661 0.075264 -0.121617 -0.782445 -0.108282 0.720408 -0.214661 -0.117861 -1.049233 0.403931 0.146821 0.649072 0.018241 1.686059 -1.198898 0.047129 -1.294647 0.582391 -0.133026 0.366706 0.017697 -0.620764 -1.319872 -0.428649 -0.318653 0.478170 0.686623 0.981838 -0.944674
MethodInvocation_invoke 0.313580 -1.110279 1.213379 -0.666180 0.534052 0.391318 0.078721 0.347253 -0.963594 0.257110 0.976052 -0.070390 0.769735 -0.446241 -1.217593 1.053702 0.326584 0.365890 0.604202 -0.021542 0.260300 0.564720 0.796156 -1.104692 0.253945 -0.863388 0.563243 -1.378897 -0.221669 -0.216830 -0.493057 0.223954 -0.117002 -0.912038 -0.005487 -0.535346 0.206523 0.291989 0.593912 -0.142451
MethodInvocation_setName 0.784780 -0.353480 0.507232 -0.478317 -0.729101 0.502882 0.242295 -0.263305 -0.768618 -0.881137 0.090789 -0.104429 -1.043458 -1.018600 -0.845834 -1.071861 0.411173 -0.048358 -0.448541 0.067336 -0.111829 -0.202972 -0.182293 0.399135 -0.211423 0.055968 1.093774 -0.765722 0.061590 0.027360 0.261581 -0.680520 0.033766 0.695135 -0.169364 -0.926952 0.400898 -0.665460 0.517485 0.246947
ReferenceType_java 0.492236 -0.048635 -0.076552 -0.587928 -0.173670 0.546945 -0.431990 1.731596 0.329475 -0.396222 -0.340994 -0.903458 0.807755 0.725206 -1.145418 -0.816182 -0.626419 0.881736 -1.151182 -0.211432 -0.336632 0.320674 -0.611369 0.334036 -0.006268 -0.681520 -0.037299 0.963118 -0.409141 0.018098 1.536130 0.438888 -0.789133 -0.058787 0.202480 0.530770 0.254186 -0.107245 1.123454 -0.390599
MethodDeclaration_toString 0.053179 -0.285390 -0.100992 -0.658709 -0.547675 -0.647631 -0.317266 -0.426716 1.106360 -0.574456 0.428741 -0.160458 0.261997 0.684009 0.316983 0.283595 -0.116436 -0.289077 1.205649 0.680110 0.941350 -0.033740 0.575574 -0.814177 0.120330 0.462555 -0.467018 -0.208485 -0.791883 -0.194208 0.356151 0.439785 1.245575 0.047248 0.402269 1.069621 -0.729723 -1.037777 0.323525 0.568494
MethodInvocation_keys 1.413558 0.774476 0.429217 -1.627032 -0.238608 -0.147754 1.136188 -1.189511 0.137045 -0.962053 -0.379118 -0.537676 -1.280455 -1.017300 0.046817 -0.074296 0.692378 -0.089099 -0.586179 0.262848 0.251478 -0.013353 0.407673 -0.139173 0.568312 0.084691 0.694428 1.173865 -0.703485 0.245731 -1.252476 -1.108440 0.534291 0.092239 -0.046053 0.712051 0.025845 -0.327449 0.283305 0.419381
ReferenceType_AntTypeDefinition 0.682571 -0.743340 0.264665 -0.072570 -1.022451 0.770622 0.859900 -0.773767 0.172358 0.512808 0.388747 -0.417898 -0.378883 -0.069245 -0.920117 0.527694 1.131118 -0.450102 0.641808 -0.513750 0.094387 0.195029 -0.099588 0.135604 -0.022960 -0.487839 0.754882 -1.081822 0.185700 -0.498587 -0.452558 -0.294810 0.462441 0.304126 -1.929547 -0.933368 -0.956585 -0.179326 0.710620 -0.408475
ReferenceType_Method 0.297229 0.225646 0.749019 -0.980194 -0.021143 0.881471 -0.116540 -0.281322 0.143972 -0.088401 0.232169 0.311500 -0.396748 0.240775 -1.007106 -0.216319 1.050002 0.548491 -0.559848 -0.693672 0.480907 0.426179 0.457457 -0.673931 1.256122 -1.279555 0.317730 -0.544319 0.042589 0.297755 -0.503789 -0.172613 -0.929981 -1.780903 -0.573832 0.044679 -0.370146 0.893222 1.176773 -0.040062
MethodInvocation_clone 0.618380 0.767532 -0.779723 0.308675 0.911218 -0.265735 0.397187 -0.542930 -0.231469 -0.111835 -0.448576 0.023914 0.189863 0.485199 -0.030465 -0.683006 -1.043384 1.684214 -0.028811 -0.332284 0.228914 0.311852 -0.821361 -1.540195 -0.124693 -0.483861 0.542044 0.477273 0.141923 0.068654 -0.102790 0.318326 0.200749 -1.489256 -0.083286 0.282430 1.308675 -0.274665 -0.313202 0.524413
MethodInvocation_hasMoreTokens 1.714747 -0.519536 -0.059957 -0.621413 0.312248 0.101348 -0.435933 -1.153443 -0.135759 0.185157 -0.545788 -0.183146 -0.557640 -0.732378 0.293371 -0.954747 0.958697 -0.168614 0.173839 -0.248658 -0.032483 0.814526 0.441621 1.022251 -0.033404 1.258974 0.117642 -0.354466 -0.195416 -0.824651 -0.287377 -0.812213 0.061839 0.084461 0.068769 -1.130785 -0.508057 -2.021923 0.475454 0.635016
MethodInvocation_print -0.253359 0.986307 -0.013892 -0.688428 -0.116151 -1.216728 -0.795301 0.790932 0.488447 -0.346736 0.410085 -1.221010 0.131687 -0.078398 0.731402 -0.447884 1.503464 0.266598 -0.427111 -0.217896 0.326897 -1.508177 0.016892 0.678573 0.273322 1.096322 -0.747629 -0.181391 1.368210 0.731502 0.935351 -0.528673 -0.341340 -0.488250 -0.836280 0.975816 0.260826 -0.684682 0.079717 0.145316
ReferenceType_Parameter 1.281220 0.634100 -0.651461 0.831506 -0.417764 -0.068568 0.593175 0.337245 0.816437 -0.702508 -0.099969 -0.807018 -0.465948 0.519614 0.156927 -0.477086 0.288795 -0.372274 -0.233011 -0.875801 0.450778 0.638018 0.150735 0.196587 0.664536 -0.221941 -0.509730 -0.030904 0.309673 0.501635 0.422686 0.909354 0.065919 0.656560 -0.323147 0.333063 -1.068436 0.247251 1.190765 -0.052934
ReferenceType_PatternSet 1.315032 0.366935 0.610261 -0.053383 -0.364184 -0.138817 0.307905 0.327913 -0.582615 -0.531120 0.114627 -0.267003 -0.749399 -0.114481 -0.168158 -1.009039 -1.159563 0.874242 -0.760415 0.006297 0.075256 -0.144541 -0.205070 -0.518677 0.400976 -0.003302 0.267524 0.026816 0.716904 0.803230 0.938932 -0.264896 -0.601844 -1.294183 -1.240955 0.784045 0.257546 0.857564 0.601153 1.006237
MethodInvocation_toLowerCase 0.078471 -1.236855 -0.150225 -1.013952 0.219145 0.247781 -0.379728 -0.279101 -0.696741 0.119618 0.319765 -0.933376 -0.408853 -0.620751 0.113965 1.860027 -0.201066 0.917016 0.895191 1.144561 -0.229855 -0.793188 0.591066 0.451228 -0.137829 -0.320377 -0.075376 0.373068 -0.155040 -0.169946 -1.787776 0.015278 0.180876 -1.134591 -0.207363 -0.297116 -0.414903 -0.470147 0.007011 -0.088495
ReferenceType_EnumeratedAttribute -0.491211 -0.199895 -0.119411 0.445475 0.378488 -0.348618 -0.019861 -0.265630 -0.220369 0.893173 1.797095 1.021749 0.443475 0.318286 -0.935568 0.627071 0.836515 0.009853 0.968029 -0.422913 1.540671 0.203179 0.151571 -0.655002 -0.482517 1.587998 -0.294630 -0.147322 0.300931 -0.447155 -0.402271 0.701294 0.475053 -0.208314 0.086858 -0.846968 -0.738754 -0.536467 0.344687 0.703173
MethodInvocation_appendSelector -0.182855 -0.980417 0.167829 0.324329 0.413654 0.639665 -0.635283 0.577403 0.419101 0.159799 -0.053526 -0.474075 0.659066 1.054315 -0.535882 0.393666 -0.395023 0.268984 -0.223713 0.772839 -0.423418 0.294405 -0.771770 0.604610 0.531418 0.092868 -0.603289 0.488833 -0.415418 -0.488848 0.310676 0.293167 0.293097 0.002589 -0.384450 0.500459 -0.201944 1.154567 -1.168466 -0.407905
MethodInvocation_copyInto -0.507709 -0.114253 -0.529533 0.010504 -1.244634 -0.084590 0.098232 -0.825296 1.373223 -0.719369 0.354500 0.176466 -1.370522 1.066037 -0.291252 -0.843010 -0.992728 0.045653 -1.202047 -0.486661 1.379561 -0.298429 0.774220 -0.189454 0.706639 0.189975 -0.097156 0.105275 0.442121 -0.130701 0.105972 0.509222 -0.479341 -0.850065 0.697844 0.568267 -0.125133 -0.474042 0.192475 0.426099
MethodInvocation_isFamily -0.199903 0.139564 -0.369685 -0.337440 1.021478 0.033170 -2.070328 0.348741 -1.254925 0.304941 0.834918 -0.032264 0.676587 0.557355 0.345556 0.079378 0.945551 0.490256 0.468555 -0.190707 -0.480584 -0.588310 -0.470043 -0.590940 -0.392436 -0.094559 -1.035356 -0.497668 0.144230 0.159783 -0.384586 0.274459 -0.544813 -0.289385 -0.318598 -0.361395 -0.960337 -0.457786 1.773233 0.473694
MethodInvocation_newFileUtils -0.508043 0.619684 0.832313 -0.139911 0.487995 0.569485 -1.309467 -0.624957 -0.667912 -0.619994 0.216578 -0.496664 0.365286 0.252559 0.895676 0.623895 -0.624443 -0.230393 2.106749 0.303874 -0.732021 1.764762 -0.947136 -0.172809 -0.108306 0.205821 0.316057 0.478230 -0.384197 0.202330 -1.177447 -0.628993 -0.064773 0.740468 0.262081 -0.799093 1.466078 -0.498556 0.719914 1.279989
ReferenceType_DirectoryScanner -0.670603 0.685586 0.093371 -0.710372 -0.209773 1.043722 0.544975 -0.033224 0.577106 -0.168051 -0.493446 0.800494 -0.690298 -0.087271 0.898992 -0.988020 0.365922 0.539716 -0.224782 0.486621 0.398870 -0.489118 0.938649 0.573326 -0.316497 -0.277936 0.486489 0.253788 -0.382669 1.573608 -1.361346 0.875926 -0.310101 0.666019 1.827797 1.001125 -0.230826 -0.364634 0.345923 0.527334
ReferenceType_IOException -0.014856 -0.540669 0.093624 0.588677 -0.719470 -0.868067 0.370897 0.982323 -1.092035 -0.276259 0.066018 0.677557 -0.084420 -0.666702 1.152340 -0.281355 -1.292002 -0.036200 0.033001 0.232716 -0.259097 -0.685691 0.420378 -0.173561 -1.393618 0.444718 -0.811712 0.188319 0.649733 0.086304 0.306332 -0.346956 -0.093901 -0.094362 0.590571 0.716826 0.590439 -0.747394 1.138718 -0.532401
ReferenceType_InputStreamReader 0.891058 0.002198 0.176070 0.697865 -0.434707 0.336479 0.757999 0.994616 -0.262506 1.046401 -0.555705 0.262922 1.258935 -0.590406 0.438212 -0.824147 1.140898 -0.239453 -0.069629 0.151772 -0.158297 1.663268 0.104609 -0.803646 -0.166799 -0.002003 -0.077486 -0.357138 -0.302174 -0.939906 0.046970 0.334326 0.534631 0.168699 0.543601 -0.247931 -1.218204 -0.799257 0.180586 -0.339073
ReferenceType_Manifest 0.112553 0.228583 -0.190434 1.227705 -0.165236 0.712304 -0.049350 1.027892 -0.930091 0.354097 0.487374 0.240551 0.555847 0.209997 -0.300973 -0.275594 0.106690 -0.227724 -1.137209 0.049045 -0.305549 0.925499 -0.295104 -1.278206 -0.711465 0.109273 -0.247880 0.207046 0.659597 -0.008638 -0.234203 0.497816 0.129107 -0.309148 0.384082 0.486273 -1.223251 0.203740 1.149171 -0.211665
MethodInvocation_delete -0.413019 0.213057 1.171314 0.221046 -1.158695 -0.228685 -0.199327 0.592592 0.072949 -0.159314 -0.526083 0.681534 0.301496 -0.394608 0.174986 -0.003211 -0.543459 0.076446 0.575012 0.486709 -0.468599 1.428513 0.748299 -0.449337 -0.569833 0.266897 0.474600 0.224151 0.100866 -1.126075 -0.399209 -0.653053 -0.338074 0.017030 1.080681 -0.474844 -0.130376 -0.404633 0.313829 0.460065
ReferenceType_Attribute 1.080508 -0.441427 -0.419368 0.515463 -0.821973 -0.173486 0.634358 0.056614 -0.931906 -0.404724 -0.336657 -0.929582 -0.325606 -1.647701 -0.326447 0.385471 -0.042981 0.154178 -0.137312 0.226919 -0.086444 -0.491514 -0.328157 0.304157 -0.458364 0.340075 -1.149764 0.571356 -0.123797 -0.150084 0.497102 -0.448145 -0.014126 -0.700382 -0.288678 0.454674 -0.623799 -0.167635 -0.358993 -0.642366
ReferenceType_FileUtils -0.216347 0.896560 0.279591 0.099000 0.524346 0.377864 -1.457990 -0.746769 -0.248169 -0.696946 0.185707 -0.667837 0.463069 0.679849 0.436463 0.482587 -0.114067 0.020417 1.967921 0.112292 -0.571231 1.575685 -0.984155 -0.467268 -0.540948 0.198595 0.176725 0.548023 0.101764 -0.090258 -1.020292 -0.772830 -0.123606 0.243864 -0.025329 -0.452911 1.078968 -0.945645 0.298485 1.150724
ReferenceType_Long -1.011030 0.990126 0.386522 -0.637776 0.533659 0.042827 -0.266852 -0.862035 -0.620871 -0.645947 0.360388 -0.217564 0.146886 -1.212688 -0.426739 0.973982 -0.236717 0.548117 1.456555 0.188367 0.352116 -0.395877 0.494968 1.039669 0.963695 -0.222683 0.296878 -0.043033 -0.143910 -0.726866 0.895241 -0.527350 0.056218 -0.556638 0.576120 -0.625482 -0.468136 0.515238 -0.804102 0.988076
ReferenceType_ZipEntry 1.643269 -0.051352 0.025408 -0.488994 -0.454486 0.655601 1.137253 0.320793 -0.357576 -0.180448 -0.459803 -0.837034 -0.151151 -1.345190 -0.649984 0.359624 0.031131 0.334938 0.212592 0.084636 0.273758 0.145923 -0.185073 1.370134 0.873799 0.266331 0.103794 0.279249 -0.349701 -0.042195 1.209420 -0.282360 -0.928249 -1.145485 -0.222288 0.497476 -0.360902 0.501157 -0.499878 0.264542
MethodInvocation_flush 0.025644 1.158648 0.619813 -0.021860 -0.259533 -0.637090 0.351835 1.450232 1.286172 -0.354369 -0.003681 -0.425747 1.629176 -0.346097 0.775755 0.035355 1.230146 -0.032242 0.080749 -0.126126 0.514908 -0.445116 1.427163 -0.137505 -0.243724 -0.138489 -0.295697 -0.604053 0.276306 -0.757112 1.111301 0.167847 0.311070 -0.615364 0.271076 0.616425 0.501642 -0.008359 -0.460717 -0.331512
MethodInvocation_readLine 1.175149 -0.611317 0.359338 -0.897211 0.359206 -0.052592 0.180102 0.184651 0.149396 0.475519 -0.411689 -0.177301 -0.133623 -0.951330 0.941829 -0.648447 0.630115 0.088480 -0.133262 0.292899 0.705707 0.170703 1.580740 -0.658596 0.745834 0.618879 -0.263958 -0.009361 -0.132854 -0.794115 -0.726860 -0.587627 0.694589 -0.701817 -0.047898 0.456895 -0.307771 -0.993761 -0.037448 0.283362
ReferenceType_ZipFileSet -0.035381 -0.244962 -0.889991 1.128960 -0.005500 -1.280827 0.744652 -0.658404 -0.574707 -0.071567 -1.117540 0.305747 -0.575560 -0.330436 1.621498 -0.329252 -0.844926 0.851289 -0.157679 0.262807 -0.504500 -0.507065 -0.599215 0.269670 -0.697049 -0.912770 0.975996 -0.394008 -0.163882 -0.137583 -0.445852 1.007247 0.550331 0.362090 0.537573 -0.854537 0.091094 -0.372855 -0.643783 -0.533803
MethodDeclaration_getValues -0.694145 0.060071 -0.108781 -0.153964 -0.149732 -0.834004 0.328617 0.288978 0.024106 0.649603 1.310018 0.000469 0.034740 -0.045604 -0.016897 0.908207 0.449774 -0.100564 0.678928 -0.099629 1.660910 -0.210485 -0.101370 0.185031 -0.309191 1.824480 0.555397 -0.499180 0.579791 -0.981529 -0.570227 0.061806 -0.160187 -0.345596 0.278491 -0.776629 -0.485451 -0.571675 -0.200365 1.319380
MethodInvocation_noChildrenAllowed 0.380626 -0.555828 0.136303 0.501559 -0.565241 -0.929029 0.107726 -0.250489 -1.544643 -0.260729 -0.332366 0.870695 -0.531852 -0.181889 0.262906 -0.963553 -1.698917 0.828917 -0.080510 -0.063510 -0.742347 0.003991 -0.136897 -0.593761 -0.846341 -0.127179 0.330732 -0.257127 1.348994 0.006434 0.568281 -0.855035 -0.633325 -0.760295 -0.423091 -0.328923 0.948720 -0.291613 0.644674 0.269659
MethodInvocation_getDir -0.932296 1.018938 -0.351984 -0.355307 -0.037075 0.148246 0.412255 0.115431 -0.462621 -0.249075 -0.463395 0.400611 -1.232868 -0.648924 0.984196 -0.413530 0.165450 0.201951 -0.846643 0.422132 -0.083258 -0.550731 -0.089359 -0.391552 -0.470772 0.007124 0.509771 0.727015 -0.297221 1.466276 -1.093953 0.126875 -0.588663 0.585791 1.103016 0.499363 -0.014258 -0.060720 0.543233 0.055532
ReferenceType_Date -0.329091 -0.396560 -0.171547 0.286244 0.241259 -1.272994 -0.656383 -0.348937 -0.271837 0.638668 0.425991 0.508823 0.165586 0.357824 0.372364 0.038738 0.361785 0.171631 0.819923 -0.355365 0.389132 0.459588 -0.277036 0.337787 -0.386166 1.170797 -0.083214 0.379016 0.908811 -0.221526 0.753428 -0.118168 -0.734796 -1.539611 -0.012813 0.987259 0.796030 -0.282044 -0.398940 -0.433385
MethodInvocation_next 1.102623 0.838430 0.037013 -0.656623 -0.246631 0.886302 0.672587 -1.048591 1.034654 -0.486351 -0.651626 -0.243694 0.080370 -0.363751 -0.407789 -0.576018 1.023261 -0.046189 0.494188 -0.364875 -0.236457 -0.446791 0.477416 0.848844 0.228507 -0.940844 -0.500708 -0.225126 -0.274886 -0.010008 0.723845 -0.343449 0.677387 0.569542 -0.685090 0.036484 -0.745125 -0.296511 0.252869 -0.193745
ReferenceType_FileSelector 0.799827 -0.920836 -0.041385 0.395038 -1.067882 0.098308 0.557798 -0.699869 0.559057 0.471031 0.866400 -0.626360 -1.167082 0.458560 0.485368 -0.484055 -0.411898 -0.021947 0.158819 -0.618397 0.715473 0.585614 -0.097548 -0.085970 -0.056734 0.853980 -0.449979 0.160027 0.187742 1.151984 -0.268547 0.127843 0.050575 0.071533 -1.483026 1.344380 0.243318 0.016928 -0.435448 0.506591
ReferenceType_InputSource -0.046015 0.395045 0.166288 -0.516258 -0.484832 0.256818 0.393998 0.926653 0.740183 1.071197 -0.489892 0.125438 1.090000 -0.542393 -0.342089 0.195773 -0.313224 0.275791 0.022159 0.237720 0.610693 1.052927 0.318403 -1.009198 -0.578171 0.736870 0.542528 0.772137 -0.712519 -0.607354 -0.094848 -0.156282 0.150642 -0.459277 0.310885 0.654834 0.097423 -1.052650 -0.338190 0.413359
ReferenceType_Iterator 0.813252 0.750837 0.162888 -1.340265 -0.322699 0.180506 0.185603 -0.714469 1.793201 -0.829766 -0.490495 0.476940 -0.065591 -0.129458 -0.836992 -1.408846 1.101378 0.416038 -0.065205 -0.278997 0.224644 -0.658602 1.000415 0.231626 0.119718 -0.650612 0.789958 -0.467198 -0.438367 0.042871 0.565212 -0.518843 0.798624 0.885155 -0.327344 -0.101413 -0.124540 -0.023927 -0.010366 0.192135
ReferenceType_List 0.134366 0.173427 0.052672 -0.663075 -0.989065 1.039412 0.239564 0.141310 1.488153 -0.022743 0.764086 -0.640546 -0.139525 1.026587 -0.464882 0.494496 0.458256 0.259959 0.220445 0.332466 0.536221 0.636131 0.149413 0.657863 0.335655 0.501974 -0.106068 0.598434 -0.363485 1.221591 -0.673729 1.089295 -0.543190 -0.327612 -0.237765 0.855444 -0.881456 0.361607 0.647363 0.557665
MethodInvocation_getDirectoryScanner -0.419857 0.933079 -0.341949 -0.745824 0.017348 0.941304 0.752205 -0.185167 0.633227 -0.239293 -0.661373 0.977404 -0.606176 -0.025358 0.969206 -0.675638 0.327545 0.525802 -0.399459 0.638124 0.222049 -0.904535 0.613944 0.236379 -0.169776 -0.369026 0.471073 0.518244 -0.571628 1.911765 -1.335985 0.763799 -0.002120 0.747895 1.578634 1.202392 -0.142193 0.124962 0.303012 0.328125
MethodInvocation_getIncludedFiles -1.153394 1.101197 -0.606138 -0.422274 -0.179028 0.253675 -0.204478 0.078360 0.863564 -0.632582 -0.585603 0.996753 -0.809490 0.144148 0.701561 -0.944173 0.463674 -0.075097 -0.407103 0.672327 0.453981 -0.840777 0.580154 -0.441413 -0.230587 0.158771 0.681925 0.445913 -0.488798 1.301226 -0.677230 0.428024 -0.119989 0.871923 1.479521 0.764344 -0.274524 -0.059157 0.223333 0.134888
MethodInvocation_getPath -0.971452 -0.374291 1.047059 0.054414 -0.570668 0.041900 0.551519 0.768258 -0.772625 0.457254 -0.368893 -0.210190 0.237911 0.399852 0.347825 0.515591 -0.318447 0.085421 -0.371646 0.053602 -0.167040 0.331423 -0.068663 -0.283215 -1.378919 -1.039739 -0.275645 -0.063250 -0.038677 -0.312448 -1.141672 0.519006 -1.070925 0.035746 1.037467 -0.567206 -0.541176 -0.279451 1.040867 -0.033803
MethodDeclaration_setName -0.334915 -1.226869 -0.246490 -0.463757 -0.071471 -0.567624 -0.586241 -1.322600 0.276734 -0.463842 1.326917 -0.872421 -0.523178 0.812307 -0.990507 1.279794 -0.556181 -0.384249 0.873454 -0.546579 1.091099 0.060328 -0.469023 0.562504 -0.351279 0.667733 -0.283729 -0.492844 0.267536 0.088542 -0.437076 0.090123 -0.239836 -0.963844 -0.342553 -0.306372 0.754393 -1.093959 0.520085 -0.009609
MethodInvocation_copyFile -0.990551 0.222955 0.294869 0.715987 -0.216439 0.929874 0.065509 0.670562 -0.234890 0.300356 0.572180 0.361482 -0.217919 -0.532743 -0.090551 -0.004186 0.031635 -0.245738 0.163656 0.015913 0.113426 1.495737 0.193347 0.186053 -0.423261 0.544192 0.847094 1.304254 0.261053 1.023334 -0.598481 0.267155 0.133018 0.703769 0.933662 0.925668 0.862359 0.012636 -0.032963 -0.772099
MethodInvocation_createPath -0.407304 -1.000034 0.108344 0.234321 -0.637472 -1.231701 -0.080707 -0.258591 -0.154634 -0.113286 0.505157 0.450580 -0.700417 -0.050495 0.588994 0.115992 -1.280427 0.546210 -0.428714 0.975512 -0.664783 -0.558230 -0.223506 0.036512 0.256160 0.746625 0.010056 -0.288938 -0.128639 1.490308 0.100386 0.930856 0.780208 0.066872 -0.712361 -0.417349 1.051726 -0.135045 0.257992 -0.764780
MethodInvocation_hasNext 1.471976 0.822284 0.223357 -1.115346 -0.553399 0.331057 0.716715 -1.030892 1.341143 -0.645563 -0.528745 0.177704 -0.161958 -0.574352 -0.413145 -1.305207 1.148363 0.126700 0.157989 -0.112245 -0.053226 -0.536199 0.743595 0.599812 0.008608 -0.331575 0.405238 -0.254468 -0.462536 0.205691 0.579099 -0.750642 1.042055 1.002693 -0.490179 0.352940 -0.553523 -0.333713 0.068564 0.214997
MethodInvocation_isJavaVersion -1.334624 0.663414 0.012976 0.243871 1.262265 -0.194258 -0.014966 -1.015339 -1.595803 0.812510 0.164620 0.570136 0.422972 0.233743 -0.239655 0.575230 -0.108611 0.276496 -0.589154 -0.775800 -1.233115 -0.052944 -0.975906 0.545309 -0.653716 -0.291467 -0.597172 -0.285775 0.287516 -0.209485 -0.045393 0.329956 -0.487263 0.208012 0.874002 -0.936863 -0.889230 0.156198 1.008678 0.296043
MethodInvocation_list -1.189339 0.836145 -0.132568 0.355689 -0.734895 -0.495346 -0.270050 -0.251125 0.163888 -0.799400 -0.665137 0.938020 -0.585096 0.213580 -0.071433 -0.186660 -0.695070 0.273513 0.475745 0.361000 0.119424 -0.208780 0.057212 -1.047686 -0.442516 -0.561709 0.740981 -0.349719 -0.741801 0.454991 -0.065421 0.295300 -0.206102 0.666657 0.511028 -1.453225 0.136973 -0.334446 0.442006 0.090536
MethodDeclaration_read 1.464599 -0.007339 -0.571736 0.157073 0.674088 -0.353199 0.284421 0.156079 -0.074302 -0.006199 0.210371 -0.490273 0.552209 0.564063 1.006338 0.090940 0.169661 -0.413416 -0.199149 -0.285972 -0.158771 -0.250110 -0.095116 -0.195724 -0.903192 0.244945 0.393244 -1.589164 0.403939 -0.353859 -0.397428 -0.076403 0.078713 -0.224313 -1.339870 -1.130263 0.006994 -0.594476 0.852821 0.389527
ReferenceType_Execute -0.072203 -0.202088 0.162775 0.323728 -0.471854 0.442573 -0.051993 0.482852 0.311105 -0.440111 -0.387157 -0.088106 0.470894 0.248391 0.164521 0.347087 -0.049342 -0.330379 -1.591192 0.766054 -0.875967 0.432685 -0.571567 -0.884090 -0.309635 -0.571065 1.279138 -0.702602 -0.522865 -0.237207 -0.068440 -0.294055 -0.122494 -0.791517 -0.122339 0.150624 1.239377 0.189721 -0.905939 -0.860178
ReferenceType_NameEntry 1.472862 -0.086726 0.415497 -0.057350 -0.605065 -0.132376 0.462817 0.039196 -0.713709 0.067997 -0.014693 -0.079317 -0.859880 -0.820887 -0.525662 -0.629436 -1.072593 0.844241 0.078236 0.017930 -0.139098 -0.131869 -0.329525 -0.160369 -0.135437 0.508408 0.137058 -0.233216 0.488789 0.574504 0.916625 -0.768357 -0.495661 -0.637721 -1.648782 0.375506 0.135765 0.444718 0.088494 0.732037
ReferenceType_Thread 1.012540 1.394449 0.027804 0.273093 0.755959 0.012518 1.223528 0.265767 0.115540 -0.189628 -0.043093 -0.465071 0.708547 0.848355 -0.157452 0.472389 0.857218 -0.871792 0.832942 -0.791869 0.405533 0.037397 -0.869107 -0.085148 -0.093739 -1.549713 -0.445389 -0.301239 0.026566 -0.021685 1.279677 0.549690 0.190438 0.635109 -0.736767 -0.168306 -0.828222 0.436795 -0.068867 0.110021
MethodInvocation_execute -0.058508 0.505813 0.960178 -0.242514 -0.248059 0.616315 1.343309 0.452207 0.005985 -0.391857 -0.094083 0.175205 0.871390 0.257809 0.113744 0.462806 0.635125 -0.324074 -0.157751 -0.131081 -0.358671 0.173632 0.252080 -0.404751 0.224808 -0.959272 -0.063484 -0.123366 -0.126843 -0.137761 -0.647428 -0.168437 -0.404104 0.355104 1.219294 0.477908 1.128225 0.922982 -0.783134 -0.110300
MethodInvocation_init -0.278171 -0.439982 0.037013 0.049843 0.858489 0.012917 0.559342 -0.634629 -0.116286 1.014226 -0.191387 -0.443745 0.782344 1.103260 0.106935 0.006464 0.512619 0.162503 -0.088952 -0.260105 -0.241464 -0.519367 -0.514982 0.560342 -0.195034 -0.518639 -0.782526 -0.175545 0.348056 0.359151 -0.370966 0.502487 -0.427008 0.227830 0.444308 -0.289232 1.391662 -0.429830 -0.499626 -0.543142
MethodInvocation_iterator 1.165556 0.578399 0.286753 -1.327348 -0.333396 0.278221 0.374643 -0.959596 1.662334 -0.769581 -0.596239 0.489722 -0.117450 -0.307910 -0.568809 -1.315097 1.033047 0.218259 -0.108522 -0.093189 -0.023497 -0.773011 0.941292 0.464734 0.243768 -0.558895 0.511741 -0.494879 -0.566681 0.168678 0.689350 -0.747613 1.066679 1.021010 -0.376940 0.131856 -0.282633 0.007686 -0.023688 -0.005676
ReferenceType_util 1.154726 -0.651705 -0.395939 -0.215585 -0.187328 0.576293 -0.365338 1.510198 0.706743 -0.075139 0.061500 -1.323002 1.174907 0.883029 -1.154725 -0.720006 -0.412238 1.010344 -0.636119 0.163095 -0.058126 0.600758 -0.869792 0.879578 -0.064337 0.299169 0.189498 0.446068 -0.212888 0.002645 1.430314 0.968475 -0.352580 -0.357356 0.048663 0.571959 0.252765 -0.369400 0.361158 -0.018995
MethodInvocation_getCommandline -1.456099 0.074372 0.521653 0.084587 -0.965952 0.111574 -0.042442 -0.080661 1.017984 0.466911 0.446657 0.289014 0.735145 1.016431 -0.852468 0.645110 0.056271 0.036679 -0.672101 -0.062009 -0.131001 0.419722 0.035213 -0.601178 0.320366 -0.063278 -0.257234 0.100305 0.176067 0.015194 0.072286 0.654367 -0.101580 -1.098150 0.827609 0.957846 -0.104976 0.065997 -0.099777 -0.653137
MethodInvocation_getTaskName 0.094270 0.249982 0.221964 -0.362309 0.217077 -0.306328 -0.158807 0.540954 -0.085330 -0.671762 -0.489921 -0.532294 1.011946 1.222286 0.112442 -0.093194 0.692780 -0.077225 0.031506 0.565724 -0.288263 -1.202402 -0.729302 -0.425052 -0.595333 -1.140610 -1.678126 -0.205555 -0.652329 0.528479 -0.085304 0.707403 -0.456833 0.841559 1.589088 0.385750 0.203009 -0.154151 0.170570 -0.086684
MethodInvocation_printStackTrace -0.467907 0.701359 0.659779 -0.598818 -0.188583 -0.999061 0.139802 1.131939 -0.099349 -0.094491 0.709286 -0.201712 1.278526 0.073247 -0.427262 0.362389 0.020324 0.557201 -0.416812 -0.238198 -0.086940 -0.755508 0.170543 -0.833343 -0.026492 -0.069703 -0.473570 -0.091759 1.193426 0.239114 0.493537 -0.395484 0.239199 -0.500679 0.053126 0.979926 0.854589 -0.051149 0.363347 0.015630
ReferenceType_AntClassLoader -0.582865 0.178971 0.362222 -0.351099 -0.583012 0.123170 1.120906 0.591333 -0.401714 0.579729 0.151074 0.162696 0.855578 -0.274522 0.284224 1.116045 0.661439 0.340769 -1.148768 0.855635 -0.951524 0.566160 -0.828407 -0.494547 0.455253 -0.409900 1.042304 -0.413214 0.138214 1.481538 -0.915043 0.805045 0.023606 -0.948312 0.058120 0.108149 0.182868 0.222963 0.721893 -0.937589
ReferenceType_ProjectComponent 1.073738 -0.448250 -0.146346 0.297098 -0.677784 -0.067226 -0.388940 -0.486196 -0.723417 -1.098837 0.429521 0.418105 -0.455511 -0.400931 -1.565786 -0.038936 -0.772266 0.403306 1.191690 0.324359 0.288864 0.142227 -0.363560 -1.091957 -0.202299 -0.266721 -0.024879 -0.372125 -0.331287 0.003431 0.665498 0.194315 0.303412 -0.618935 -0.024160 -0.621811 0.034200 -0.473634 0.281459 0.050018
synchronizedstatement 0.521397 0.674484 -0.034518 -0.100131 0.511544 -0.414620 0.235986 0.534725 0.037817 -0.037863 0.297729 -0.099446 0.340118 0.411887 0.231092 -0.130504 0.147216 0.613139 -0.257549 -0.783454 0.247686 -0.050701 0.264672 -0.724490 -0.042429 -0.509445 0.355124 0.187641 1.316327 -0.359928 -0.307195 -0.632084 -0.357917 -0.689015 -0.576577 0.702699 -0.017773 0.802852 -0.377163 0.732410
MethodInvocation_isAssignableFrom -0.608820 -0.184709 0.341648 -0.400415 0.344135 -0.919738 -0.289904 -0.428843 0.077178 -0.494117 0.554896 0.949617 -0.114372 1.074083 -0.311358 0.681680 0.638683 -0.436201 0.417129 -0.447868 0.330573 -0.767463 0.194013 -0.390634 -0.026146 -0.291547 -1.690011 -0.498390 -0.353586 -0.183397 -0.851064 0.355325 -0.607533 -0.000319 0.429442 -0.900986 -0.526218 0.443634 0.755244 -0.072426
ReferenceType_ByteArrayOutputStream 0.072597 0.894134 0.799293 -0.686691 0.499702 0.059924 -0.634187 0.076164 0.144763 0.972358 0.255482 0.030414 0.926677 -0.090965 0.192167 0.493811 -0.267101 0.714858 0.250145 1.129982 -0.721871 0.371497 -0.546228 0.619760 -0.503545 -0.054657 0.525727 0.943387 -0.247255 0.570091 0.330983 0.592019 0.848533 -0.092070 -0.375762 0.063287 -0.292764 -0.857727 -0.016173 0.030592
ReferenceType_Condition 1.666419 -0.267826 -0.443231 -0.304753 -0.152887 0.146996 -0.223452 -0.843985 -0.827627 -0.444731 0.263134 0.373765 0.362582 -0.398169 -1.648088 0.323915 -0.206727 1.573139 1.649311 0.034603 -0.450668 0.151303 -0.354763 -0.075258 -0.854983 0.329449 -1.326066 0.836325 -0.070463 -0.199715 0.113720 -0.439887 0.072559 -0.323808 -0.135056 -0.223897 -0.354123 -0.335264 -0.298139 0.587928
ReferenceType_Mapper -0.568223 -0.544848 -0.966782 1.339677 -0.450735 0.833473 -0.802437 -0.011929 -0.477149 -0.510478 -0.127192 0.638137 -0.493770 0.185671 0.578746 0.090688 -1.256133 -0.241522 -0.257052 0.610270 -0.472383 0.845249 -0.272316 -0.557996 0.147768 0.468346 0.340603 0.157819 0.066549 0.374162 -0.372834 -0.156715 -0.336174 -0.441222 0.285224 0.051554 0.845399 0.398065 0.063326 -0.389568
MethodDeclaration_getName 0.030291 -1.135869 -0.454355 -0.059940 -0.021348 -0.312490 -0.615935 -1.274550 0.043946 -0.357533 1.116160 -0.847606 -0.446914 0.383949 -1.346709 0.655620 -0.288974 -0.463783 0.870527 -0.691281 0.911497 0.167969 -0.466817 0.630210 -0.063599 0.582811 -0.538025 -0.548782 0.164889 -0.125920 0.125222 0.224888 -0.039364 -0.413030 -0.185393 -0.829437 0.608470 -1.170413 0.689333 -0.174380
MethodInvocation_currentTimeMillis -0.151062 0.083916 0.766404 -0.687231 0.916290 -0.657255 -0.383639 -0.252661 0.616389 0.920990 -0.712185 -0.232061 0.235508 -0.078161 -0.470976 0.028126 0.692861 -0.094832 0.441157 -0.996825 -0.077919 0.422730 0.844077 0.753409 0.823850 0.751281 -0.087354 0.530125 -0.295496 -1.008824 0.401188 -0.561053 0.042660 0.111475 -0.548680 -0.166006 0.478493 -0.136272 -0.684655 0.165491
MethodInvocation_validate -0.635276 1.695270 -0.171622 0.178668 -0.996638 0.148546 -0.504097 -0.200573 0.146121 -0.540398 -0.928462 -0.017499 -0.816367 -0.707914 0.866457 0.572184 0.313235 -0.621982 0.470264 -0.131260 -0.197940 0.653810 -0.350631 0.009563 0.025954 0.738410 -0.610640 0.936005 -0.588461 0.489163 0.381856 -1.131543 -1.184925 -0.576619 -0.329777 0.901500 -0.333342 -0.245470 -0.072306 0.288371
ReferenceType_Boolean -0.128380 -1.056751 1.093971 -0.368354 0.629277 0.365524 -0.671935 0.141378 -1.022317 0.246764 0.926485 -1.308752 0.351339 0.537555 -1.083818 1.341440 0.012738 0.377962 0.599506 0.265419 -0.216106 0.156535 -0.182711 -0.143185 0.537629 -0.736525 0.109200 -0.477170 0.377843 0.638570 -0.239113 0.411058 -0.347475 -0.822713 -0.682683 0.189811 -0.232300 0.811006 1.061419 0.034886
ReferenceType_FileList 0.274202 -0.576981 -1.116132 -0.012751 0.088679 0.695839 -0.380867 -0.757448 -0.334935 -0.415356 -0.614613 -0.174878 -2.230848 -0.707459 0.388934 -1.229053 0.099402 0.095008 -0.754675 0.373952 -0.134699 -0.251026 0.246168 0.270153 0.126141 0.217963 0.244714 0.910264 0.299236 0.479587 -0.717636 -0.139596 -0.647095 0.783093 0.541986 -0.374630 -0.180309 -0.398396 -0.497607 -0.223779
ReferenceType_FileNameMapper -1.265599 -0.108863 -0.058949 0.224365 -0.152142 0.513124 -0.614211 0.090362 0.050812 -0.204350 0.963158 1.074027 -0.217516 0.782174 0.260434 0.124744 -0.599112 -0.531945 -0.285369 0.156767 0.289138 0.114187 0.480504 -0.511778 0.261575 0.326842 0.418372 -0.114855 -0.104955 0.491806 -0.198354 0.365886 -0.001971 0.335343 0.201635 0.181772 0.112680 0.301685 0.710799 0.155590
MethodDeclaration_write 0.148315 0.862900 -0.219062 0.467030 0.373890 0.634180 0.412550 0.762903 0.804898 -0.051885 -0.786652 -0.191403 0.457870 -0.890534 1.330251 -0.848164 -0.289117 -0.229360 0.224376 -0.183813 0.650816 -1.055103 1.157778 0.170854 -0.728354 -0.392900 -0.494759 -0.105064 0.293609 -0.767598 1.038159 -0.365728 0.328693 0.341962 -0.178881 0.352111 0.481825 -0.186440 -0.319845 -0.148281
MethodInvocation_contains 0.312276 -0.893704 -1.080090 0.103873 -0.872961 -0.483216 -0.214563 -0.373687 0.021269 -0.523600 0.163668 -0.124366 -0.672647 0.149609 -0.493500 0.203082 -0.371184 0.675925 1.219744 -0.551689 0.989841 -0.270531 -0.125511 0.504501 0.310937 0.460623 -0.566444 0.040838 0.916183 -0.111839 -0.115143 -0.526141 -2.132243 -0.812897 0.568121 -0.682020 0.187668 0.405773 -0.501647 0.989969
MethodInvocation_push 0.646354 -1.540994 -0.097350 -0.600722 -0.405416 0.621386 0.272818 -0.104512 1.128089 0.326799 -0.075984 -0.872665 0.544857 0.387309 0.071343 -0.334553 0.486498 0.171211 0.217702 0.783207 0.307041 -0.408959 0.441922 -0.226037 0.443943 -0.650320 0.990412 -1.214602 -0.017119 -0.269702 -1.179564 -0.466221 0.630496 -0.024572 -0.484401 -0.081361 0.099542 0.152165 -1.026129 0.136626
MethodInvocation_setRefid -0.558281 -0.895352 -0.079175 1.111588 -1.043783 -0.551985 -0.336136 0.575921 -0.117791 -0.136023 0.439610 0.439522 -0.359244 -0.190154 0.676392 -0.453988 -0.733871 0.409031 -0.133705 1.143172 -0.539551 -0.064566 -0.107983 0.075472 0.003178 0.543781 0.427658 -0.861062 0.209009 1.586077 0.417418 1.274705 0.703420 0.178461 -0.372831 -0.311795 -0.036062 -0.174375 1.149832 -1.077406
ReferenceType_Location -0.368900 -1.122790 0.038685 0.503790 0.229383 -0.534017 -0.482511 -0.233386 -0.755471 -0.105846 1.085510 0.120319 0.885430 0.075771 -0.776013 0.543835 -0.582892 0.637022 -0.073653 -0.099447 -0.744138 0.538644 -0.190579 -0.300181 0.098947 -0.313497 -1.500761 -0.970077 0.109821 -0.456623 0.018557 0.869052 1.121825 -0.259303 0.940299 0.104453 0.406663 -0.667351 -0.965480 -0.944745
ReferenceType_TimedElement -0.284809 0.104504 0.815230 -0.051404 -0.019033 0.463053 0.444210 -0.398115 -0.175947 0.436859 -0.031422 -0.090115 0.311960 0.428644 -0.314183 0.984867 0.760814 0.272521 0.192738 -0.805777 -0.667360 0.245242 0.459837 1.138480 0.474269 -0.768577 -0.461010 0.470823 0.235696 0.244275 -0.698670 0.269068 -0.512450 -0.475652 -0.631604 -0.151197 -0.462169 1.391840 0.300367 -0.329288
MethodDeclaration_copyFile -0.803956 -0.023035 0.063922 0.738308 -0.140136 0.827654 -0.441412 0.372047 0.372440 0.464593 0.903402 -0.042086 -0.404956 0.292757 -0.150964 0.050774 -0.235741 -0.337837 0.543441 -0.089186 0.285431 1.346915 -0.085052 0.784176 -0.300081 0.904072 0.663284 1.151582 0.472416 0.971280 -0.350904 0.450323 0.236359 0.900126 0.023076 0.739778 0.412011 -0.022576 -0.096766 -0.280114
MethodDeclaration_setFile -0.433352 0.214243 -0.072592 0.263123 0.230993 -0.069167 -0.760934 0.095774 -0.755542 -0.387744 0.372378 -0.430164 -0.088093 0.703333 0.447954 0.212894 -0.960506 -0.485515 0.847349 0.000180 0.013750 1.093475 -0.930373 0.203743 -0.422346 0.862391 -0.179585 1.119179 0.243758 0.617420 -0.061278 0.132241 -0.430842 0.566310 1.083050 0.714478 0.944142 -0.773865 0.721674 0.642286
MethodInvocation_replaceProperties -0.301410 0.097306 -0.155390 -0.264097 0.666797 -0.459934 0.420474 -0.061609 -0.606579 -0.149795 0.720914 0.042035 0.480486 -0.307057 0.509460 1.010590 0.672949 0.062414 -0.143989 0.484682 -0.148734 -0.318333 -0.008394 -0.222653 0.257680 0.637586 0.220772 -0.773504 -0.476744 0.563525 -0.312523 0.910072 0.570973 -0.379953 0.517993 -0.019241 0.419585 -0.270644 -0.266830 -0.306315
MethodInvocation_setLocation -0.616467 0.459229 -0.009218 0.734591 -0.050480 0.425335 0.614334 -0.077652 -0.415445 0.456516 -0.828700 0.022873 0.931927 0.088580 0.513713 -0.257177 -0.198896 0.719448 0.106791 0.399055 -1.268263 -0.062399 -0.793409 -0.398969 -0.633009 -0.824233 -0.715237 -0.106692 0.463171 0.173520 -0.308446 0.398966 0.474713 0.587711 1.029180 0.085826 0.502852 -0.829634 -0.559366 -0.378212
MethodInvocation_setNewProperty -0.751429 0.011085 0.009545 -0.465654 0.348708 -0.194465 0.184389 0.507052 0.100231 -0.545124 0.170754 -0.483691 0.444319 0.562709 0.274784 0.997225 0.246439 -0.647541 -0.429855 0.512441 -0.110883 -0.513454 -0.319636 -0.148897 -0.698037 0.224888 -0.290726 0.026206 -0.638887 0.481376 -0.769647 0.434270 -0.166468 0.394316 1.049314 0.209273 1.122789 -0.162434 -0.206203 -0.229272
MethodInvocation_setPath -0.049803 -0.458935 -0.257763 0.221387 -0.185117 -0.806087 1.177968 0.060377 0.760601 0.649827 -0.306456 -1.086344 0.011358 0.745577 0.954735 -0.266177 -0.042545 0.397413 -1.123539 -0.668879 0.300810 -0.420566 0.247483 0.273882 0.026785 -1.328030 -0.433590 -0.228424 0.889784 -0.024741 -1.323887 0.819049 0.465450 -0.113820 -0.283689 -0.298388 -0.179156 -0.498508 0.247635 -0.758754
ReferenceType_AntXMLContext -0.000245 -0.992191 -0.605985 0.387475 0.402499 0.979308 0.163184 -0.095593 -0.254932 0.225178 1.344925 -0.410976 0.042382 -0.422758 -1.016660 0.448777 0.039186 -0.125770 -0.268060 -0.129382 -0.048690 -0.450999 -0.412447 0.949498 -0.309100 0.366988 -0.564388 -1.041112 0.083039 0.978997 0.158448 0.575892 0.074872 0.912081 0.043978 -0.348453 -0.087211 0.151276 0.147867 -0.530241
ReferenceType_FilterSet 1.057849 0.166350 -0.629629 -0.320602 0.755653 -0.003707 -0.228507 -0.785454 -0.310693 -0.262725 0.127364 -0.029162 -1.477050 -0.936370 0.614467 -0.494093 0.157101 0.086212 0.080450 0.180025 0.327974 -0.071882 0.175968 0.310926 1.005300 0.821136 1.154433 0.480289 0.285815 0.772951 0.023372 -0.453696 0.210429 -0.766214 -1.167614 0.779717 -0.308756 0.301133 -0.145027 0.675420
ReferenceType_Process -0.281739 -0.369289 -0.326976 0.845300 0.087967 0.023284 0.465675 0.029541 -0.411369 0.668632 1.109637 0.084552 0.181165 0.847534 0.073966 0.851472 -0.373960 0.329820 0.412822 -0.557893 0.536964 0.975524 -0.326157 -0.160606 -1.059891 0.558855 0.078278 0.437168 1.119993 0.425203 -0.576587 0.227457 -0.367953 -0.478031 -0.185599 0.677152 0.330781 0.290393 -0.655671 0.245153
ReferenceType_Section 1.272541 0.405035 -0.946290 -0.171169 0.171398 0.644740 1.178731 -1.060586 0.643735 -0.072152 -0.551038 -0.268225 -0.679764 -0.179450 -0.337124 -0.426653 0.005099 0.585034 -0.855199 -0.280185 -0.192579 0.012930 -0.281942 0.116803 0.111269 -0.438421 0.171190 0.549733 -0.621357 0.783321 -0.500110 0.217953 0.380478 0.077529 -0.753112 0.203739 -1.024563 0.301056 0.561622 -0.099869
ReferenceType_SimpleDateFormat -0.337153 -0.175072 -0.162983 0.995886 0.029992 0.594671 0.547875 0.170789 0.005199 0.882697 0.140205 0.533312 0.819089 -0.036662 -0.242768 0.300550 0.363790 -0.403645 0.727327 0.700734 0.048350 0.007065 -0.473853 0.431454 -1.507115 1.023588 -0.453225 0.290603 -0.301686 -0.129781 0.175091 0.468391 0.162782 1.061482 0.937727 0.422422 -0.320612 0.247747 -0.784465 -0.465460
MethodDeclaration_getValue -0.598703 -0.117378 0.114028 -0.259850 0.124742 0.149396 -0.626004 -0.386595 -0.017440 0.572859 1.219573 0.075187 -0.262131 0.762176 -1.232874 0.438819 -1.018214 -0.435192 0.728129 -0.366813 1.116629 0.519094 -0.092189 -0.250963 0.812413 0.871698 0.163676 0.051996 0.438110 0.064844 0.200243 0.471572 -0.219510 -0.030038 -0.019163 -0.642561 0.376978 -0.663857 0.727158 1.068055
MethodDeclaration_setValue -0.650984 -0.607307 0.274115 -0.049487 0.018500 0.324382 -0.657960 -0.303614 -0.549148 0.470909 1.380066 -0.672650 -0.102661 0.554369 -1.140951 0.802186 -0.768327 -0.079607 0.777941 -0.162152 0.649216 0.232840 -0.258271 0.613927 0.285633 0.680131 -0.154059 -0.125594 1.095664 0.213384 -0.256588 0.352384 -0.372359 -0.150158 0.292486 -0.712047 0.383484 -0.941695 0.750268 0.734239
MethodInvocation_createArg -0.249391 -0.257519 -0.223111 0.000984 0.127672 -1.294866 0.397749 1.238582 -0.561595 1.322183 -0.855998 -1.203069 0.181735 -0.307154 1.063647 0.101563 0.520352 -0.312167 -0.723427 0.152532 0.472007 -0.773213 0.012385 0.722933 -0.145053 -0.507815 -0.018950 0.701242 0.670236 -1.109487 -0.604253 0.465225 0.004659 0.357042 -0.118199 -1.089883 -1.303740 -0.453089 -0.002016 -0.304405
ReferenceType_BuildListener 1.460472 0.059939 0.157005 -0.317077 0.124911 1.004925 -0.578975 -0.484244 0.754641 0.241039 -0.078894 0.079423 0.666176 0.279876 -0.548626 -1.239252 1.521564 0.131840 -0.344891 -0.089367 -1.113699 0.290304 0.000911 0.747766 0.270324 0.067948 -0.306725 -0.542444 0.105868 -0.061248 0.751692 -0.189234 0.750916 0.036314 -0.908742 0.385839 -0.496652 -0.779399 0.237207 -0.293255
ReferenceType_Integer 0.013124 -0.082475 0.601697 -0.671156 0.343577 0.370722 0.509807 0.389967 -0.175410 -0.838865 1.148860 -1.402699 0.309171 -0.824572 -1.119058 1.416749 -0.641642 0.190529 0.943568 0.357725 1.053027 -0.913146 0.607430 0.223331 0.799119 -0.370649 0.996270 -0.971985 0.774527 -0.189995 0.553249 -0.486631 0.273637 -1.035771 -0.280136 0.006737 0.941412 0.530787 -0.703176 0.873088
ReferenceType_ResourceLocation -0.459889 0.240846 -0.714579 0.300383 -0.013884 -0.168981 0.107212 0.294755 0.115125 1.010505 -1.017781 0.131817 0.589762 -0.211775 0.890418 -0.188199 -0.311061 -0.239192 0.776867 -0.043157 0.092038 0.137725 -0.278510 -0.929140 -0.748806 0.485005 -0.815079 0.596742 -0.042486 -0.456955 -0.058024 -0.724572 0.199395 0.242858 0.190601 0.972626 0.104273 -1.035316 -0.830429 0.018065
MethodDeclaration_isSelected -0.450986 1.630005 0.115323 0.245823 -0.688965 -0.184139 -0.564662 0.700396 -0.561977 0.306639 -0.150728 0.616235 0.301009 -0.050989 1.446543 0.257980 0.899607 -0.924436 0.765258 -0.022679 0.079140 0.478492 -0.131991 -0.277147 -0.031077 1.090234 -1.271152 0.985737 -0.275779 0.822382 0.494575 0.173333 -0.538573 0.090547 0.196387 1.301939 -0.425973 -0.594039 0.364482 0.211314
MethodInvocation_bsW 0.210877 0.160448 -0.679946 -0.557808 -0.339662 -0.243272 -0.456692 -0.669933 1.369345 -0.737242 -0.238647 -0.372951 -1.259417 0.292765 -0.017863 -1.008961 0.970908 -0.145383 -0.193711 0.438741 0.462029 -0.489191 0.361895 0.806046 0.491837 0.311485 0.946139 0.651053 -0.056491 1.057206 -0.719700 -0.049368 0.179118 0.941581 0.009006 0.325245 -0.337180 -0.101908 -0.234296 -0.005609
MethodInvocation_getBaseDir -0.248933 -0.063963 0.595082 -0.330576 -0.474328 0.840726 -0.008522 0.883171 -0.842785 -0.195008 -0.344953 0.222954 0.398390 -1.018338 0.431345 0.369137 0.053056 0.044252 -0.653272 1.003045 -1.291525 0.381829 -0.478855 -0.120545 0.349035 0.296633 0.487011 -0.258983 -0.579679 0.082686 -0.608094 -0.560237 -0.653732 -0.116228 1.017855 0.062895 0.895955 0.038120 -0.291586 -0.081734
MethodInvocation_getTime -0.310556 -0.822101 0.458430 0.233240 -0.210678 -0.610821 -0.501785 0.318036 -0.507588 0.418995 -0.060248 0.599099 -0.001033 -0.131292 0.392610 0.363728 0.148158 -0.433495 -0.239323 -0.194468 -0.232146 0.538600 -0.203827 -0.334973 0.104444 0.321761 0.286609 -0.563256 0.160054 -0.784094 0.573506 -0.377742 -1.018912 -1.964141 -0.285639 0.600742 0.569696 0.368475 -0.155954 -0.951083
MethodInvocation_isEmpty 1.298194 -0.802994 0.517548 0.353652 -1.340723 -0.887398 -0.075727 0.594015 -0.041276 -0.340606 -0.220919 0.448961 -0.167042 -1.085628 1.230365 -0.601573 -0.482948 0.183027 -0.774179 -0.067493 -0.832969 -0.333227 0.731040 -0.279006 -0.738227 0.300249 -1.064755 -0.476245 0.152594 -0.268214 -0.190980 -0.750128 -0.225730 -0.763379 -0.450427 0.426121 0.529748 -0.282397 0.065272 -0.474513
MethodInvocation_setInitialized 1.596919 0.300771 -0.108371 0.254842 0.490260 -0.577145 0.743379 0.731615 0.596165 0.133088 -0.250999 -0.435321 0.178466 0.326862 0.491767 -0.402917 0.414595 -0.763250 -0.827661 -0.786375 0.612404 0.138741 -0.134872 -0.068649 0.459385 0.280622 0.539158 -1.719054 -0.463752 -0.308276 0.584171 0.314703 -0.489059 0.185096 -1.101984 -0.992654 -0.316348 0.194215 0.431353 0.460978
switchstatement 0.040084 -0.755159 -0.144340 0.304399 0.598669 -1.003779 -0.632195 -0.319347 -0.187802 0.723563 -0.649598 0.310414 -0.309211 0.383599 0.950016 -1.267365 -0.555122 -0.103877 0.414077 -0.104720 0.203596 -0.775661 0.609476 -0.641049 0.786450 -0.163024 -0.455296 -0.909147 0.773435 -0.518900 0.965018 -0.008906 0.308845 -0.624511 -0.566496 -0.531939 0.676642 -0.918576 0.382244 -0.279123
MethodInvocation_addExisting -0.063157 -0.531180 0.424414 -0.239736 -0.002492 -1.323022 0.115209 0.219721 -0.173447 0.611885 -0.156651 -0.713587 -0.310785 -0.363404 0.331563 0.606474 0.725425 -0.238769 -0.029451 0.636312 0.033403 -0.480731 -0.002554 0.266113 0.028371 -0.463609 0.310662 0.195589 -0.528859 0.290931 -0.491304 0.666703 1.046944 0.486709 -0.957105 -0.973337 -0.989040 -0.599858 0.575021 -0.897145
MethodInvocation_addReference 0.473642 -0.423095 -0.220679 0.198142 0.096089 -0.258430 -0.061082 -0.704777 -1.079573 -0.579176 0.235883 -0.281372 -0.727698 -0.116275 0.281482 0.064486 0.356628 -0.130474 -0.247281 -0.146378 -0.853470 0.272873 -1.145422 0.232257 0.368511 0.356764 0.122924 -0.393360 -0.189027 0.591772 -0.682692 -0.241119 -0.235149 0.848469 -0.197330 -0.485201 0.520477 0.166179 0.159812 0.088276
MethodInvocation_getComponentHelper -1.057029 -0.044266 0.407124 0.290359 0.338916 0.657279 0.452427 -0.802663 -0.296954 -0.453750 0.057219 0.847935 -0.694971 0.185850 -0.110262 0.275386 -0.880518 -0.327487 0.023873 -0.118207 -0.092439 0.219265 -0.067657 -0.241109 0.104964 -0.370893 0.482245 -0.332729 -0.294204 1.691397 -0.360010 0.311734 -0.125186 0.471718 0.389524 0.223744 1.160041 1.100520 0.379699 -0.427193
MethodInvocation_getRefid 0.435277 -1.264387 0.495968 -0.440214 -0.102462 1.247864 0.799484 0.300498 -0.628767 0.232441 0.034621 0.121828 0.459897 -0.723579 -0.591280 0.052327 0.125835 0.222787 -0.632794 0.803377 -0.761345 -0.579376 0.567342 -0.489112 -0.190929 -0.965754 -0.294193 -0.668367 -0.347293 0.333831 -0.679939 0.003134 0.409864 0.284894 0.578181 -0.060453 -0.003277 0.433224 -0.077968 -0.770947
MethodInvocation_getWrapper 0.221020 0.462580 0.439802 -0.310205 0.097141 -1.137840 0.447335 0.446193 0.690962 1.083697 0.377800 -0.440345 0.555784 0.773870 -0.135827 -0.189983 -0.114121 -0.142750 -0.643258 -0.145550 -0.010234 -0.038536 -0.731011 0.226371 0.426626 0.029409 -0.534379 0.430666 -0.029484 -0.829052 0.356066 0.429210 0.542715 1.096634 -0.434564 -0.469864 -1.388919 0.095137 0.317014 0.717227
MethodInvocation_removeAllElements -0.477194 -0.182253 0.048282 0.131116 -0.567053 -0.869003 0.185857 0.880975 1.261802 0.411356 -0.935417 -0.704748 -0.075070 0.605432 1.032934 -0.714140 -1.085292 -0.370478 -0.179843 0.039988 0.865881 -0.125763 0.281423 -0.163740 0.606426 -0.444918 -0.098823 0.532619 -0.034511 -0.728442 0.344234 0.273017 0.597534 0.705835 -0.077193 0.302757 -0.143280 -0.500131 -0.117411 0.040292
ReferenceType_CVSEntry -0.653114 0.355964 -0.122478 -0.379091 -0.045959 -0.428028 -1.251767 -0.277897 0.408153 -0.398893 -0.297404 -0.339227 -0.512020 0.596739 -0.328698 -0.101430 0.706868 -0.048060 -0.260989 -0.413019 0.076683 -0.470122 0.036016 0.249511 0.030802 -0.603679 -0.271226 1.182083 0.483090 0.001311 -0.021956 -0.524198 -0.096765 -0.213739 -0.279551 1.058650 -0.987647 0.294676 -0.044781 -0.175970
ReferenceType_CommandLauncher 0.348927 -1.238273 -0.450339 0.288383 0.931165 0.307934 -0.745705 -0.040746 -1.412539 0.403595 1.019920 -0.379233 -0.054805 -0.005587 0.022715 0.360122 0.493754 0.583483 0.682257 -0.159285 -0.229542 0.185736 -0.417838 0.227675 -0.713554 -0.048498 0.270418 -0.478034 0.478682 0.126151 -1.089582 0.130967 0.117787 0.046856 -0.713879 -0.455435 -0.572992 0.216480 0.554765 0.233479
ReferenceType_Html -0.436045 0.496425 -0.385228 0.239410 0.406904 0.741266 -0.638368 0.269939 0.538617 0.059365 1.256452 -0.184108 0.563334 0.783846 -0.963575 0.592807 0.661310 0.020117 0.261548 -0.733399 0.185233 0.962594 -0.486740 -0.297182 0.394288 0.591273 0.375180 0.011525 0.666266 1.002061 -0.309355 -0.215420 -0.773303 -0.135023 -0.714603 0.418848 0.735051 0.667054 -0.137173 0.076541
ReferenceType_PropertyPermission 0.487378 -0.516074 -0.510155 -0.044505 -0.045630 0.352096 -0.216527 1.047380 1.168280 0.260045 0.444780 -1.361796 0.687660 1.084322 -0.714718 -0.401786 -0.151021 0.696281 -0.610086 0.172782 0.207322 0.319136 -0.861220 1.319674 0.425210 0.569270 0.529053 0.150117 -0.054882 0.379556 1.029514 1.208915 0.186746 0.239245 -0.627809 0.334917 0.199364 -0.189747 -0.182152 -0.167528
ReferenceType_ZipFile 1.374146 0.959440 0.810911 -0.610127 -0.251496 0.390510 0.905723 0.129509 -0.945321 -0.123505 -0.911268 -0.449304 -0.350602 -0.819616 0.369747 0.135771 -0.040062 -0.035579 0.380345 0.193415 -0.067513 0.529887 -0.329285 0.091866 0.568048 -0.596443 0.377722 0.985411 -0.967157 0.285984 0.406708 -0.323042 -0.513436 -0.018189 -0.389991 0.528969 -0.518207 0.789920 -0.321445 1.047608
ReferenceType_ZipOutputStream -0.601903 0.842477 0.008612 0.889332 0.022014 0.126603 -0.378734 0.062181 0.467009 0.032053 -0.315424 -0.006760 0.527945 0.759904 -0.061408 0.240744 0.206010 0.255134 0.540660 -0.084619 -0.587713 0.992756 -0.424560 0.097216 -1.111758 -0.141848 0.282214 0.495454 0.290994 -0.087561 -0.099826 0.236700 -0.021681 0.350009 0.395248 0.132898 -0.153117 -0.005953 -0.501635 -0.114119
MethodInvocation_containsKey -0.794893 0.016827 0.108543 -0.898053 -0.296128 -0.179769 0.219414 -0.497181 -0.012089 0.071986 0.338317 -0.376912 -0.714769 -0.521933 -0.006272 1.198821 0.523668 0.092859 0.195347 -0.060373 0.698713 -1.171341 0.710513 0.729072 0.588172 -0.150078 -0.315958 0.121043 0.144988 0.109408 -0.561736 -0.177060 -0.402250 -0.767028 -0.250799 -0.020719 -0.863481 0.309509 0.226129 0.130273
MethodInvocation_createClasspath -0.760856 -1.081344 0.160682 0.900212 -0.808847 -0.916740 -0.041042 0.441643 0.022849 0.417449 -0.092805 -0.065634 -0.215696 -0.184139 1.265961 -0.339640 -0.577762 0.299615 -0.051590 0.974555 -0.535820 -0.426188 0.046118 0.492171 -0.071445 0.202050 -0.081703 -0.781794 0.236317 1.179424 0.153077 1.161968 0.807918 0.560934 -0.467686 -0.431852 0.152897 -0.407870 0.716669 -1.332897
MethodInvocation_load 1.507018 0.961184 0.439252 -0.019362 0.118093 0.235756 0.985011 0.478732 -0.059827 -0.607601 -0.914701 -0.622362 0.589643 -1.043529 0.230733 -0.215250 0.548682 -0.562179 -0.496568 0.204572 -0.161451 0.573094 0.063933 -0.909584 -1.090329 -0.636186 0.264167 0.446026 -0.945476 -0.983154 0.488562 -0.687224 0.691410 -0.142201 -0.027799 0.524063 0.036908 -0.658920 0.214397 -0.475353
MethodInvocation_readFully 1.241072 0.104507 -0.655623 0.342465 0.131981 0.196930 0.073431 1.035747 -0.666061 -0.773869 0.521506 -1.047605 0.433940 -1.031365 0.012130 0.201219 0.239708 -0.047344 -0.031488 0.361464 0.358394 -0.061816 -0.505342 0.556162 -0.143925 0.628860 0.657083 -0.953677 0.180611 -0.392593 0.486587 -0.030791 -0.145487 -0.414522 0.049043 -0.588918 -0.493740 0.094204 -0.296959 0.620307
ReferenceType_AntHandler -0.302279 -0.808763 -0.565414 0.026358 0.868914 0.984202 -0.726179 -0.871232 0.474849 0.388443 1.009711 -0.530826 0.311855 0.361696 -0.516217 0.782274 0.134551 -0.122676 0.788078 0.455300 -0.418078 -0.075656 -0.614937 1.140708 -0.104630 0.833172 -0.078780 -0.402672 0.215433 0.286892 -0.501705 -0.083552 0.734650 0.716454 -0.156410 -0.046473 -0.087169 -0.132759 -0.282779 0.060641
ReferenceType_ArrayList 0.495363 0.148333 -0.145935 -0.386338 -0.884683 0.748540 0.110626 0.345721 1.446574 -0.152023 0.656353 -0.588271 0.251428 1.143460 -0.709932 0.341017 0.224924 1.058502 0.225010 0.260510 0.256912 0.604470 -0.486554 0.610523 0.016622 0.273757 0.108652 0.423836 -0.026822 1.071487 -0.481965 0.781127 -0.427030 -0.510433 -0.396467 1.081536 -0.534925 0.384830 0.252776 0.520264
ReferenceType_AttributeList -0.273090 -0.666447 -0.292368 0.059229 1.039822 0.445957 -0.281001 -0.757177 -0.202530 0.661036 0.746807 0.097237 0.045457 0.436147 -0.606914 -0.300922 -0.074175 0.293729 -0.419943 -0.343632 0.207273 -0.421562 0.319490 0.422775 0.146800 -0.189257 0.011183 -0.347513 0.606529 0.913087 0.054555 0.768530 0.170505 -0.137567 -0.072609 -0.157275 0.541154 -0.040305 0.400984 -0.502280
ReferenceType_ChainableReader 0.233884 -0.800557 -0.653423 0.279129 0.308400 -0.244898 -1.519837 -0.374756 -0.482509 -0.033819 0.459965 0.744071 -0.318452 0.746895 -0.440171 -0.484039 -0.551187 -0.619884 1.269559 0.600366 0.157247 -0.441832 -0.027206 -0.842298 0.298202 0.647898 -0.151547 -0.571508 0.270827 0.128324 0.649929 0.428478 0.944674 0.140830 -0.429974 -0.007606 -0.131110 -0.755027 0.671853 0.354937
ReferenceType_DataType 0.062323 -1.051173 -0.585587 1.035595 -0.520589 0.985583 -0.284686 -0.466733 0.549701 -0.494399 0.719548 0.185629 0.173100 0.239014 -0.698679 -0.321223 -0.484516 0.428640 0.972795 0.312727 0.346466 -0.073476 0.614129 0.067556 -0.044459 0.363170 -0.778035 0.008636 0.539520 -0.204969 0.287651 0.403491 0.221729 -0.224839 0.955818 0.626865 0.131058 -0.128750 -0.547002 -0.282528
ReferenceType_Environment -0.219951 -0.067210 0.162350 0.258150 0.214520 -0.811832 0.081937 -1.013153 0.480600 0.934608 -0.186183 0.396000 -0.035371 -0.302629 -0.371455 -0.440078 -0.153788 1.011291 0.618127 -0.133133 -0.261679 0.991489 -0.402237 1.266138 0.149877 0.553041 0.385525 0.650128 0.584925 -0.730514 0.687331 -0.089160 0.649092 -0.258357 -0.272645 -0.565518 -0.653341 -0.115578 -0.709098 -0.123752
ReferenceType_FilterSetCollection -0.778226 0.386332 -0.852830 0.442441 0.440626 0.339452 -0.948105 0.055935 0.381583 0.476504 0.252725 0.302427 -0.647555 0.304470 -0.004220 -0.485463 0.386585 -0.012883 0.213683 -0.160627 0.010136 0.918074 -0.202685 0.397558 -0.086160 0.811042 0.947473 1.270484 0.152622 1.229659 -0.620675 0.377085 -0.100170 0.743708 -0.241455 0.023352 0.548690 0.015718 -0.301265 -0.506413
ReferenceType_IntrospectionHelper -0.241711 -0.568185 0.958200 -0.049525 0.273891 0.852427 0.856590 -1.225462 0.013157 -0.370936 0.008702 -0.418740 -0.499590 0.499430 -1.334973 1.013401 0.281431 -1.203781 0.411204 -0.777915 0.403988 0.302498 -0.389096 -0.070985 0.229841 -1.084799 0.351554 -1.068600 -0.737568 -0.121783 -0.262809 -0.278061 -0.911738 0.281731 -0.221971 -1.099765 0.235920 1.220630 -0.001132 0.029640
ReferenceType_Map -0.492920 0.539834 -0.727327 0.025029 -0.097641 1.110938 -1.200377 -0.648987 1.570970 -0.379867 0.042630 0.055021 -0.297625 0.079963 -0.503559 -0.123082 0.086932 -0.120086 0.284137 0.072780 -0.420815 0.177356 0.100010 0.229377 0.067608 0.176821 0.310508 -0.221860 -0.155162 0.194456 -0.098946 -0.838912 0.408376 0.431810 -0.687171 0.713339 -1.289349 0.139276 0.180888 0.429344
ReferenceType_TaskContainer 0.227741 -0.317217 -0.594162 0.299646 0.812031 -0.333421 0.306454 -0.940198 -0.099995 0.474675 0.002232 -0.281145 0.201240 1.507983 -0.287226 -0.212479 0.099322 0.871630 0.493629 -0.531642 0.034247 -0.697672 -0.857857 0.668163 -0.542623 -0.592424 -1.005239 0.764878 0.312668 0.549131 -0.672550 0.832842 -0.122369 0.989042 0.172825 -0.697693 0.267355 -0.065911 -0.169430 0.014564
ReferenceType_ZipExtraField -0.424706 0.254491 0.322779 0.418900 -0.493118 0.285784 -0.488220 -0.212601 0.364353 -0.271489 0.122174 0.781480 -0.585707 0.064341 -0.423413 -1.015841 -0.300185 -0.463611 -0.963255 -0.181362 0.446360 -0.557972 0.978898 -0.587419 0.762413 -0.384772 -0.000652 0.052720 0.596666 -0.686004 0.786160 -0.553128 0.328954 -0.621114 -0.221518 0.504589 -0.425478 0.696103 0.011105 -0.097337
dostatement 0.011298 0.771803 0.137434 0.068690 0.395880 0.050093 -0.636978 -0.051145 0.406788 0.322596 -0.639678 0.063337 0.574605 0.445605 1.137869 -0.528014 0.675225 -0.113816 -0.068377 0.328659 -0.426681 -0.009951 0.302995 0.054056 -0.536896 -0.216825 0.413893 -0.566742 -0.087848 -0.951107 0.406864 0.153295 -0.108966 -0.052741 0.062721 -0.565351 -0.948632 -0.703140 0.165179 0.454435
MethodInvocation_bsR 0.430801 0.008434 -0.653706 -0.454523 -0.256590 -0.270119 -0.245715 -0.847650 1.036364 -0.405814 -0.196436 -0.108149 -1.083862 -0.024513 0.112950 -0.904750 0.268735 0.031345 -0.018082 0.245393 0.508828 -0.463279 0.266512 0.661314 0.319112 0.615594 0.539824 0.342419 -0.144418 0.413895 -0.069157 -0.056046 0.433976 0.602562 -0.222095 0.070869 -0.415833 -0.468223 -0.165379 0.352823
MethodInvocation_clear 0.206015 0.246942 0.034831 0.601680 0.235260 0.025594 -0.367236 0.397176 0.418992 0.131796 -0.585421 -0.338999 -0.169568 0.836971 0.368728 -1.596232 -0.576330 -0.752581 0.437239 -0.962511 0.587207 0.420502 0.102276 -0.438742 0.028458 -1.143572 0.256901 0.214168 0.540070 -0.584845 0.953727 -0.202252 0.097079 1.064915 -0.465707 -0.391030 0.881986 -0.549162 -0.327022 0.179096
MethodInvocation_describeCommand -1.361475 0.222802 0.113816 -0.210421 -0.902855 -0.307608 -0.214790 -0.193651 1.379383 0.231321 0.013494 0.195995 0.687284 0.890930 -0.329027 0.828274 0.036116 0.016415 -0.869134 0.254793 -0.167459 0.373754 -0.099323 -0.857520 0.286682 0.311582 0.903025 -0.326586 -0.229127 -0.479817 -0.093867 -0.154731 -0.189005 -1.075927 0.051887 0.181337 0.313823 0.174701 -0.845192 -0.171594
MethodInvocation_getClassLoader -0.008948 0.329368 0.797271 0.189847 -0.206253 -0.211196 0.768724 0.039402 -0.488202 0.258523 0.587906 0.373857 1.064597 0.235459 -0.867622 0.815121 0.507217 -0.380570 -0.769739 -0.698098 -0.835665 0.851564 -1.200754 -0.877909 0.355633 -1.046464 -0.125037 -1.143971 0.474958 0.408245 0.273135 0.343972 -0.247642 -0.908318 -0.320948 -0.307547 0.358185 0.485775 0.719133 -0.803113
MethodInvocation_parse 0.125786 0.159427 0.747471 0.491159 0.801160 -0.162488 0.024686 -0.083554 -0.673902 0.195160 0.009577 0.724236 0.480681 0.169582 0.541922 -0.314921 0.349117 -0.109423 0.123686 0.223803 -0.481929 0.270967 -0.213635 -0.680672 -0.260450 -0.056650 0.604362 -0.396371 0.299938 0.181653 0.465116 0.080866 0.258056 -0.710424 0.015044 0.809296 1.678229 0.408504 -0.470948 -0.982313
MethodInvocation_setFile -0.490436 0.177393 -0.518124 0.467832 -0.183782 -0.056354 0.341471 0.600729 0.254915 1.148135 -1.264466 -0.305595 0.046360 -0.243819 1.278740 -0.465861 0.350417 0.072478 -0.679094 -0.151761 0.002789 0.376882 -0.032260 0.469738 -0.911679 -0.341965 0.396302 0.493839 0.483365 -0.628025 -1.034292 -0.016911 -0.406642 0.120716 0.413694 -0.448461 -0.334323 -0.745827 -0.267998 -0.429119
MethodInvocation_setTaskName -0.318428 0.178098 -0.162270 0.486383 -0.068937 0.314428 0.401402 0.908014 0.084461 -0.421406 -0.474655 -0.567673 1.059954 0.705440 0.109578 -0.058221 -0.246057 -0.048443 -0.244076 0.442385 -0.727173 -0.897849 -1.008534 -0.011021 -0.266449 -0.333727 -1.436448 -0.584265 -0.365003 0.350335 0.238761 0.618714 -0.113395 1.465698 1.429169 0.092793 0.862948 -0.178510 -0.997202 -0.120197
ReferenceType_OutputStreamWriter -0.049106 1.300952 1.479908 -0.701748 0.113913 1.039597 0.239274 0.789527 0.140189 1.273304 -0.652457 -0.423461 1.183228 -1.049717 0.096750 -0.113670 0.552037 0.443990 -0.935959 0.424713 -0.654845 -0.165697 -0.086152 0.138187 -0.331089 -0.623523 0.488000 0.020768 0.258713 0.245291 0.829906 -0.735704 0.087394 -0.189678 -0.396664 1.078741 -0.249604 -0.155442 -0.216850 -0.002882
MethodDeclaration_addText -0.471580 -0.598269 0.191663 -0.038737 0.205470 0.206094 -0.691616 -0.080817 0.003842 -0.812366 0.790525 0.354941 -0.284194 0.344760 0.326155 0.087853 0.153688 -0.719627 0.807209 -0.211175 0.433215 0.116596 0.932153 -0.808118 -0.024197 0.175811 0.131375 -0.951725 0.017445 0.395030 -0.359623 -0.010798 -0.006390 0.520380 0.526580 0.418856 0.870046 -0.176013 0.246009 0.006869
MethodDeclaration_chain 1.114317 -0.402556 -0.494943 0.427256 0.106307 -0.495996 0.105257 0.555156 0.217928 -0.392113 0.297088 -0.100723 0.194704 1.035227 -0.028835 -0.921962 -1.448050 -1.145403 -0.764930 -0.024943 0.438049 0.056844 -0.630730 -0.935268 -0.167417 0.438890 0.344107 -1.218974 0.589964 -0.288594 0.224146 -0.322011 0.140572 -0.239624 -0.592857 -0.595088 0.411750 -0.151887 1.031822 0.589819
MethodDeclaration_eval 0.518941 -1.241019 0.300758 -0.229132 -0.304572 0.480636 -0.171012 -0.451904 -0.409187 -0.510922 0.356768 -0.847684 -0.168804 -0.019591 -0.698219 0.727579 -0.538269 0.051666 0.709934 0.402695 0.016122 0.126615 -0.086983 0.221580 -0.109734 0.147179 -0.897361 0.332824 -0.043979 -0.596264 -0.887714 -0.416049 0.111702 -0.136119 0.434571 0.421790 -0.157877 -0.274201 0.029943 0.407369
MethodDeclaration_setEncoding -0.787825 0.233152 -0.891432 0.759852 0.089095 0.164200 -0.565580 0.272252 -0.603258 0.231468 0.817800 -0.384997 0.177104 0.366543 -0.365676 -0.370299 -0.207263 0.131494 0.270767 -0.567671 0.507867 0.269703 -0.594570 0.467734 -0.353935 0.286727 0.141136 0.202193 1.360132 0.087262 0.414416 0.681354 -0.533043 -0.175663 0.803385 -0.239714 0.352396 -0.915036 0.373196 0.160667
